14 30
llamar 0.0018456897 -0.00035336902 -0.0072805136 -0.0072975555 -0.00010781385 0.015573969 0.008578335 -0.012635856 0.012232853 -0.013810986 -0.017257718 -0.016404407 0.0059849718 0.014296618 0.0013478692 0.01498707 0.0020941158 0.014008842 -0.009540051 0.006562768 0.0057466514 0.003490107 0.0137809785 -0.00057842163 -0.006560724 0.0023694127 0.004264578 -0.004385388 0.0012462457 -0.012046898
corresponsal -0.0136159025 0.008936468 -0.0026152243 -0.013062243 0.0053008534 0.00048277617 -0.0033064608 0.01473484 -0.008243838 -0.012019375 0.011593798 -0.007536198 -0.0101763895 -0.0022787084 0.015044312 -0.0009950337 -0.00090213964 -0.0085852835 0.010167755 0.005126925 -0.0059687616 -0.0060346248 0.015792558 0.009298511 -0.0048115384 0.012721113 0.010434004 -0.01001824 0.0024883854 -0.008854912
codigo 0.011603425 0.004434291 -0.014257371 0.005537791 0.0013081823 -0.011536193 0.00089533976 -0.010517107 0.015141811 -0.008231588 -0.01640121 0.01498707 -0.010698635 0.0065881596 -0.009645369 -0.007549246 0.017874364 -0.010242677 -0.005715597 -0.015674312 0.007633411 -0.00851639 -0.0045605386 0.011354078 0.0042045014 -0.0042044492 0.0027511409 0.015467649 -0.011987201 0.0039455127
credito -0.010341181 -0.009760101 0.016106026 0.0073304432 -0.013216872 -0.0141712455 0.011363199 -0.00024430748 0.009373493 0.008849745 -0.0027371983 0.011744592 -0.0014390597 0.005022088 0.0017945406 -0.0044934354 0.011077212 0.0056476067 0.009855829 -0.0094272485 0.006034059 0.010474384 0.015706083 0.008254752 -0.003832525 -0.012422523 0.014962734 0.009712547 -0.0026188623 0.0058538504
cuota 0.0138244275 0.014121049 0.014819444 -0.0114140855 -0.006346024 -0.008151036 0.010278285 -0.00017016694 -0.00062837935 0.0140972575 0.006894509 -0.0020960115 -0.0104788905 -0.005370645 -0.0053801574 0.0013580255 0.009288771 0.008986152 -0.0003893838 0.0063237906 -0.0064802417 0.006836997 -0.00013203005 0.009884262 -0.01131494 -0.0048989 0.0045939167 -0.003481862 0.009545706 -0.017079622
recibo -0.014785672 -0.011918683 0.0127764465 -0.013872265 0.008603935 -0.011701254 -0.017185897 0.0060143657 0.003428192 0.009114508 -0.010087976 -0.016522883 0.003060464 0.0077141137 -0.0013102806 -0.005869436 0.009512685 -0.0021335776 0.0027597698 0.007934084 -0.004245925 -0.011109251 -0.0044276915 0.0115596205 0.011341338 0.0014729247 -0.00033355708 0.0029484942 0.0085522905 -0.0138095105
ingresar 0.014679579 0.006121088 -0.008033585 -0.016193328 -0.0009665993 0.004159653 -0.014563861 0.004668406 -0.012498026 0.016435158 0.008795365 -0.01507851 -0.014410529 0.00046396823 -0.008582675 -0.011744441 -0.015194524 -0.0065118843 -0.00095060706 0.012643621 -0.0021268437 0.0062541077 -0.009130253 -0.013766956 0.016286189 0.015238998 -0.0040558297 -0.0025715774 -0.01641246 0.0007773862
problema 0.007676479 -0.0035961573 -0.00779286 -0.009417016 0.012316838 -0.016659047 0.007867351 0.0015064884 0.014370594 0.01157664 0.01442589 -0.011019119 0.004874311 -0.011836603 0.010780842 0.011188087 0.003118639 0.012094221 -0.008411229 -0.0043855747 0.0017661746 -0.015280329 -0.00051612704 0.0029307236 -0.01465603 -0.006146004 -0.015095528 -0.011326097 0.014198697 -0.009905897
bancolombia 0.012453473 0.0036359462 0.012956973 -0.0058696023 -0.00012911875 -0.0021033192 -0.012160156 -0.016002597 0.01543065 0.0051785675 -0.014865601 -0.013047369 -0.0042436887 0.015672203 0.0047364207 -6.522372e-05 -0.00022868265 0.013848083 -0.00875382 -0.008287456 0.013805091 -0.009056901 -0.005066075 -0.016484467 -0.016030885 -0.011190494 -0.016236747 -0.01567273 0.006227757 -0.015674066
oficina -0.0047960114 -0.0031661806 -0.004683175 -0.006423419 -0.008203655 0.015154435 -0.015233657 -0.0027407757 -0.0031472163 0.01359806 -0.0110581415 -0.003878057 -0.017461712 0.016174171 -0.006259736 -0.010596576 0.00036943235 -0.0008160175 0.0042178207 0.0109330285 -0.010941527 -0.015072316 0.016428182 -0.008506915 -0.009186552 0.006274861 -0.006195402 0.014429572 -0.0069226213 -0.014012653
datos -0.016262308 -0.007906692 -0.0021598754 -0.015540891 0.0032753146 0.016584668 -0.008271105 -0.0069935685 -0.001991803 -0.0019471651 -0.013612101 0.0067220335 -0.012954402 -0.012748603 0.0071058855 0.015901914 0.013217194 0.010505823 0.004139495 0.010100006 -0.0059093293 0.005430005 0.003037852 -0.0120929945 0.0063293683 -0.010117087 0.015444413 0.012604435 0.008562704 -0.014276882
llegar -0.015611036 0.003612348 0.009923522 0.007848282 -0.01571205 0.01216811 -0.015184434 0.008048489 -0.0028024726 0.015177013 -0.0089122895 -0.004351129 0.008092684 -0.010153594 -0.001791439 0.00038351613 -0.010502772 0.004223675 -0.009266647 0.009350411 -0.0033366042 -0.014613505 0.0051990575 0.009935377 -0.00010662069 0.014954185 0.01509509 -0.0021167365 -0.00968907 -0.012120287
mensaje 0.008928272 -0.01477014 -0.0019656913 0.008393017 0.014003465 -0.0059268754 -0.010288843 -0.0021570288 -0.012014677 0.006181821 -0.0121192755 -0.0017694666 -0.016210737 -0.00025468838 -0.00023813943 0.0055470243 0.0032700298 0.0017956552 -0.014301463 0.007682321 -0.0149328 0.0043078475 -0.0018568245 0.0018568581 0.0056763454 0.0009688287 0.0151981665 0.009815727 0.012315799 0.015384642
sistema 0.015459026 -0.008863657 -0.011908943 0.0117694335 0.016264314 -0.012974995 -0.008217103 -0.012085097 0.013150276 -0.013283316 -0.0038064206 -0.0072559165 0.0021456296 0.0011997191 0.0057612257 -0.010930055 -0.006924767 -0.009599627 -0.0132936295 -0.01210255 -0.015745161 0.009378691 -0.011605577 0.010931547 0.0012983184 -0.015517802 0.008976092 0.011411565 0.0090491185 0.00054976944
