13 30
corresponsal 0.013934395 0.0074103526 -0.008203935 -0.016018461 0.015137682 -0.0039159358 0.008573369 -0.011866024 0.015536633 0.011027145 -0.0014315184 -0.009095023 -0.0014854936 0.0029483205 -0.0015426127 -0.0021218613 -0.013298096 1.306405e-06 0.009613732 -0.0036389611 -0.0073921965 0.00568851 -0.0004711144 0.0137529075 0.009746527 0.0019044911 0.014021745 0.011723107 0.012819606 0.012023893
llamar 0.0062892637 -0.01570177 0.01009783 -0.0056075677 -0.009922764 0.0056099393 -0.009673035 -0.007876533 -0.0038384476 0.014747026 -0.0044181743 0.0043412265 0.008715468 0.00545527 0.005977815 0.011967383 -0.015680388 -0.0033306875 -0.00163635 0.008352098 -0.011300781 -0.01572417 -0.0042698467 0.0111771 0.015412816 -0.0026088858 0.015490884 0.013410824 0.0023351144 -0.015124129
aplicacion -0.006342227 0.0015996303 0.008007368 0.0032379774 0.014354029 0.0130936345 -0.010432434 -0.0016748473 -0.015874911 -0.015502822 -0.0023051153 0.0071933726 -0.0075800237 0.008065522 0.011923606 0.007153492 -0.005826284 -0.0036077122 -0.008929925 0.012688421 0.014365568 -0.014639901 -0.008086447 0.012557761 0.0011474658 0.014025474 -0.0005294998 -0.006982819 -0.015081499 0.0076663373
usuario -0.0009078675 0.013727232 -0.010065644 0.017209692 -0.014902369 0.003414697 -0.008661953 0.014931029 -0.011540218 0.002988469 -0.0048086653 0.0104587935 -6.471578e-05 -0.0131530985 -0.006965693 -3.0495265e-05 0.011593551 -0.009666988 -0.0069630267 -0.013376999 -0.014934422 -0.010863333 0.00073239807 0.013609905 0.010975527 0.015203027 -0.0059375158 0.008272015 -0.012492049 0.012400734
oficina -0.00220919 0.014416954 -0.005575931 0.009570306 0.004794815 -0.0050999126 0.0024144691 0.00015076058 -0.0071617668 0.016597785 0.002890128 0.002024439 -0.007083949 0.0064617996 -0.011146848 -0.014684057 0.0056881225 0.008479954 -0.0026515506 0.013944304 0.01202063 -0.0059175626 0.003538669 0.014309607 -0.003980884 -0.005532354 -0.005972653 -0.012744802 -0.00068120856 0.014773377
credito -0.00046914213 -0.00037492643 0.011812131 -0.00367304 0.010799438 0.0023987198 -0.01589631 0.0052057933 -0.009907058 0.0134040555 0.0067862943 -0.0030643214 0.013925602 -0.0021138184 -0.011020203 0.013354592 -0.0056038755 -0.008916212 0.007158871 -0.0005018987 0.006144811 0.0053880247 0.006109482 -0.008002012 -0.003447882 0.012779234 -0.008791612 -0.0010725092 0.009241336 0.016792927
sistema 0.0050703706 0.014714193 -0.013693986 -0.00018279388 -0.0076479707 0.0060852934 -0.011033069 -0.008186691 -0.0018781027 0.016208025 0.0006317465 -0.016691176 -0.0092273345 -0.0009493745 -0.0032201896 0.0002583098 0.0019449712 -0.0014570744 -0.01141863 -0.0013579099 0.013692281 -0.008059147 -0.0051679774 0.006410234 0.0041363994 0.0012784363 0.0048868 -0.001237925 -0.009593349 0.008148864
ingresar -0.014128111 0.007296841 0.00029903604 0.0020965014 -0.0047057 -0.003947664 -0.008792284 -0.0005220719 0.015383158 0.00039924335 -0.0021496925 -0.015256992 -0.0077051357 -0.0038474805 0.0048934272 -0.002975396 -0.016422395 -0.0051103574 -0.003919716 -0.005816941 -0.0071574636 -0.013871308 0.009525081 -0.012105571 -0.0028276439 -0.010590465 -0.009996864 0.0021699085 0.012938848 0.009921868
codigo -0.0056176363 0.0027064881 -0.0071750376 0.0070941704 0.012443012 -0.00757692 0.015304343 -0.014449923 0.005273171 -0.0009725659 0.0060728537 -0.002146365 0.006259737 0.013986604 -0.011160807 -0.005417474 0.012854227 0.0078632375 0.009663376 0.011825735 0.005946941 -0.015606714 -0.010579416 -0.006211825 -0.001050748 0.007588142 -0.0031961605 -0.0061037363 0.0144786 0.017032908
normal -0.0011148871 -0.012441149 -0.0034965107 0.01514889 0.009015673 -0.0019055074 0.0007194537 -0.015954934 0.00998949 0.009681581 0.007352539 -0.016762193 0.008946938 0.00035506202 -0.008705068 -0.004745318 -0.014064877 0.014751964 -0.0036272577 0.016189868 -0.002081489 0.015037886 -0.006894923 -0.00079623685 -0.014753792 -0.00966589 -0.0008643915 0.0028286253 -0.015633646 0.01434799
contrasena -0.0026304969 4.4647037e-05 -0.014256716 0.013492894 -0.016458709 0.003820739 -0.014459001 -0.0021786594 -0.0105073145 -0.01099953 0.008258512 -0.01138646 -0.005234287 -0.0036808052 -0.008636244 0.00023566946 -0.016944315 0.014350845 -0.0059468155 0.0052886913 0.01360686 0.0015179614 -0.0118141705 -0.008023252 -0.016866826 0.004621937 -0.015315248 0.007553938 -0.006903114 0.016354365
ingreso -0.0056651765 -0.008073349 0.012867746 -0.01037501 0.012859728 -0.004804216 -0.012172909 -0.013289677 0.015414638 -0.011240335 0.0056706783 0.0027135797 0.013948155 -0.008527678 0.0025377842 -0.010553773 -9.727778e-05 -0.011055491 -0.009013098 0.007826198 -0.010292635 -0.0029947716 -0.015652321 0.008355748 -0.013813699 0.0129183475 0.004931 -0.005963718 0.0013642662 -0.014753328
equipo 0.013500585 -0.0007005036 -0.012655624 -0.0057953 -0.0024803814 -0.012192112 -0.009021335 -0.0051036924 -0.012446866 -0.013892607 -0.010971939 -0.011262675 -0.008551726 -0.015277959 0.008157493 -0.0095849065 -0.008758455 -0.0017283786 -0.0070066936 0.016976403 0.0017037216 0.011050144 0.0027498777 -0.0099538425 -0.0064009964 0.010775589 0.00381298 0.0061497698 -0.014055718 0.0030595912
