4 30
llamar -0.010993435 -0.009374742 -0.004754139 0.016027914 0.012808779 -0.0040732743 -0.0067703086 0.004039863 -0.014263955 0.00397206 -0.014705072 -0.0017972393 -0.01353812 -0.0011691072 -0.004370917 0.0016360147 0.008997331 0.005532574 -0.01019526 0.00034479087 -0.0020790854 0.0075416337 -0.016529763 0.014310349 0.011649134 0.015323119 0.0119200265 0.004768093 0.0009401047 -0.009167012
mensaje 0.0032049252 0.012933193 0.01410861 -0.009289846 -0.013170125 -0.0031868683 -0.003700055 0.0083601475 -0.01527109 0.010480314 0.013349917 -0.008971485 -0.010408197 0.003148536 -0.0029400152 -0.005591615 0.0039323443 -0.0033116464 -0.00320811 0.011330957 0.010984547 0.004169924 -7.859545e-06 -0.013020889 -0.008401244 -0.01660402 -0.0041366126 -0.00678642 0.00024629224 0.0034800542
escuchar 0.011781201 -0.015263561 -0.009463271 0.0027539788 -0.0027325326 -0.016293015 -0.012759867 -0.011461791 -0.0034044385 0.009006186 -0.0030854095 -0.005550571 0.015542295 0.010494024 -0.016353447 0.00077637774 -0.0078012813 0.009468166 0.014979657 0.009337552 -0.0037819287 0.008005845 -0.016377548 -0.007839724 0.015318889 0.016029898 0.015164262 0.008237598 -0.012699708 -0.004049514
volver 0.007039204 -0.0006427044 -0.010283806 0.0140937595 -0.002430522 -0.009575943 -0.012311899 0.001585221 0.0031720274 0.01503066 0.008110768 -0.009420234 -0.015381884 -0.0106401015 0.011114051 0.0017457 -0.011186912 0.013954511 0.009423628 -0.0065922467 0.0024319382 -0.015900226 -0.010470485 -0.015151934 0.0019342671 0.014981946 0.0007784899 0.005917995 -0.0120363785 0.0009340309
