162 30
credito 0.17198043 0.010001106 0.012927644 -0.17710774 0.54437655 -0.10324215 -0.5863976 -0.7427655 -0.21320811 0.07409942 -0.2855027 0.11213334 0.68515867 0.25800782 -0.3533936 -0.11803225 -0.37673017 -0.26965696 -0.111169405 0.33517444 -0.26202002 -0.23017813 -0.004046647 0.4839166 0.56074655 0.6759374 0.65577185 -0.038019948 0.19598863 0.19671038
llamar 0.18116237 -0.007057819 0.011756522 -0.18062921 0.52581507 -0.10246263 -0.5849849 -0.76358 -0.20871921 0.0777724 -0.30027613 0.121106595 0.6853576 0.26870722 -0.3392579 -0.12059795 -0.38922638 -0.26503456 -0.11974262 0.34800082 -0.2820295 -0.25542077 -0.014206009 0.50832903 0.58456343 0.6650926 0.68662524 -0.023235235 0.1919484 0.1650662
oficina 0.17314842 0.026057824 -0.006465418 -0.16776033 0.54325163 -0.112706944 -0.5757391 -0.76025885 -0.21362899 0.07917379 -0.2936035 0.11897525 0.6727964 0.2702524 -0.36055005 -0.14780143 -0.36932972 -0.25436872 -0.122734375 0.35532236 -0.25909296 -0.24677454 -0.0061642495 0.5131851 0.56621236 0.6666026 0.66689825 -0.05051017 0.18815476 0.19702148
necesitar 0.15983516 0.025583738 -0.014891426 -0.16449693 0.52154624 -0.09770914 -0.5413098 -0.7308984 -0.18755437 0.0703558 -0.28601375 0.09742655 0.6433598 0.23943362 -0.31316087 -0.12783648 -0.35660955 -0.24979374 -0.12144447 0.33093238 -0.24836408 -0.23001684 -0.00037454534 0.48470947 0.533629 0.6277723 0.6314295 -0.018546196 0.17597106 0.16788822
telefono 0.16124259 0.009704681 -0.011646299 -0.18118002 0.50071424 -0.10560899 -0.54580295 -0.73470116 -0.21453096 0.07608536 -0.2774214 0.10198281 0.6615286 0.2537068 -0.34311765 -0.122211315 -0.34890214 -0.24823308 -0.11202637 0.326612 -0.24335536 -0.242855 -0.00732293 0.49286938 0.55179393 0.6294569 0.6389343 -0.019851651 0.18993169 0.16879351
aplicacion 0.14843251 0.011506812 0.006703114 -0.15683073 0.495711 -0.08268964 -0.5265992 -0.68118507 -0.2013775 0.04086042 -0.26658434 0.11092613 0.59914863 0.24399906 -0.29873282 -0.11123268 -0.34037882 -0.23716442 -0.11674922 0.3188204 -0.22817491 -0.23140892 -0.017887162 0.46037033 0.51116073 0.6143353 0.6006997 -0.03852541 0.15371777 0.17082182
informacion 0.18160607 0.015198137 -0.0012634305 -0.15531607 0.5184768 -0.10386641 -0.5537862 -0.7454175 -0.21033393 0.048459962 -0.2812993 0.11041007 0.6639319 0.25492248 -0.32172048 -0.1127354 -0.3516794 -0.23900393 -0.11500486 0.3182702 -0.25553343 -0.23836963 -0.018539455 0.46861035 0.55922943 0.6615053 0.64036876 -0.028995914 0.17545879 0.16774
llegar 0.18113205 0.0223829 -0.009262865 -0.15516865 0.5396947 -0.09966418 -0.5761838 -0.7311269 -0.20276813 0.05313532 -0.30298024 0.12836449 0.66401774 0.26947358 -0.3270938 -0.13648058 -0.36958915 -0.26912105 -0.10813888 0.31490877 -0.25697517 -0.23112978 -0.0043933997 0.47666597 0.56907934 0.66224456 0.66565764 -0.046821136 0.18500651 0.16883968
celular 0.14673825 -0.0055510527 0.008052706 -0.17383742 0.49666208 -0.103984386 -0.5325832 -0.69790417 -0.19329917 0.07094109 -0.25863126 0.111539215 0.61460465 0.22649549 -0.3180763 -0.11144512 -0.32183328 -0.23723577 -0.097587846 0.31163082 -0.25321475 -0.20945355 -0.019670159 0.4431644 0.5004563 0.6070204 0.5941271 -0.038533635 0.16468687 0.17740408
banca 0.17248957 0.016558742 0.007492588 -0.16797712 0.525972 -0.09649551 -0.5596866 -0.731638 -0.19104718 0.044723503 -0.29895777 0.11465181 0.6541751 0.2571168 -0.34941268 -0.13645673 -0.37450013 -0.2468847 -0.104905136 0.32722273 -0.27118206 -0.24098168 -0.006266198 0.49114358 0.53944534 0.65855134 0.6572709 -0.019435093 0.17338912 0.16730212
interes 0.17526868 0.0065332544 -0.014387006 -0.18101057 0.51677215 -0.10941747 -0.5556613 -0.7150198 -0.18182093 0.059735823 -0.27407017 0.10826599 0.6557714 0.26223832 -0.32183057 -0.13314676 -0.36911497 -0.23700231 -0.10865648 0.31732717 -0.2522139 -0.21289153 -0.0035444798 0.4817607 0.5301932 0.64671445 0.6434578 -0.029386383 0.1734403 0.18098883
codigo 0.15366618 0.012260255 -0.009026729 -0.15682444 0.5072143 -0.10599919 -0.51433724 -0.71257424 -0.18485133 0.056221932 -0.265396 0.104442656 0.6293882 0.2564355 -0.3307998 -0.12665711 -0.32981956 -0.23189758 -0.10034366 0.32676446 -0.24393702 -0.23782438 -0.020997746 0.45276916 0.52205676 0.62458247 0.6142309 -0.038950197 0.1885535 0.18422946
mensaje 0.17592119 0.013400236 -0.014974337 -0.15582365 0.51262414 -0.10287503 -0.5448016 -0.7042199 -0.19155219 0.06757053 -0.29443833 0.095245205 0.6263535 0.24630927 -0.34384087 -0.14077377 -0.35647446 -0.26331374 -0.1097527 0.30771258 -0.27277827 -0.24347231 -0.0116864825 0.45931795 0.53299177 0.6290993 0.64783627 -0.03790377 0.19604154 0.16390352
cuota 0.1469418 -0.0012918526 -0.012762352 -0.16357738 0.48949212 -0.11058262 -0.5057732 -0.6869116 -0.17277868 0.040497754 -0.27101925 0.102014676 0.6183052 0.2517015 -0.31419513 -0.12250219 -0.33558562 -0.23388222 -0.107348554 0.29344893 -0.2402471 -0.22204328 0.00061965245 0.45400357 0.5149797 0.60964173 0.614172 -0.02530894 0.18051179 0.16472371
perder 0.15929693 0.023246437 0.011392127 -0.15944543 0.4842787 -0.10168816 -0.5145701 -0.68939424 -0.19536291 0.06517564 -0.2766607 0.11805262 0.60504115 0.22949281 -0.3063844 -0.124676235 -0.33670226 -0.22212853 -0.095646426 0.31226298 -0.24257757 -0.22245257 -0.025429238 0.4436789 0.5019709 0.61940855 0.5902477 -0.042024244 0.17080897 0.17095391
pagar 0.16965626 0.008721329 0.012935031 -0.14049625 0.48749238 -0.10910649 -0.50041956 -0.67725205 -0.18889822 0.061480366 -0.26721835 0.10374747 0.58842003 0.23280175 -0.30046558 -0.10510959 -0.3161409 -0.22372551 -0.12183168 0.3138626 -0.25074178 -0.22405018 -0.020473827 0.4438583 0.51216894 0.59955484 0.60173446 -0.018153878 0.17527036 0.17672738
preguntas 0.18150878 0.027306218 0.0011182247 -0.17472515 0.53357303 -0.12030997 -0.57986474 -0.7410184 -0.21060707 0.0730743 -0.2829272 0.10671068 0.6659355 0.24622473 -0.35450485 -0.12112745 -0.3647128 -0.25286797 -0.11961506 0.33246762 -0.2644483 -0.24563557 0.003180062 0.49080753 0.5586023 0.65723544 0.6585523 -0.034897137 0.17186679 0.18886365
anteriores 0.17320174 -0.008663826 -0.0031174703 -0.15045348 0.5065674 -0.11361839 -0.54445404 -0.7141797 -0.19210511 0.06004509 -0.28317544 0.116071336 0.61866987 0.23747392 -0.30092648 -0.12071999 -0.35752895 -0.23014821 -0.11428472 0.32495657 -0.2514928 -0.22099075 -0.0054279827 0.46715978 0.51447016 0.61939156 0.61522156 -0.01668311 0.17313783 0.17355554
tarjeta 0.13978954 0.010739309 0.009237095 -0.15785457 0.4916902 -0.087670274 -0.5042892 -0.6837102 -0.19232382 0.04230303 -0.2645183 0.1003618 0.6068285 0.23399441 -0.3175771 -0.11455575 -0.34746367 -0.22630624 -0.10996431 0.29279378 -0.2290959 -0.19563894 -0.02556034 0.4252715 0.5146825 0.608287 0.60604167 -0.03571639 0.1822553 0.15548447
cobrar 0.1604975 -0.0066295043 0.016547114 -0.18760718 0.5225791 -0.096736565 -0.56729794 -0.7211755 -0.19842489 0.04304037 -0.2929033 0.121405095 0.6625112 0.2623581 -0.33038628 -0.11561156 -0.37913054 -0.2605516 -0.12587173 0.33711198 -0.26683995 -0.23721305 -0.023693956 0.49863234 0.5549297 0.6449004 0.6678547 -0.031476773 0.17208543 0.16273014
cedula 0.16033147 0.0042771692 -0.011208382 -0.1700024 0.46514702 -0.0782778 -0.5223171 -0.6806482 -0.17751776 0.052719697 -0.25481966 0.10590392 0.5918127 0.24350253 -0.3129637 -0.10225148 -0.32628128 -0.22747035 -0.11720742 0.30956668 -0.2496211 -0.21787506 -0.01960257 0.43204325 0.4939685 0.58940643 0.6115251 -0.028255891 0.17815255 0.14576805
total 0.14847884 -0.0045612617 -0.009123825 -0.15641493 0.49018392 -0.09710498 -0.5416607 -0.70939505 -0.19271931 0.0627168 -0.26261482 0.1052825 0.6419085 0.2571086 -0.3145057 -0.13896391 -0.35499167 -0.25626126 -0.11399265 0.31286043 -0.24770622 -0.21204063 -0.025983093 0.44873095 0.53481954 0.61362183 0.6372262 -0.04762013 0.1798614 0.18241829
octubre 0.15950824 0.0010542717 -0.012119077 -0.15178019 0.4731958 -0.0861226 -0.52631384 -0.67144954 -0.182287 0.0457884 -0.28043175 0.10303614 0.6045696 0.2306352 -0.32561257 -0.11489932 -0.34741315 -0.24671134 -0.10004476 0.3176454 -0.2353549 -0.20635885 -0.011444096 0.44371128 0.5165995 0.5937541 0.5984645 -0.04721468 0.16825394 0.164481
ingresar 0.12909327 0.015915949 -0.00100994 -0.14343253 0.43493247 -0.09141128 -0.48142046 -0.6211162 -0.15291631 0.05134578 -0.2438725 0.07938475 0.54647636 0.20999876 -0.278715 -0.11124845 -0.32288158 -0.2192621 -0.10280168 0.2726309 -0.22956923 -0.21072228 0.00088704604 0.39540634 0.4629383 0.53806615 0.5394595 -0.02796738 0.16735062 0.15875384
personas 0.17202947 0.012120992 0.006188134 -0.15664569 0.5125875 -0.11772593 -0.5458714 -0.7238088 -0.19463763 0.05562037 -0.29004976 0.098144606 0.63907254 0.266459 -0.33165008 -0.13171378 -0.34561098 -0.24770443 -0.10190273 0.3313555 -0.2746566 -0.23406139 -0.010345837 0.46765 0.54579663 0.6469753 0.655916 -0.053630654 0.1718741 0.18318453
retirar 0.14664927 0.02181606 -0.016018955 -0.15924142 0.44862807 -0.1018355 -0.4632505 -0.61005807 -0.1636941 0.04651428 -0.23154683 0.08156281 0.5642535 0.22699754 -0.29629278 -0.10515291 -0.30877262 -0.21889858 -0.092231885 0.27835965 -0.22736907 -0.19958025 0.003724184 0.41686854 0.47590584 0.55448145 0.54224473 -0.014104973 0.13936624 0.14309299
transferencia 0.14846541 0.009748336 -0.009677574 -0.15349454 0.44267163 -0.08042784 -0.4761616 -0.60600626 -0.1537552 0.04255919 -0.22240734 0.077356756 0.5288994 0.19507746 -0.29053813 -0.100294344 -0.28938308 -0.21365751 -0.10286503 0.2643563 -0.2293223 -0.18456191 -0.013665581 0.39531964 0.4577969 0.5370752 0.5408179 -0.03344356 0.16493922 0.14163409
problema 0.16714872 0.019102978 0.014570171 -0.17561267 0.50242364 -0.10587924 -0.5674927 -0.71328694 -0.2127544 0.04921603 -0.2704923 0.12178203 0.6367622 0.24511074 -0.34412396 -0.14133902 -0.37273163 -0.26265532 -0.12594959 0.323822 -0.27303436 -0.21962777 -0.010245697 0.4857876 0.5427028 0.6565505 0.65266955 -0.02787806 0.19736062 0.185731
ingreso 0.13231121 0.00051549514 0.011705064 -0.15018645 0.43607157 -0.08928072 -0.46622545 -0.6105701 -0.14599231 0.037393752 -0.2273936 0.09384613 0.54759645 0.19817096 -0.27099508 -0.115265824 -0.29444844 -0.21756946 -0.10402001 0.27595526 -0.22423384 -0.19189064 -0.023255272 0.40058595 0.43464696 0.5408805 0.53390414 -0.034885526 0.15025061 0.12765078
llamado 0.11685399 0.006757216 -0.010572179 -0.116526514 0.38551155 -0.072850056 -0.4256814 -0.55207014 -0.13647279 0.05552247 -0.21283408 0.09705147 0.47254798 0.17600672 -0.25083274 -0.10874352 -0.27963707 -0.18987486 -0.093338154 0.24884993 -0.1793134 -0.16391791 -0.022804098 0.36982068 0.42461547 0.49822563 0.48779732 -0.013257935 0.15097544 0.1328922
hablar 0.14068843 0.008349197 0.0037027008 -0.16968985 0.46933922 -0.10363855 -0.5030058 -0.6759945 -0.18985385 0.07035693 -0.25546494 0.09339623 0.6219197 0.23284382 -0.3218271 -0.11990705 -0.32275382 -0.23308286 -0.10605931 0.3215376 -0.25972658 -0.23029655 -0.014607343 0.44817084 0.51778054 0.6161017 0.6069818 -0.049891625 0.15977296 0.17583652
negocio 0.16706263 -0.003282308 0.013938753 -0.15473355 0.47068682 -0.097986236 -0.5109327 -0.6925926 -0.17996342 0.05957942 -0.28308055 0.11418468 0.60459995 0.24255386 -0.29616526 -0.12668963 -0.3311024 -0.22568381 -0.09313579 0.29198295 -0.23180825 -0.21291168 -0.016181387 0.45277956 0.5202097 0.61389947 0.5941432 -0.03295693 0.16272645 0.16028386
oficinas 0.16522329 -0.0025455037 0.0074844933 -0.17645237 0.48502535 -0.09560763 -0.5212357 -0.6879451 -0.17216209 0.04175196 -0.26043817 0.112526536 0.6285292 0.24911639 -0.3120173 -0.105974466 -0.35556975 -0.24966976 -0.10041621 0.31306377 -0.25800207 -0.20864376 -0.00911841 0.45598674 0.50363094 0.5987325 0.61231464 -0.030958297 0.1856632 0.15056801
internet 0.16751939 0.025916412 -0.018302333 -0.17300758 0.46143377 -0.09064063 -0.52791536 -0.6557993 -0.18136917 0.0625462 -0.260212 0.113547616 0.59164506 0.23184264 -0.3062638 -0.12758157 -0.32233495 -0.2207886 -0.112214066 0.29102993 -0.2410235 -0.22551367 -0.0139927035 0.43779585 0.502886 0.5785273 0.6040088 -0.03677137 0.181002 0.14793313
final 0.15643787 -0.0012507747 0.0046115885 -0.16947044 0.5018224 -0.10058126 -0.5506964 -0.703591 -0.182994 0.047339723 -0.28280875 0.10909014 0.63084114 0.23533216 -0.3172178 -0.116710365 -0.34807813 -0.23704034 -0.109548524 0.31285587 -0.24892537 -0.22547771 -0.005509773 0.46295792 0.5183463 0.6320159 0.6124067 -0.02464482 0.1767391 0.16471018
cancelar 0.16398498 0.01675392 0.0044054207 -0.14907637 0.46429953 -0.095209695 -0.5116611 -0.67497665 -0.16939208 0.04257705 -0.26850888 0.10919535 0.5890336 0.24050507 -0.31948617 -0.12558146 -0.34275523 -0.2324781 -0.09511452 0.30257958 -0.25332886 -0.22636048 0.0069361036 0.45418444 0.5161497 0.5795839 0.5756016 -0.042449936 0.15897182 0.16677715
proceso 0.15216239 0.014222436 0.0069392435 -0.16946682 0.47665942 -0.10334402 -0.48984936 -0.65579695 -0.18148495 0.044466246 -0.27094606 0.09984146 0.59416825 0.24089755 -0.312613 -0.09920227 -0.3253329 -0.23800236 -0.10892507 0.30251455 -0.23277025 -0.19788994 -0.015880214 0.42804706 0.5005448 0.58886874 0.57532287 -0.03087206 0.15714636 0.16831578
horas 0.14338852 -0.00074848405 -0.016068133 -0.15556738 0.4626663 -0.07584227 -0.4951544 -0.65314335 -0.17149734 0.06299251 -0.24955888 0.10240213 0.5786629 0.21346699 -0.2839823 -0.108796835 -0.30171826 -0.23368151 -0.111085325 0.28024775 -0.22845723 -0.21813856 0.005901008 0.43176147 0.48124614 0.57869893 0.5804349 -0.04085303 0.16422847 0.14367649
intencion 0.15974703 0.009013837 0.014724674 -0.15318005 0.470803 -0.08658709 -0.5109411 -0.6784874 -0.17328356 0.061615996 -0.27555388 0.097830765 0.6115048 0.23673896 -0.30747545 -0.103616245 -0.3231238 -0.22778165 -0.10296626 0.31098706 -0.24748233 -0.21199803 0.0052696015 0.44484803 0.5129743 0.60835195 0.58771074 -0.043161348 0.15254803 0.17727685
respuesta 0.14716764 0.012870168 -0.0037881585 -0.16155042 0.49308747 -0.11622445 -0.54262674 -0.71374345 -0.17695507 0.044968527 -0.28914818 0.116261885 0.6190493 0.25563046 -0.33552796 -0.120848075 -0.36080018 -0.2599265 -0.12631235 0.30912954 -0.2521287 -0.23812999 -0.0048648943 0.45396087 0.54302037 0.62661314 0.6366431 -0.031210529 0.19078873 0.16408467
ejemplo 0.14203797 0.01895921 0.0048695155 -0.16415271 0.45904624 -0.089755654 -0.5003118 -0.654885 -0.18452518 0.050795764 -0.26478812 0.11568256 0.60001236 0.24261981 -0.30112857 -0.11936986 -0.30850422 -0.23757005 -0.114340484 0.3029444 -0.24931811 -0.19560266 0.0074056373 0.43142912 0.47721338 0.5667969 0.5846686 -0.019939288 0.1509921 0.14247672
solicitud 0.16466863 0.0036650493 -0.011169323 -0.13513584 0.46923068 -0.085236296 -0.5109138 -0.6449794 -0.17518067 0.06474832 -0.26406655 0.08548546 0.57912946 0.21054125 -0.29851025 -0.12802249 -0.32102293 -0.23732455 -0.11563131 0.27958715 -0.2229162 -0.2055835 0.008405886 0.42582178 0.503308 0.56227946 0.58435 -0.044839192 0.16683461 0.16765422
producto 0.14118461 0.010856861 -0.015215821 -0.14269637 0.4832987 -0.11010135 -0.49857023 -0.6598747 -0.19634868 0.065911345 -0.2482748 0.112068824 0.6207075 0.24940696 -0.3037993 -0.12362397 -0.32585144 -0.24783939 -0.09682234 0.29315984 -0.23184626 -0.20171629 -0.020562993 0.44353396 0.52083176 0.6013239 0.5879224 -0.035460703 0.17421456 0.1628533
pueda 0.17484596 0.013126149 0.007824683 -0.16006187 0.50090057 -0.09633152 -0.5352152 -0.7025294 -0.19699179 0.06922394 -0.28470623 0.11454976 0.6034736 0.25030398 -0.3006635 -0.12016286 -0.32646284 -0.23080269 -0.10479255 0.31411877 -0.2487203 -0.22774455 -0.023013068 0.46848467 0.5216946 0.61754495 0.5990198 -0.019764045 0.17550617 0.17410451
comprar 0.14492846 0.015630031 0.0030831816 -0.13453846 0.4458365 -0.10146367 -0.48467675 -0.63952106 -0.18833077 0.061400864 -0.24865036 0.0902374 0.5794621 0.2101596 -0.27922428 -0.10827231 -0.304026 -0.20591086 -0.10684677 0.29767326 -0.23192401 -0.21184719 -0.006106482 0.42275485 0.48644763 0.5702131 0.55721927 -0.045938592 0.14990224 0.15223734
numeros 0.15039372 0.025304876 -0.008411009 -0.15216212 0.51255405 -0.10329062 -0.546401 -0.7011835 -0.20101538 0.060540892 -0.2768986 0.09779876 0.62652457 0.24881133 -0.30677873 -0.13524894 -0.34814417 -0.24035288 -0.120024845 0.30980313 -0.23532979 -0.21291341 -0.00095000863 0.45885536 0.51467794 0.6108424 0.6223364 -0.04180953 0.17873508 0.17962155
bancolombia 0.15070179 0.006183693 0.012871075 -0.16976635 0.45718113 -0.082420655 -0.48833662 -0.6413003 -0.16293827 0.0475846 -0.26358455 0.087841496 0.582792 0.22038972 -0.29830116 -0.119148225 -0.33933905 -0.23294215 -0.11225382 0.30899087 -0.23901707 -0.19586028 -0.010589204 0.42468774 0.4801504 0.5796445 0.5776146 -0.016910713 0.14895941 0.14474328
ahorro 0.14031525 0.020661453 -0.006799109 -0.15329951 0.4401466 -0.0872759 -0.475151 -0.63423926 -0.18658642 0.038209748 -0.24396907 0.085635126 0.5523202 0.21959135 -0.30325505 -0.10697076 -0.3070443 -0.2275214 -0.11574935 0.28112563 -0.2432298 -0.20952274 -0.015028464 0.4272257 0.48713127 0.5700701 0.56311405 -0.019124974 0.16464047 0.16429518
documento 0.16496006 0.02112333 0.005455588 -0.15620273 0.46945655 -0.07307432 -0.4854481 -0.6243312 -0.18127726 0.04646997 -0.2655174 0.11354178 0.5823105 0.23303103 -0.31103498 -0.12808873 -0.3014894 -0.21605806 -0.09531443 0.28797302 -0.22836776 -0.1872718 -0.0039711185 0.42049038 0.46338633 0.5633792 0.54921085 -0.047340762 0.1653618 0.15036662
bancaria 0.1571732 0.01473878 0.0019203579 -0.14369683 0.48835638 -0.08400126 -0.5137313 -0.6792694 -0.1762517 0.04822278 -0.25325987 0.105398096 0.60390747 0.25165924 -0.30075365 -0.102380395 -0.32398483 -0.22569045 -0.09468036 0.2906117 -0.26066604 -0.21254191 -0.0081059 0.46166453 0.52733153 0.6198855 0.60462356 -0.033794086 0.1697857 0.14769661
salir 0.14132744 0.0014743666 -0.0024572478 -0.16107963 0.47126088 -0.07945707 -0.52029365 -0.6788959 -0.17517886 0.06350479 -0.26298383 0.11658583 0.6011756 0.21507177 -0.3190542 -0.12878479 -0.34072733 -0.22058466 -0.11905693 0.2805473 -0.2252766 -0.2146645 -0.025486223 0.4409129 0.48409602 0.581313 0.59091574 -0.03487313 0.18047819 0.15644218
termino 0.16070285 0.024535736 -0.0023530873 -0.16462776 0.48712415 -0.09810008 -0.5044078 -0.68506306 -0.18309943 0.06278554 -0.2721348 0.088201776 0.5986337 0.23099945 -0.29519868 -0.12982786 -0.33791214 -0.23244077 -0.123157375 0.3071703 -0.23767573 -0.22435719 0.006813085 0.45575783 0.49402654 0.6050846 0.58239406 -0.01786186 0.1618454 0.16410328
podia 0.15287176 -0.005534467 -0.01665198 -0.16056487 0.4567659 -0.09194288 -0.47998264 -0.65561324 -0.1585169 0.043965105 -0.24912508 0.08444604 0.5756869 0.21786608 -0.29567453 -0.09800883 -0.3311723 -0.2071426 -0.090510756 0.2717687 -0.2211269 -0.21529281 0.005007564 0.4174218 0.46626016 0.56965286 0.5727643 -0.025107058 0.17424749 0.14964125
cambiar 0.11153365 0.0061467458 -0.003954505 -0.13573197 0.3648379 -0.07278403 -0.4037508 -0.5278192 -0.13895443 0.056538176 -0.21252942 0.09558179 0.4580173 0.16459273 -0.24543422 -0.08613748 -0.24952646 -0.19009086 -0.09903908 0.24870645 -0.18149324 -0.16949506 -0.015934676 0.36165658 0.40983075 0.4644006 0.4790971 -0.01927141 0.11387078 0.13539769
contestan 0.1507965 0.012216771 0.008157068 -0.16647607 0.50004673 -0.11247559 -0.5281931 -0.7159656 -0.20003037 0.056950703 -0.2825759 0.09241315 0.62666976 0.23285812 -0.3200799 -0.1350681 -0.33556196 -0.2448119 -0.0964847 0.32959318 -0.24828516 -0.21090278 0.0018099034 0.4827434 0.5348045 0.6368302 0.62189144 -0.04161997 0.19310318 0.16121557
pasado 0.14172114 -0.0029714399 0.01277259 -0.1341315 0.43835717 -0.09232959 -0.46250698 -0.60797364 -0.16964251 0.040251255 -0.22515406 0.09767737 0.53535694 0.21382128 -0.27297908 -0.08799991 -0.30736464 -0.20122433 -0.08212447 0.27966318 -0.20797804 -0.18339457 0.007771579 0.39725226 0.46301442 0.52357197 0.5358685 -0.025943493 0.13946742 0.14799376
quiera 0.1593082 0.025846796 -0.0037910459 -0.1514568 0.46619463 -0.08863789 -0.5010377 -0.6590242 -0.17370997 0.05718701 -0.2503126 0.11658783 0.6018029 0.23369308 -0.3106964 -0.10817641 -0.32257834 -0.22124647 -0.09472022 0.29291126 -0.22407508 -0.2067444 -0.019135518 0.42693633 0.4861848 0.58964163 0.59228045 -0.046362154 0.15078202 0.14836101
comunicar 0.14946103 0.022265596 0.0131137315 -0.1433548 0.4599202 -0.09082099 -0.48803136 -0.61889654 -0.16338232 0.053248987 -0.24417102 0.09899795 0.5514605 0.20342687 -0.2958755 -0.09318931 -0.31631368 -0.21071236 -0.08590589 0.2764154 -0.23773387 -0.18674776 0.0023979272 0.42343438 0.48132226 0.5535531 0.56097096 -0.02647844 0.15802887 0.16737857
poquito 0.14041588 -0.004300618 0.012078522 -0.15280432 0.43700862 -0.08603188 -0.49088734 -0.634915 -0.16149646 0.045431614 -0.25326884 0.08948306 0.5623496 0.20580931 -0.28591543 -0.12011717 -0.3096313 -0.23223315 -0.096818 0.2947308 -0.21518315 -0.18777433 0.0028381834 0.42574745 0.4832525 0.55218333 0.5603583 -0.020122197 0.17327288 0.1360751
virtual 0.1553479 -0.0058822753 -0.006720237 -0.17263395 0.49440253 -0.10467185 -0.52890944 -0.68746525 -0.19437589 0.050227396 -0.27315086 0.1190431 0.60680574 0.23992233 -0.3211831 -0.12744352 -0.3494031 -0.22685097 -0.10726119 0.30615127 -0.24439956 -0.21423405 0.004137085 0.42804548 0.51897216 0.5985292 0.59151816 -0.043831248 0.17408009 0.16175756
espera 0.14122824 0.024414066 -0.013601784 -0.16626278 0.46204105 -0.081430465 -0.5160313 -0.65836394 -0.19604836 0.039475042 -0.26296976 0.0996012 0.6172692 0.22936597 -0.31424224 -0.1093676 -0.31911728 -0.22526897 -0.097522 0.29886127 -0.2519005 -0.20257023 -0.004886334 0.4552445 0.51358396 0.6071265 0.5946266 -0.0349765 0.15087867 0.16370063
entra 0.15769419 0.0137244845 -0.015067682 -0.14311427 0.4517413 -0.08820304 -0.49266797 -0.67415434 -0.19008818 0.04301863 -0.24376376 0.090965696 0.6013 0.2279543 -0.3031934 -0.13080584 -0.31523767 -0.21414852 -0.102851756 0.30761644 -0.23678218 -0.2000835 -0.010865611 0.4435492 0.48388544 0.5810397 0.5759056 -0.0352632 0.15916298 0.14551067
deuda 0.16097412 0.018650696 -0.006543154 -0.16517545 0.46781388 -0.09424801 -0.475627 -0.6476039 -0.18526804 0.050188184 -0.24953982 0.10830462 0.5824069 0.23228458 -0.30212232 -0.122481175 -0.3294985 -0.21216513 -0.08708313 0.2889476 -0.22437075 -0.19502905 -0.0048198355 0.4208641 0.46803188 0.56685203 0.57433873 -0.03860532 0.1569732 0.13834397
cundinamarca 0.14577156 -0.0015791594 -0.0071188775 -0.14647438 0.4131168 -0.086844616 -0.44999436 -0.58802575 -0.15621176 0.061715484 -0.21021871 0.08122041 0.505586 0.1882063 -0.26780513 -0.10306285 -0.26993996 -0.19779062 -0.097555 0.24466254 -0.20864242 -0.17233689 -0.018569019 0.36617163 0.43097568 0.5266394 0.5088683 -0.03568942 0.14908363 0.1457818
enviar 0.13361114 0.0117989555 0.0027652371 -0.12546696 0.40611908 -0.09109558 -0.46711177 -0.59777695 -0.16536643 0.05425709 -0.21701711 0.082267605 0.52922386 0.21382788 -0.26202017 -0.11845706 -0.30339384 -0.19676882 -0.086213045 0.25126624 -0.19654945 -0.20178726 -0.010901811 0.40049165 0.44451106 0.51390433 0.51859087 -0.029416263 0.15455979 0.14784965
pagado 0.17879263 -0.006854254 0.004989299 -0.145349 0.49436754 -0.11371394 -0.5259623 -0.6959266 -0.18366268 0.056312464 -0.29060778 0.10303741 0.6183487 0.2407133 -0.31640527 -0.13778165 -0.3524669 -0.23006196 -0.124260366 0.2994917 -0.2604833 -0.22973014 -0.009041011 0.44786042 0.5172726 0.6367854 0.6340549 -0.021573735 0.18916926 0.17683928
programa 0.14772198 0.0054226317 0.013804279 -0.14075042 0.45886704 -0.08748329 -0.49634808 -0.6270551 -0.1840932 0.06793285 -0.26409647 0.101450175 0.5652587 0.21555375 -0.29698768 -0.12587878 -0.29881814 -0.21780248 -0.101207405 0.28283247 -0.21804444 -0.20506938 0.00044338024 0.41150364 0.4932863 0.57039654 0.5802331 -0.026177771 0.16123608 0.14184444
acercarme 0.15253624 0.019724915 -0.012012549 -0.144634 0.46502474 -0.091214105 -0.50793725 -0.6686629 -0.19175938 0.04995469 -0.24498609 0.093763076 0.59803283 0.219083 -0.28965265 -0.13273278 -0.32733533 -0.22268948 -0.08858849 0.31109014 -0.23403291 -0.19688116 -0.0028378884 0.42293954 0.51613 0.5947855 0.57299817 -0.03379503 0.14889225 0.17297408
llegarn 0.14756699 0.0011361551 0.0038084444 -0.16482186 0.44620395 -0.0840195 -0.48938453 -0.6421974 -0.16880776 0.045689113 -0.23958184 0.09981284 0.5734141 0.22159612 -0.27950844 -0.10586228 -0.33058694 -0.23080036 -0.10914682 0.29104868 -0.24700825 -0.20079425 -0.02011064 0.43100813 0.5004378 0.56652707 0.55945325 -0.018888487 0.1503216 0.13865647
entidad 0.16234577 -0.0014172434 0.0047500026 -0.14196533 0.47832808 -0.07671238 -0.50714606 -0.6392097 -0.16965772 0.066506885 -0.2516336 0.09298101 0.57265073 0.22146255 -0.29062974 -0.12993653 -0.3196476 -0.22465599 -0.09922599 0.2982149 -0.22159976 -0.21911153 -0.01970996 0.444181 0.492695 0.5949654 0.56913203 -0.04249778 0.17246875 0.14038423
nadie 0.13200359 0.01362085 0.003469944 -0.13506149 0.4486925 -0.081382155 -0.48884594 -0.654163 -0.18217412 0.049906865 -0.2509899 0.111224204 0.57069767 0.23446187 -0.2905003 -0.10385133 -0.3150601 -0.23561999 -0.09903111 0.27689582 -0.22773448 -0.2037345 -0.022543985 0.4058255 0.4900026 0.55115306 0.5508684 -0.034293413 0.1669365 0.164946
unico 0.14987317 -0.0049328683 -0.0014123522 -0.13749313 0.44417837 -0.10566159 -0.500789 -0.63725036 -0.16554838 0.06241398 -0.26340783 0.08901864 0.57936984 0.23416266 -0.3049418 -0.116880596 -0.32236853 -0.23500489 -0.0859495 0.2818121 -0.23239419 -0.21040209 0.0036798369 0.42593157 0.46866 0.5647774 0.56720924 -0.01446197 0.15269965 0.16747844
solidario 0.119684905 0.017949617 0.003303848 -0.12673578 0.3887722 -0.060851373 -0.41129583 -0.55861163 -0.15807131 0.035420064 -0.20228703 0.08942811 0.49126726 0.17633443 -0.25565547 -0.11080621 -0.2578879 -0.1952247 -0.086195216 0.2390671 -0.18665129 -0.16012703 -0.006803819 0.34671056 0.39818475 0.47558144 0.49556822 -0.03711393 0.13253902 0.11465769
pagina 0.16172488 0.008585493 -0.011614178 -0.1471136 0.47387946 -0.09912173 -0.49964625 -0.6760415 -0.17317432 0.039075226 -0.24602161 0.117575586 0.59418863 0.22325133 -0.30099013 -0.10614217 -0.343874 -0.23196962 -0.09983958 0.28191522 -0.22276315 -0.19336781 -0.02265014 0.42867497 0.49913102 0.57255995 0.5784122 -0.03414804 0.15196148 0.15158336
transferencias 0.15059997 -0.0015710732 -0.0117619615 -0.16004711 0.45144108 -0.10001563 -0.47678608 -0.631157 -0.1580307 0.058824446 -0.23525433 0.10303705 0.5646677 0.21679957 -0.3005403 -0.10806856 -0.32340822 -0.21611549 -0.104277804 0.29404578 -0.22863497 -0.19593933 -0.017299397 0.42427826 0.4710558 0.5607958 0.56566405 -0.01855547 0.16950715 0.16491859
datos 0.1367868 0.0010332365 -0.00950007 -0.14520423 0.4077698 -0.081242 -0.43108281 -0.57030535 -0.1598367 0.056181308 -0.21722887 0.08944214 0.4862863 0.19993627 -0.2717928 -0.111073844 -0.29152456 -0.20454697 -0.090152435 0.2521558 -0.21126157 -0.17188273 0.005092426 0.35398445 0.4327833 0.4890629 0.4984638 -0.023750234 0.15651296 0.13560946
facturacion 0.15247639 0.023252621 0.014167013 -0.15851004 0.49859893 -0.09704076 -0.5313465 -0.6823752 -0.18811405 0.057090946 -0.277514 0.099085 0.6241895 0.21921192 -0.310755 -0.11302783 -0.3529042 -0.25143567 -0.11580388 0.31861812 -0.23197873 -0.20750871 0.0035475397 0.43294433 0.5251261 0.61504364 0.6177216 -0.047704913 0.16451582 0.16119583
colaborar 0.14799976 -0.007848969 0.013527955 -0.15597512 0.42571864 -0.07411273 -0.46769935 -0.5954243 -0.16152862 0.03481953 -0.21851687 0.075410895 0.5502795 0.20009328 -0.27195573 -0.10315399 -0.30322367 -0.22148532 -0.08368415 0.28183544 -0.1982044 -0.18151145 -5.2907228e-05 0.4016344 0.46086976 0.5242202 0.52970856 -0.041673243 0.14085743 0.13756762
ingreso_solidario 0.14156666 -0.003520092 0.0030705228 -0.11612737 0.3899473 -0.07526338 -0.42656663 -0.57938856 -0.1499007 0.037511475 -0.21498303 0.094237216 0.5026936 0.1903526 -0.26342678 -0.093686506 -0.28227797 -0.20649993 -0.09361591 0.2583431 -0.21801035 -0.16481826 0.004738571 0.3725992 0.42145813 0.50159574 0.5039755 -0.016994279 0.15569605 0.14955296
formacion 0.15290852 0.013990638 0.015008487 -0.15253606 0.43688545 -0.08521808 -0.4434422 -0.587495 -0.15047298 0.031439222 -0.24243546 0.10297397 0.53069586 0.19211738 -0.27229655 -0.09833581 -0.2790204 -0.2009991 -0.10876586 0.255546 -0.21293576 -0.20280248 0.0075986395 0.38739052 0.4588935 0.5216503 0.53616345 -0.026704943 0.13730715 0.13938227
ayudar 0.15365131 0.00239531 -0.0076171667 -0.14318934 0.45720562 -0.098601796 -0.4892833 -0.6728262 -0.19502556 0.05254692 -0.26276892 0.096890286 0.6039088 0.24265838 -0.30544963 -0.12610203 -0.32891262 -0.239809 -0.104881674 0.29740006 -0.2402308 -0.21212101 -0.019633222 0.41583243 0.48381096 0.5848411 0.5986062 -0.02773413 0.17549269 0.16895658
asesor 0.13591549 0.023759868 0.012083151 -0.15385507 0.45090333 -0.073858716 -0.4686061 -0.61143285 -0.17110217 0.037739158 -0.22470331 0.10665151 0.56247324 0.20398144 -0.28823996 -0.11478471 -0.29699382 -0.22139499 -0.085179634 0.27188382 -0.23408584 -0.19403064 -0.006933912 0.4069266 0.47227958 0.5614462 0.55909014 -0.0420852 0.164039 0.13779369
realizar 0.14918585 0.018242568 -0.018004706 -0.14761502 0.41934264 -0.07912694 -0.45766026 -0.59487265 -0.17133471 0.035162322 -0.22412644 0.08802373 0.5312602 0.19163324 -0.2763457 -0.10506573 -0.28789565 -0.2061802 -0.10915788 0.25013843 -0.21138431 -0.19516084 -0.01969625 0.37646863 0.42935327 0.5221197 0.53050405 -0.025068939 0.14024338 0.1330009
compre 0.15207267 -0.006270647 0.014291983 -0.17134 0.48596627 -0.10933778 -0.52424675 -0.67022485 -0.19770756 0.038341578 -0.26883492 0.12019704 0.6116904 0.23850138 -0.29992852 -0.11520454 -0.341696 -0.23372026 -0.11020373 0.2905012 -0.2447118 -0.22065902 -0.016794296 0.45887884 0.514892 0.5870874 0.5961832 -0.03105957 0.16868694 0.17194372
hermana 0.16750632 0.007649077 0.00984202 -0.15236105 0.47174478 -0.08478599 -0.50401914 -0.6725222 -0.1710801 0.049671967 -0.2465526 0.10467586 0.6023946 0.22329234 -0.29594657 -0.12030604 -0.34093785 -0.24090256 -0.08780454 0.29720312 -0.25420305 -0.19515206 -0.0072410423 0.4373749 0.52217084 0.58013886 0.60630125 -0.050587453 0.17035267 0.16081125
pendiente 0.12912549 0.0051786886 -0.012906745 -0.13825649 0.3897601 -0.075441584 -0.42156878 -0.54800755 -0.14746553 0.053211085 -0.20217893 0.08962302 0.5049305 0.19414729 -0.25900048 -0.08620091 -0.26285517 -0.19721869 -0.091102816 0.24211141 -0.20940714 -0.16737887 -0.02086504 0.36185956 0.41036546 0.47818598 0.4954479 -0.04013276 0.14180884 0.11890697
comunico 0.1369347 0.0017396335 -0.0041729705 -0.15773638 0.46776822 -0.07893924 -0.49597415 -0.6233804 -0.16866012 0.04013673 -0.25081533 0.11291438 0.5670154 0.20397635 -0.29244348 -0.0985251 -0.3120639 -0.22803779 -0.10378666 0.28246307 -0.22427873 -0.18606658 -0.022052497 0.4244312 0.4949668 0.55962163 0.5533213 -0.016454788 0.17075738 0.15245327
diario 0.15472648 -0.0018955625 0.0023820465 -0.12745082 0.4420393 -0.07138911 -0.4411548 -0.60585946 -0.16472526 0.0608995 -0.22409105 0.08093102 0.54033077 0.22101258 -0.26114464 -0.099082686 -0.30114922 -0.19610569 -0.11245458 0.25824 -0.21101221 -0.20078349 0.0025531203 0.38667694 0.44811812 0.5327917 0.5469713 -0.030686548 0.16292207 0.13855602
hiciera 0.17439918 0.010468925 -0.0081206225 -0.1823191 0.5014729 -0.10018113 -0.5529631 -0.70798385 -0.18550037 0.04896937 -0.28453782 0.11600751 0.64278597 0.23525432 -0.32085946 -0.116638035 -0.3609818 -0.25189155 -0.12731393 0.30578217 -0.24924158 -0.21724422 0.0017843976 0.46952572 0.5416289 0.62889683 0.62467813 -0.018281927 0.17029962 0.17959616
trabajando 0.110038094 0.023553012 -0.002500343 -0.13241218 0.39936563 -0.06825397 -0.4292902 -0.55148005 -0.13655637 0.03803882 -0.20747407 0.0821417 0.50001764 0.19630386 -0.24771287 -0.09004361 -0.27566728 -0.18510604 -0.098712616 0.24944302 -0.18288049 -0.17430249 -0.0018121694 0.34726867 0.41727182 0.4676992 0.46503684 -0.01633796 0.15091345 0.13076289
reporte 0.1297772 0.011296093 0.010168539 -0.1477798 0.4454206 -0.097752586 -0.4826907 -0.6339944 -0.1592299 0.045022935 -0.24427629 0.0873007 0.57381904 0.22894064 -0.29496562 -0.12100266 -0.3185479 -0.2208535 -0.08783162 0.29933524 -0.2339653 -0.19269837 -0.0212335 0.43037766 0.49516773 0.54861635 0.57292295 -0.01390467 0.14552967 0.14589255
capital 0.109014794 0.0119604925 -0.00085660676 -0.11648496 0.39772514 -0.078997694 -0.41890746 -0.53423595 -0.16484156 0.058829118 -0.1978928 0.09674906 0.48506147 0.20054042 -0.2647957 -0.11137321 -0.2686647 -0.19588389 -0.09054751 0.23824336 -0.19956031 -0.179504 -0.01964703 0.36912253 0.40337178 0.49154237 0.49980256 -0.02706904 0.120443694 0.13999201
aparecio 0.18445201 -0.003096995 -0.009043114 -0.19140616 0.5193336 -0.094120435 -0.5726499 -0.7556198 -0.21289827 0.07354893 -0.2966452 0.09911339 0.6804543 0.2467988 -0.33604237 -0.12041294 -0.38367683 -0.2661115 -0.11899625 0.32840052 -0.2781183 -0.23866515 -0.007079474 0.4854212 0.569256 0.6717688 0.6488999 -0.053342234 0.19411983 0.16838616
sistema 0.16670488 0.025195833 -0.015207727 -0.1630882 0.48632485 -0.091921136 -0.5421786 -0.7049218 -0.19046889 0.07319876 -0.27095568 0.089806505 0.613902 0.23905738 -0.32203743 -0.121838495 -0.34229332 -0.24308442 -0.12283076 0.3112984 -0.23641711 -0.22825508 -0.014213203 0.46352217 0.5277153 0.61793673 0.6230743 -0.036131617 0.16328104 0.17407222
actualizar 0.18618105 0.014716241 -0.016652828 -0.1919154 0.52547824 -0.09602632 -0.5640833 -0.74018914 -0.199867 0.04270185 -0.29923108 0.117815726 0.678352 0.24130769 -0.3267557 -0.123785496 -0.36527783 -0.24600133 -0.11863843 0.33484486 -0.2832208 -0.22158423 -0.010194484 0.49356267 0.56294113 0.6781179 0.66002935 -0.03810167 0.19144984 0.16184096
social 0.14079393 0.014683853 0.003378964 -0.14338061 0.45201048 -0.10035314 -0.48224205 -0.6560119 -0.15817311 0.038092274 -0.24450964 0.10880332 0.58874726 0.20926403 -0.29563236 -0.09710557 -0.32376352 -0.24037726 -0.11685506 0.29367813 -0.23908152 -0.1998389 -0.0034968748 0.40739125 0.47002712 0.5838388 0.56412625 -0.021291768 0.15204681 0.15949704
beneficio 0.14273795 0.02003627 0.005136997 -0.13947481 0.4328839 -0.08080518 -0.442722 -0.605576 -0.16202675 0.064154364 -0.22822283 0.083314456 0.5365135 0.20415244 -0.28700277 -0.09494833 -0.2860275 -0.21656579 -0.103633955 0.27464405 -0.22914869 -0.18074217 -0.0047966503 0.40567356 0.43406615 0.5274141 0.5364074 -0.03324624 0.13269645 0.13895322
estacion 0.116288245 -0.009304713 0.0023005323 -0.114326105 0.39632577 -0.080761634 -0.41448805 -0.5354538 -0.13615835 0.03613387 -0.20172107 0.074887656 0.4760333 0.19701372 -0.24714626 -0.084742345 -0.27548084 -0.18244058 -0.0816484 0.24316783 -0.20527117 -0.17366031 -0.00033305722 0.3460544 0.40632084 0.46466714 0.47147152 -0.043178342 0.12749504 0.13305587
quede 0.13254863 -0.003667211 -0.0051417747 -0.14116228 0.43797135 -0.075158 -0.45537624 -0.61063784 -0.15197212 0.034570623 -0.23973757 0.0986388 0.5475188 0.21545544 -0.28313178 -0.11710489 -0.31999236 -0.21816489 -0.11463982 0.27961442 -0.22355874 -0.18678321 -0.022332054 0.41025943 0.46921796 0.5453825 0.5615592 -0.026560359 0.13666622 0.1601676
ultima 0.13538475 -0.00567804 -0.012596082 -0.15311138 0.42896074 -0.090859 -0.43867624 -0.5975269 -0.14294092 0.0606639 -0.22192156 0.08041544 0.5201072 0.19194055 -0.2521674 -0.08758082 -0.28941947 -0.19513611 -0.109002426 0.27575782 -0.20932262 -0.17877048 -0.024070283 0.37739083 0.43836302 0.52559143 0.5148205 -0.036504634 0.15625292 0.12647702
loco 0.12471298 -0.0081186285 0.016916662 -0.14503194 0.41281378 -0.09406784 -0.47312844 -0.5952082 -0.16644037 0.056237064 -0.2240534 0.07777393 0.536798 0.22230768 -0.27506274 -0.1164017 -0.29349577 -0.20932472 -0.082783654 0.26376495 -0.21941696 -0.19467206 -0.024034442 0.38065463 0.45159692 0.5196836 0.5221276 -0.01791369 0.14680924 0.15644713
agua 0.111031614 0.00037290942 -0.0022591287 -0.13312009 0.38125715 -0.070502765 -0.3898751 -0.5175854 -0.15076892 0.055908114 -0.18974005 0.085425206 0.46438065 0.18010245 -0.25723186 -0.09358714 -0.26461148 -0.18143597 -0.09517495 0.2330576 -0.18783702 -0.1558068 -0.012720575 0.34580386 0.39902005 0.45732102 0.4848535 -0.0394167 0.14661185 0.11503916
normal 0.15033363 -0.003469106 -0.0051915618 -0.13748726 0.47269374 -0.09419331 -0.49693635 -0.66917694 -0.1667902 0.06276239 -0.2465777 0.08285165 0.592446 0.22586913 -0.30773303 -0.11877918 -0.33641097 -0.21052414 -0.10799214 0.30914733 -0.23630942 -0.1911119 -0.015999386 0.42748204 0.47492087 0.5680593 0.5781115 -0.029101782 0.1469356 0.17059474
negocios 0.13361013 0.012909658 -0.0077725113 -0.10875565 0.36316356 -0.07490612 -0.40969473 -0.5412666 -0.15679286 0.034687296 -0.22080627 0.08906332 0.47591704 0.17795807 -0.24039109 -0.09845629 -0.24621817 -0.16590592 -0.06866242 0.23002866 -0.18265857 -0.16538015 -0.018088643 0.33105773 0.4023696 0.47795615 0.4764976 -0.024922714 0.12011667 0.12266455
quedar 0.14632583 0.013015274 -0.0015800268 -0.13246502 0.45505542 -0.07331767 -0.47423393 -0.6262758 -0.17853847 0.06669462 -0.2608405 0.111930445 0.57719314 0.20863917 -0.2971772 -0.11966872 -0.3213182 -0.2067602 -0.11638035 0.26921237 -0.21743862 -0.19660388 0.0059700883 0.42363793 0.47862077 0.5511542 0.56244034 -0.04679125 0.14617814 0.16535686
departamento 0.1527687 0.00042400713 -0.0013062413 -0.13790594 0.42938304 -0.074047215 -0.47591597 -0.6103197 -0.17628925 0.054140538 -0.22541608 0.096976556 0.53040427 0.19791275 -0.2807588 -0.12120968 -0.28388053 -0.21186362 -0.08980305 0.2857208 -0.22135626 -0.20309387 -0.00854527 0.39027232 0.44350746 0.54068696 0.54778135 -0.019831672 0.1575398 0.1532004
temas 0.12058345 -0.00011189078 0.007043028 -0.12974547 0.38297006 -0.06692736 -0.41770792 -0.53160703 -0.15653649 0.03462257 -0.21713334 0.072708435 0.4760258 0.19182673 -0.23583211 -0.09066954 -0.26516 -0.17868121 -0.09136898 0.2464723 -0.18617462 -0.16089846 -0.011458553 0.3423999 0.38963002 0.45095506 0.4674958 -0.02764894 0.1168233 0.123904616
ciudad 0.10779722 0.01406262 0.007806756 -0.11861454 0.34656426 -0.086275354 -0.40235832 -0.51833975 -0.12380217 0.056898437 -0.19886377 0.08290291 0.44320932 0.18515691 -0.24407072 -0.08816098 -0.24214162 -0.18393692 -0.084401384 0.22642085 -0.18121184 -0.14456256 -0.0036570912 0.33995557 0.3897751 0.44959706 0.4570384 -0.011067 0.12079514 0.13188136
corresponsal 0.1581288 0.01664378 -0.010215127 -0.16340452 0.45936087 -0.09265086 -0.46565178 -0.6373799 -0.15298459 0.062394783 -0.24545354 0.08612407 0.5576663 0.21986149 -0.28755403 -0.11137704 -0.32227337 -0.21592245 -0.08918087 0.27610135 -0.23208122 -0.19130552 -0.00898183 0.42418367 0.47991434 0.555013 0.5682305 -0.01911645 0.16938756 0.16170508
cuentan 0.13297151 0.010999003 0.0040140776 -0.1327546 0.46281624 -0.080459185 -0.49387887 -0.6409951 -0.17062205 0.05083083 -0.24937858 0.10744917 0.58226407 0.22302525 -0.29148358 -0.11394058 -0.30789277 -0.22068591 -0.10279865 0.30107257 -0.24287213 -0.2073535 -0.023534907 0.40803644 0.4896434 0.55050653 0.57624865 -0.037107036 0.1543726 0.15553638
contar 0.14040689 0.012248575 -0.009141202 -0.14938243 0.42423555 -0.08789943 -0.4472012 -0.60011315 -0.14533651 0.05300833 -0.23091383 0.07912283 0.5349912 0.21266378 -0.28935468 -0.10417504 -0.29603478 -0.20829572 -0.10812145 0.25546432 -0.2131141 -0.17861246 -0.0004217142 0.39604467 0.44466957 0.53903407 0.53400517 -0.023852078 0.13801867 0.15543742
recibo 0.14411311 0.017386742 -0.015607449 -0.13733073 0.44940972 -0.10118427 -0.47448185 -0.62989503 -0.17562144 0.06579713 -0.23356695 0.10577668 0.55313957 0.20826776 -0.2757986 -0.10868774 -0.31261846 -0.20458981 -0.09333818 0.26841033 -0.21874338 -0.21608685 -0.0026356138 0.39848435 0.45800766 0.55715364 0.5752792 -0.035397917 0.1461527 0.15768667
lunes 0.13855906 0.025602115 -0.011916788 -0.16446666 0.47017947 -0.094483785 -0.49434862 -0.637081 -0.17485818 0.047667485 -0.24276358 0.08749072 0.56411856 0.22676225 -0.28814495 -0.10237629 -0.30424616 -0.22869441 -0.11652387 0.30485198 -0.22920638 -0.21582809 0.00015540565 0.43814585 0.48472038 0.57074547 0.5880821 -0.03874512 0.15077537 0.13795868
explico 0.14277416 -0.0025406117 -0.0011640423 -0.1406635 0.4403776 -0.10093614 -0.4580568 -0.5944458 -0.16308694 0.050489992 -0.21880049 0.10479161 0.5324289 0.21120033 -0.26493746 -0.095718816 -0.29121774 -0.21456613 -0.09097577 0.26738438 -0.2033208 -0.19583388 -0.009208995 0.38206783 0.44931415 0.5226022 0.53177184 -0.025424255 0.13892521 0.15369534
supuestamente 0.14337286 -0.0024563135 0.0130005125 -0.16349994 0.46070442 -0.078840315 -0.50636417 -0.6501597 -0.18523332 0.047766674 -0.26907805 0.095783435 0.6049218 0.22156358 -0.2891835 -0.10044602 -0.31418127 -0.2228254 -0.10317833 0.29723686 -0.24249397 -0.20304176 0.007584129 0.44551495 0.49935293 0.5787718 0.57487017 -0.02651164 0.15012594 0.15464182
hiciste 0.15862675 -0.0034169035 -0.017949902 -0.14471556 0.4407653 -0.09659264 -0.4623206 -0.6087872 -0.1800959 0.038026 -0.25068197 0.0978618 0.5509962 0.22383739 -0.27009085 -0.11113366 -0.31349826 -0.21779014 -0.10768571 0.28320876 -0.23581561 -0.17949851 0.00045985833 0.40427154 0.47256565 0.5361274 0.55924934 -0.03918782 0.14805774 0.14670451
ahorros 0.12223649 0.005488414 -0.0012873855 -0.1146777 0.39311042 -0.07660543 -0.4175867 -0.54505885 -0.15723816 0.05498408 -0.22125319 0.0841195 0.4802937 0.19867091 -0.23344396 -0.095794015 -0.25370103 -0.1879023 -0.08720749 0.2380248 -0.20128007 -0.17171212 -0.0053159096 0.36016563 0.40525272 0.4839711 0.48498902 -0.037756197 0.14683686 0.12818559
proyecto 0.16063857 -0.0025747558 -0.011856632 -0.14078039 0.46020636 -0.087295 -0.4993586 -0.64499307 -0.16764931 0.055031672 -0.26656985 0.09225357 0.59604496 0.22302343 -0.28557032 -0.13048378 -0.33253378 -0.22666901 -0.11051308 0.29985353 -0.23113284 -0.2161793 0.0023981824 0.4356721 0.5029119 0.5909364 0.59127796 -0.040365446 0.17067052 0.14482436
queremos 0.17605954 0.025964802 -0.0014399812 -0.15956618 0.49816054 -0.11149964 -0.542025 -0.6985721 -0.2061505 0.043207236 -0.28765285 0.10240002 0.63996285 0.24140674 -0.32580236 -0.123719275 -0.3450872 -0.25408554 -0.111401625 0.30103055 -0.24369946 -0.23018977 -0.023338515 0.45638475 0.52109796 0.63029635 0.6307249 -0.038933944 0.17230825 0.15519638
averiguar 0.1162305 -0.0020241195 0.0035259111 -0.11025751 0.3857946 -0.080150865 -0.40489072 -0.55545545 -0.15190893 0.03274736 -0.21844852 0.07567891 0.4878041 0.18537615 -0.24787812 -0.08750882 -0.27358127 -0.19988853 -0.10260639 0.23856623 -0.19663525 -0.1674981 -0.008677269 0.34125495 0.40524238 0.47433487 0.49158046 -0.036367938 0.13638614 0.113993764
comunicarme 0.11367127 -0.001899068 -0.014224826 -0.11614431 0.37316048 -0.09194073 -0.40350625 -0.54237103 -0.14526474 0.050481956 -0.21648932 0.06998641 0.46795496 0.16756786 -0.2574717 -0.07953111 -0.2481899 -0.17593996 -0.09646515 0.2511629 -0.19554731 -0.17871243 -0.008294728 0.34533268 0.38736337 0.47777945 0.47055116 -0.023278061 0.11964768 0.12750787
precisamente 0.14122312 0.023171278 -0.0042705573 -0.15753241 0.43889368 -0.07563407 -0.46964124 -0.65252554 -0.18907566 0.046536464 -0.2342835 0.10620646 0.5618211 0.22797783 -0.30037013 -0.1018933 -0.32118344 -0.22638535 -0.109800816 0.28617477 -0.24097538 -0.2102231 -0.005843786 0.40924633 0.4622242 0.5735036 0.561722 -0.025979454 0.14824054 0.15487508
beneficiario 0.12877843 0.0009192008 -0.009178433 -0.115985826 0.38815683 -0.06877413 -0.4158715 -0.5735821 -0.1632344 0.051570296 -0.20946051 0.09606214 0.516794 0.19011219 -0.2580139 -0.0859258 -0.27778342 -0.21029463 -0.09978138 0.25407094 -0.193036 -0.18787667 -0.0015281887 0.37301853 0.43040517 0.49229372 0.48504898 -0.027168872 0.13826753 0.13692299
telefonica 0.11756006 -0.006622695 -0.004565061 -0.14342485 0.37594354 -0.065652065 -0.4103352 -0.5577109 -0.14360833 0.03260931 -0.22070374 0.083492815 0.4884226 0.19507106 -0.25932136 -0.104113005 -0.26214197 -0.1809231 -0.0925777 0.24188174 -0.18703583 -0.17469367 0.004234476 0.36072242 0.40918967 0.49536136 0.4741317 -0.039313536 0.12640491 0.11894908
disponible 0.13137108 0.001733074 -0.004317334 -0.14982894 0.4205682 -0.09421374 -0.46289986 -0.62055063 -0.16750745 0.057228006 -0.2492072 0.10759746 0.5634216 0.2274671 -0.29440877 -0.11444139 -0.3163493 -0.19742756 -0.089015685 0.27267298 -0.23603098 -0.19544491 -0.0008225584 0.4036604 0.47775084 0.5554207 0.5497986 -0.03436311 0.16361305 0.15739527
antioquia 0.11581826 0.0021211882 -0.011178795 -0.12519185 0.3653997 -0.071510114 -0.41468868 -0.53113645 -0.14360975 0.05559001 -0.21554925 0.08425028 0.47910482 0.19944972 -0.25328633 -0.09189499 -0.25000954 -0.19765897 -0.10166445 0.24688126 -0.20709114 -0.16950004 -0.01239617 0.34087256 0.40752998 0.48826292 0.4603232 -0.015317279 0.12104366 0.11079077
pasada 0.14213483 0.01598576 -0.012190305 -0.14565626 0.42498788 -0.07470388 -0.479823 -0.6201301 -0.17484824 0.062072564 -0.22467515 0.07777576 0.54473674 0.20394956 -0.29379946 -0.09567241 -0.298377 -0.1954384 -0.093985796 0.284834 -0.2137882 -0.1833975 -0.0047374032 0.38369718 0.44203672 0.5343612 0.5223147 -0.032967933 0.1536998 0.13298628
pierde 0.16871344 -0.005548821 0.0061521465 -0.17316201 0.4629874 -0.10208307 -0.49925268 -0.67910403 -0.193251 0.04779183 -0.25600412 0.09762391 0.6058087 0.2187082 -0.3170037 -0.10120608 -0.34550673 -0.23436864 -0.10048184 0.3118934 -0.228408 -0.21045052 -0.020141574 0.43126535 0.5026016 0.6112179 0.60722107 -0.039239544 0.17972304 0.15195042
partes 0.14343454 -0.00082119025 -0.0046326704 -0.13541487 0.41366047 -0.0870171 -0.4443923 -0.60948163 -0.16014525 0.03376255 -0.21978776 0.10482797 0.5381615 0.21275027 -0.25948036 -0.1006671 -0.295708 -0.1999635 -0.08836306 0.28089166 -0.22378461 -0.1814374 -0.007189521 0.3924421 0.46027458 0.5306366 0.5180042 -0.031757534 0.14463104 0.14545666
gerente 0.14054424 -0.0053199683 0.007257974 -0.13219146 0.42982602 -0.093470104 -0.46007884 -0.6050497 -0.14996602 0.033522557 -0.23183274 0.09160893 0.54264015 0.20445395 -0.27111956 -0.12210418 -0.31177402 -0.22255804 -0.11098999 0.27756447 -0.23178583 -0.19229178 0.008000534 0.39213666 0.4661984 0.55359226 0.549563 -0.028363446 0.15742369 0.14927058
pequena 0.12578739 0.015875835 0.0136980135 -0.14860417 0.41211018 -0.09051642 -0.46972 -0.5890146 -0.14768267 0.053811595 -0.23257276 0.081900604 0.5317927 0.212391 -0.28391343 -0.114106804 -0.3045115 -0.19376522 -0.0786724 0.27575594 -0.22903462 -0.1897302 0.007791726 0.402653 0.4403192 0.52136177 0.53974164 -0.031568915 0.15480518 0.15797468
confirmar 0.12639493 -0.003121666 -0.010917058 -0.15428098 0.43428543 -0.095642716 -0.45497736 -0.60237086 -0.18196931 0.05955673 -0.2443709 0.08884336 0.5361114 0.21524045 -0.2670929 -0.106312275 -0.30994985 -0.20937842 -0.105993435 0.27694038 -0.23849982 -0.20372225 -0.014481933 0.39367318 0.46632075 0.54746914 0.5385454 -0.044948217 0.15735985 0.132896
hijos 0.12747389 0.024329228 -0.008215999 -0.13076982 0.40517655 -0.09811873 -0.45528525 -0.5910258 -0.15165773 0.03706979 -0.23742183 0.089304015 0.5343067 0.20142677 -0.27063924 -0.09274103 -0.30779377 -0.19683933 -0.10594202 0.26340088 -0.2005901 -0.19316284 -0.01747326 0.3797362 0.4271419 0.51808965 0.52017295 -0.018384008 0.14130643 0.13514015
especial 0.14221662 0.016797354 0.011215395 -0.13921365 0.47691986 -0.097229965 -0.50955904 -0.6721789 -0.16262472 0.06023262 -0.2709366 0.10551731 0.594561 0.21573098 -0.30684286 -0.12224911 -0.32939124 -0.23277083 -0.09678241 0.28624046 -0.24713205 -0.20736839 -0.024884794 0.43912923 0.50813156 0.5654722 0.5789996 -0.023449901 0.1741722 0.16075613
diciembre 0.13420798 -0.0051649567 0.015394603 -0.13805291 0.4648538 -0.09648939 -0.50002795 -0.6557549 -0.17616236 0.039640956 -0.26834536 0.0846501 0.5890197 0.22968744 -0.30575642 -0.12593992 -0.30605146 -0.2365152 -0.1005212 0.29088613 -0.22732592 -0.20658141 -0.010445457 0.43187818 0.47150135 0.5740906 0.5734148 -0.025680728 0.15269884 0.14049318
comida 0.15828893 0.017824868 0.010127501 -0.16469216 0.4663693 -0.0955086 -0.5100685 -0.6593194 -0.1756796 0.07076599 -0.2452437 0.10088799 0.580016 0.22697951 -0.30241355 -0.10517233 -0.34266743 -0.21234219 -0.093737006 0.29716596 -0.22566788 -0.21141893 -0.012805606 0.42256013 0.49251142 0.58842975 0.58568615 -0.034015656 0.16379143 0.17056498
perdero 0.15253061 0.007703098 -0.0059568416 -0.14081867 0.43620893 -0.09550717 -0.47041166 -0.6147366 -0.15581793 0.043414213 -0.2310921 0.10252463 0.55048454 0.19725037 -0.2891976 -0.124194615 -0.32106224 -0.22779831 -0.09701491 0.27928343 -0.22376658 -0.19050941 -0.010377747 0.39423496 0.44696808 0.5478028 0.5622504 -0.016458485 0.14959893 0.14268236
cancele 0.13877355 0.0100086015 -0.003035614 -0.1534391 0.41553164 -0.08861742 -0.45405486 -0.59541386 -0.15209185 0.062948324 -0.239325 0.09830913 0.5226673 0.21660487 -0.2773026 -0.11128864 -0.30066994 -0.21155791 -0.102557294 0.25791848 -0.19929339 -0.18053865 0.003997515 0.40045422 0.45195082 0.5348992 0.5320326 -0.030283486 0.1602222 0.14793213
intente 0.09966374 0.021521278 0.0011548864 -0.09559641 0.2853856 -0.061757624 -0.32253334 -0.42414576 -0.10059456 0.042137038 -0.14564857 0.067482784 0.38817263 0.12699394 -0.19107506 -0.08247103 -0.21348214 -0.14045705 -0.052709516 0.19540124 -0.15784822 -0.14744401 -0.01633048 0.28521442 0.31756654 0.3782908 0.3720858 -0.033557113 0.08928549 0.108636305
adios 0.14450903 0.00939584 -0.01056062 -0.123817734 0.4166184 -0.092621446 -0.43938422 -0.563135 -0.13933475 0.029626459 -0.21688125 0.081289716 0.52310145 0.21282789 -0.26507074 -0.09916771 -0.27122003 -0.2097946 -0.08556615 0.2730695 -0.19707607 -0.18294056 -0.0014015179 0.36942217 0.43821132 0.50644267 0.5255631 -0.037445564 0.14732067 0.14084753
ingresos 0.13944252 0.017013336 -0.006088042 -0.11742426 0.3938221 -0.086543545 -0.43696856 -0.5439282 -0.14652827 0.041606937 -0.22672664 0.0834327 0.49485314 0.1900528 -0.24028517 -0.09403889 -0.28354648 -0.2035766 -0.102027446 0.25347182 -0.21372023 -0.17345561 -0.0059037525 0.36895573 0.42830646 0.4944635 0.50426304 -0.026453886 0.14430855 0.14326611
seguir 0.13709323 0.016342888 -0.0010819691 -0.11507069 0.38028982 -0.07122712 -0.40235576 -0.53085923 -0.15678725 0.037247024 -0.20600712 0.09248429 0.46146017 0.19684626 -0.22338992 -0.08669443 -0.24490857 -0.1733849 -0.089422464 0.25039637 -0.19388357 -0.15698653 -0.004668809 0.35835484 0.3867111 0.47032493 0.46069592 -0.012199472 0.13517448 0.13832662
hogar 0.11762167 -0.0019593872 -0.011680488 -0.1321735 0.397884 -0.06551662 -0.4342304 -0.5826262 -0.16573259 0.041175455 -0.22782044 0.08194702 0.52356577 0.19811141 -0.25372812 -0.08644627 -0.26719433 -0.18972245 -0.07850407 0.25429347 -0.19910872 -0.1709265 -0.02149095 0.38802874 0.4396156 0.51666135 0.5001578 -0.023505578 0.15583438 0.14407957
llamara 0.14489211 0.0044704434 0.0132127 -0.1548347 0.4452347 -0.09435694 -0.4747034 -0.604089 -0.1746413 0.05132674 -0.25054154 0.10277863 0.54049444 0.21298021 -0.286381 -0.11617884 -0.28729862 -0.20304199 -0.083516814 0.27573487 -0.21393074 -0.18243842 -0.007874889 0.41450474 0.46626207 0.5299431 0.53968054 -0.032071747 0.16716227 0.15362912
cantidad 0.1349216 0.022748271 0.0122036645 -0.12888885 0.433732 -0.077494286 -0.4526182 -0.606293 -0.15153836 0.06324116 -0.23468302 0.08033114 0.55952936 0.21491462 -0.2824511 -0.09159144 -0.28831676 -0.22203188 -0.105823085 0.27482274 -0.20129895 -0.19563413 -0.023729302 0.40061685 0.4697654 0.5398905 0.5435984 -0.0283206 0.15447903 0.14588314
contesta 0.15345226 0.023618795 0.011084995 -0.14538758 0.43515185 -0.104514904 -0.45861015 -0.6078853 -0.16924365 0.041518275 -0.24368809 0.110316075 0.5441391 0.22692217 -0.3016555 -0.11957475 -0.31135377 -0.22570907 -0.08919086 0.2966351 -0.22795588 -0.19436145 0.0013273493 0.3965173 0.473131 0.55078816 0.54417694 -0.027185457 0.14010097 0.14951757
perderda 0.109732576 0.021054555 0.0042935926 -0.10156555 0.34684357 -0.07405098 -0.38863266 -0.49708104 -0.12555137 0.027863793 -0.20686682 0.07549311 0.44705385 0.17471829 -0.22636874 -0.08553301 -0.2549699 -0.1644597 -0.072103165 0.21284129 -0.17716624 -0.1558736 0.007150248 0.3365275 0.38707712 0.4343155 0.4302992 -0.016651573 0.11431132 0.10338418
dijiste 0.1381574 0.00386664 0.006702793 -0.14694679 0.41324973 -0.077109925 -0.43302232 -0.5612138 -0.15026124 0.032374356 -0.23310055 0.102771714 0.5217599 0.19981416 -0.26676735 -0.08409545 -0.29382652 -0.1965918 -0.09637066 0.2635587 -0.19024439 -0.17632407 0.0014206864 0.36534452 0.4179167 0.51284516 0.50797373 -0.03419028 0.15037493 0.14425586
mandar 0.1238529 0.025061533 -0.00035663755 -0.15522805 0.40905237 -0.090644784 -0.44627035 -0.60935074 -0.15233234 0.053312995 -0.24406326 0.09863219 0.5489413 0.19495052 -0.27908275 -0.10770393 -0.28762066 -0.21786341 -0.07890171 0.2801149 -0.22156018 -0.18814078 0.0060764016 0.39351094 0.4404381 0.5176865 0.54072845 -0.03282742 0.14261602 0.13297942
consulta 0.13179077 0.012469203 -0.015120056 -0.1519266 0.4556475 -0.09705809 -0.47306532 -0.6260333 -0.15523455 0.06384145 -0.2600344 0.08566642 0.55389875 0.20879188 -0.27355757 -0.097577855 -0.31625733 -0.22348578 -0.09601014 0.2791373 -0.2235107 -0.1901548 -0.002450711 0.40591854 0.4698781 0.56027967 0.57422096 -0.03197658 0.1412605 0.16696414
cultivo 0.13837868 0.010908128 -0.013682634 -0.13214305 0.39020944 -0.06794696 -0.43016922 -0.557595 -0.15828861 0.0330025 -0.2184473 0.10023002 0.49834418 0.21046421 -0.25275254 -0.09291714 -0.27570334 -0.1965792 -0.08752009 0.24646404 -0.21836773 -0.19175117 -0.012675215 0.3595411 0.42359528 0.49772838 0.5088316 -0.031421386 0.14923152 0.12758952
activo 0.14328547 0.0043929853 0.009670484 -0.14437728 0.4795835 -0.08053326 -0.50556606 -0.6882978 -0.17593566 0.048465993 -0.26455477 0.10135222 0.6026654 0.2245357 -0.29178205 -0.12293008 -0.32063624 -0.22976263 -0.112604715 0.3004064 -0.22584006 -0.20892522 -0.022331087 0.45683157 0.4924521 0.5874056 0.6036766 -0.04402874 0.15382063 0.16021422
compras 0.15552324 -0.0032742366 -0.012930612 -0.16719913 0.48118263 -0.08039329 -0.51310647 -0.66638154 -0.18842146 0.04489118 -0.26399225 0.09804808 0.6102845 0.21456859 -0.30884218 -0.10480161 -0.32953173 -0.2349448 -0.11424678 0.29218477 -0.2522508 -0.21292572 0.00033846166 0.45353752 0.5065382 0.59097624 0.59450006 -0.048496548 0.15337987 0.1591197
punk 0.1490105 -0.0056447466 0.011380453 -0.13355659 0.42354435 -0.078464046 -0.43927893 -0.57603765 -0.1475188 0.040249463 -0.22382896 0.09377676 0.530392 0.1871601 -0.25653824 -0.10460852 -0.289417 -0.20122272 -0.07825532 0.26146206 -0.21469548 -0.18875366 -0.022749193 0.38105118 0.4325406 0.50174934 0.5234523 -0.03161296 0.14999498 0.13803722
posible 0.15147169 0.0033671204 -0.00024171901 -0.11929787 0.4215418 -0.0915796 -0.43472832 -0.5759624 -0.1560859 0.04476682 -0.21363036 0.10449529 0.5195706 0.2036864 -0.26608735 -0.099084504 -0.27145255 -0.19489148 -0.092013784 0.27055556 -0.20913373 -0.19292772 -0.009506866 0.38915187 0.44553214 0.52527755 0.50345916 -0.03951619 0.15857774 0.12417513
alivio 0.16536705 0.021932475 0.006249945 -0.1515413 0.5191355 -0.11166592 -0.5329258 -0.7045906 -0.17509775 0.050454065 -0.2959087 0.099587105 0.6178087 0.25667468 -0.3356905 -0.13653007 -0.35709283 -0.2499705 -0.12092818 0.33216742 -0.25388217 -0.22788785 0.005731643 0.46787277 0.5243165 0.6091427 0.6199178 -0.04602408 0.17175184 0.1678724
firmar 0.16677001 0.022190394 -0.01347039 -0.16242066 0.45317087 -0.08750653 -0.51703477 -0.66593516 -0.19113764 0.051559903 -0.25597134 0.09147706 0.59303 0.23544924 -0.3097644 -0.10517978 -0.33555883 -0.2355138 -0.11186456 0.2936171 -0.25295967 -0.1957356 -0.0014898301 0.42042878 0.495229 0.57137346 0.5837341 -0.03889762 0.15311448 0.14705968
efecto 0.14050962 0.022616422 0.009041209 -0.1253575 0.3684913 -0.0709899 -0.3982244 -0.52885574 -0.13264424 0.048723742 -0.2191817 0.07927752 0.47381565 0.19640435 -0.2551853 -0.11107377 -0.27697018 -0.20378222 -0.08639531 0.2472218 -0.1976159 -0.16613613 -0.023650823 0.3480491 0.40107745 0.48903158 0.47439426 -0.021252554 0.14230655 0.14036784
exterior 0.13156876 0.023156902 0.005052341 -0.12625138 0.41742533 -0.094328836 -0.46549028 -0.6016408 -0.16521505 0.04152648 -0.21790288 0.10652915 0.5471935 0.19813366 -0.26513028 -0.09237348 -0.2966811 -0.19061738 -0.09800566 0.2511526 -0.21947888 -0.20195402 -0.016806373 0.39577484 0.45833325 0.53343487 0.53883743 -0.019634042 0.14757419 0.14315219
edad 0.14615007 0.020405062 -0.0010754119 -0.14757672 0.42675787 -0.097547606 -0.46040592 -0.6100472 -0.17021681 0.045742277 -0.25362405 0.09929814 0.5375446 0.19865115 -0.27193913 -0.11692321 -0.31641474 -0.20381337 -0.113897584 0.26299506 -0.20896927 -0.17899135 0.003963533 0.4061506 0.4752536 0.5318153 0.53392196 -0.022234548 0.1376296 0.13392523
basica 0.15339543 -0.006804929 -0.0031645012 -0.14479765 0.4122867 -0.07887127 -0.4615969 -0.60479593 -0.14819446 0.030689605 -0.2212672 0.079003476 0.53317416 0.19376177 -0.29179305 -0.11159691 -0.2918756 -0.20685144 -0.08404905 0.27757895 -0.20453821 -0.19572273 -0.016442737 0.39502713 0.45208237 0.53440535 0.5422708 -0.03182083 0.14600718 0.14765932
peticion 0.14152993 0.0013293973 -0.012694479 -0.14288099 0.44619155 -0.07951501 -0.4609618 -0.60401744 -0.16154435 0.036105078 -0.2495864 0.09661029 0.5521873 0.22808866 -0.29016733 -0.11816788 -0.30435604 -0.20313078 -0.11401542 0.27410254 -0.23349908 -0.17986216 0.0037285213 0.41345748 0.4653868 0.52822435 0.53145903 -0.019996574 0.16321227 0.14792202
