202 30
llamar 0.17800575 0.29232675 0.5782673 -0.07103805 -0.12908363 -0.2781988 0.13773112 0.1810803 0.28861988 0.79258424 0.14554025 0.5383816 0.2542756 -0.75588334 -0.39623624 0.34057555 -0.0008725593 -0.08721656 -0.102379635 -0.37432382 0.10354095 0.421192 -0.24165711 -0.29053417 0.4257697 -0.2502649 -0.36081815 0.03339197 0.22975385 0.3095201
credito 0.20240462 0.27978384 0.5819923 -0.06396961 -0.1117162 -0.26422837 0.13433346 0.1686273 0.2725839 0.8037705 0.13197887 0.5498728 0.25786173 -0.7789329 -0.4070285 0.32415494 0.0047458564 -0.08598749 -0.08645481 -0.38394186 0.11114194 0.42976984 -0.27432147 -0.2762631 0.4102332 -0.26616842 -0.3509857 0.049320117 0.2425082 0.3083332
ingreso 0.1907707 0.2864681 0.5558188 -0.045010235 -0.13513435 -0.26448807 0.11669716 0.17060612 0.27421096 0.7549533 0.13463448 0.5377626 0.24189243 -0.71008533 -0.37411493 0.29408157 -0.014876997 -0.08199314 -0.09678277 -0.35691142 0.08659731 0.39004123 -0.2335017 -0.24710728 0.41178536 -0.25556087 -0.32677314 0.030274734 0.24531762 0.31578746
oficina 0.17774215 0.30642393 0.5797385 -0.06406312 -0.123438105 -0.27645084 0.13638662 0.172868 0.29374826 0.802457 0.13116427 0.55835533 0.26231915 -0.77245724 -0.4146575 0.34891903 0.015365205 -0.09957997 -0.09269125 -0.3741372 0.101209246 0.43264037 -0.27564383 -0.29443395 0.40989578 -0.24906687 -0.35607168 0.041275967 0.23234014 0.3263125
solidario 0.15976016 0.28234208 0.52542394 -0.048766624 -0.12367678 -0.26991507 0.09858371 0.1667513 0.26731583 0.7571227 0.12996353 0.52073926 0.24011227 -0.71959335 -0.3937813 0.3226817 0.013804262 -0.0937251 -0.09295225 -0.3451827 0.09877383 0.39625266 -0.24488895 -0.24554026 0.4025494 -0.22633575 -0.3344812 0.043781634 0.23112336 0.31572917
telefono 0.1943914 0.317077 0.5682891 -0.0766364 -0.12486143 -0.29186034 0.13344455 0.1561698 0.26829207 0.823435 0.1588522 0.5622694 0.24982211 -0.7736621 -0.42735884 0.3370261 -0.012913447 -0.094698876 -0.09807313 -0.37001434 0.11257093 0.43729895 -0.274956 -0.28370225 0.4386232 -0.252004 -0.35131875 0.023722364 0.24990378 0.3127181
informacion 0.19685613 0.28744256 0.5733567 -0.063264266 -0.13976677 -0.28721467 0.12611726 0.17955987 0.26290858 0.81727695 0.16023302 0.5605116 0.2371256 -0.79302895 -0.4223914 0.34580442 -0.00029655304 -0.07571511 -0.08316487 -0.3942233 0.08261123 0.4317418 -0.25703245 -0.29313123 0.44385645 -0.24084215 -0.3484781 0.016997954 0.23645845 0.3188866
aplicacion 0.17106147 0.30043563 0.58312076 -0.047820095 -0.1373219 -0.2653879 0.121547855 0.16129874 0.2622111 0.79676116 0.15629423 0.5651323 0.2358886 -0.7573459 -0.41311875 0.316151 0.00771704 -0.09875241 -0.093649514 -0.36096227 0.1072654 0.43722418 -0.27680212 -0.26442075 0.43286234 -0.25514445 -0.35224953 0.04205287 0.24328192 0.317083
llegar 0.19609709 0.2807103 0.5479329 -0.07137589 -0.12102082 -0.2718514 0.13088493 0.15017898 0.26440594 0.77983576 0.13124096 0.5496834 0.238827 -0.75146896 -0.3796218 0.32602128 0.0078115924 -0.074101664 -0.085118026 -0.3798482 0.107768476 0.4212214 -0.23851034 -0.27570328 0.39870623 -0.25326622 -0.34766254 0.021410204 0.22305274 0.3138275
perder 0.19202833 0.28130537 0.5714008 -0.058166962 -0.13122657 -0.27882105 0.13344799 0.17031202 0.28322503 0.801786 0.15633845 0.5565961 0.22708294 -0.7630482 -0.3964378 0.331552 0.009073716 -0.08786022 -0.111382656 -0.36627558 0.09900805 0.42044938 -0.26887563 -0.28550786 0.4211144 -0.26325896 -0.36549586 0.023634197 0.22618094 0.32704931
cuota 0.21413656 0.305216 0.6126536 -0.06844767 -0.13943225 -0.27736473 0.14122055 0.15878001 0.27877396 0.84669256 0.14315139 0.589288 0.26725966 -0.80019385 -0.43955266 0.35146925 0.0010717673 -0.096204944 -0.11006323 -0.4006723 0.11688744 0.45231307 -0.26903027 -0.28392717 0.43077064 -0.25935537 -0.3838518 0.028194197 0.2661746 0.3294655
mensaje 0.20192856 0.29431176 0.5937798 -0.06747717 -0.13420731 -0.29825634 0.13804083 0.18641241 0.26466382 0.81287277 0.16267282 0.58402294 0.24456628 -0.79323983 -0.4309402 0.31910017 -0.007475782 -0.0727744 -0.08401261 -0.4039627 0.109034665 0.42635828 -0.27970207 -0.28294677 0.43468028 -0.27386257 -0.34807044 0.03434067 0.26587167 0.32338014
interes 0.21985744 0.31195667 0.6386907 -0.085108414 -0.15200551 -0.30117884 0.14236286 0.16525352 0.3022365 0.8755933 0.16196091 0.6036298 0.28160682 -0.83967924 -0.46028402 0.36461118 -0.0109445015 -0.081978716 -0.12327714 -0.4278185 0.115337685 0.47145927 -0.29356837 -0.30768192 0.4779335 -0.2750601 -0.40168202 0.036813248 0.2639213 0.35286686
necesito 0.19339837 0.305108 0.5913169 -0.054729313 -0.12600763 -0.2930207 0.13622037 0.17320006 0.2823118 0.8159965 0.14153855 0.5609366 0.25905275 -0.7802438 -0.417611 0.34490648 -0.004275195 -0.07235054 -0.10077739 -0.3730533 0.10584322 0.42904058 -0.26285413 -0.29473376 0.43255565 -0.26358336 -0.34495965 0.027600065 0.24494953 0.33468354
pagar 0.19721518 0.29894784 0.582579 -0.06634593 -0.13933471 -0.2658766 0.12537973 0.16531362 0.2894098 0.80380476 0.14907467 0.57219034 0.23285876 -0.7553199 -0.3943722 0.3356066 0.010994866 -0.09909556 -0.08743021 -0.37452486 0.097214326 0.4197831 -0.25595415 -0.29631618 0.4268366 -0.25879595 -0.35900465 0.026418554 0.24925171 0.31717864
banca 0.20061368 0.31823638 0.58750963 -0.07487331 -0.12330568 -0.298349 0.12019171 0.18932433 0.30050895 0.80671227 0.14178585 0.56457114 0.25882262 -0.7748719 -0.40680838 0.335278 0.013722336 -0.080771744 -0.09041693 -0.37922022 0.09230707 0.45239538 -0.2665653 -0.2842077 0.41911733 -0.26820257 -0.3757323 0.049867406 0.24578813 0.34699506
codigo 0.19542755 0.30835786 0.58278763 -0.065937884 -0.1336511 -0.29582408 0.114272505 0.15736966 0.27152097 0.8291628 0.15936823 0.5903315 0.2358205 -0.8015919 -0.42165413 0.33340663 -0.010539856 -0.084883146 -0.09451258 -0.37684527 0.10304914 0.44224757 -0.2692614 -0.28778458 0.43196785 -0.2620133 -0.35735038 0.043943156 0.26615614 0.3293895
celular 0.17690063 0.31533083 0.575963 -0.04498637 -0.11640157 -0.29209223 0.11981321 0.16026305 0.29383698 0.7931056 0.13396314 0.57721174 0.25612956 -0.76156354 -0.42368376 0.3271376 -0.013248538 -0.069403455 -0.09256388 -0.37970826 0.08056375 0.4104096 -0.25412667 -0.26758727 0.41979197 -0.24117483 -0.3687862 0.039020665 0.23541442 0.32776535
hablar 0.1991812 0.30643842 0.58404684 -0.061993595 -0.12950328 -0.27195916 0.11926893 0.1730044 0.28486633 0.8151245 0.13594143 0.58083117 0.23967008 -0.7715395 -0.4279306 0.3444256 -0.0049908226 -0.08683754 -0.098368965 -0.38327664 0.11411264 0.43083543 -0.2542293 -0.2834297 0.4327903 -0.27303314 -0.37582797 0.04644728 0.25364697 0.3206527
problema 0.20562106 0.31330213 0.60374945 -0.07907216 -0.14579727 -0.28093964 0.11926741 0.17261861 0.27924815 0.84415984 0.1546108 0.5882032 0.26511282 -0.81175345 -0.43320337 0.34765217 0.0016923412 -0.092569895 -0.11398603 -0.402675 0.0852085 0.45565575 -0.28493443 -0.2992258 0.4516124 -0.26956537 -0.3658954 0.032131545 0.24346623 0.34391037
averiguar 0.16651161 0.23760168 0.48766857 -0.056999072 -0.1159429 -0.2359771 0.09063741 0.12932645 0.23266265 0.6870737 0.10520829 0.48987836 0.21579467 -0.64849746 -0.34784558 0.2812683 -0.0016594648 -0.07213196 -0.08112947 -0.32472867 0.09038696 0.37564793 -0.23288645 -0.25172055 0.34580985 -0.20158291 -0.287936 0.036992628 0.2216816 0.2735408
internet 0.20399657 0.28826848 0.55674785 -0.06465951 -0.122590385 -0.2857565 0.13009462 0.17081001 0.25941205 0.7967646 0.14445989 0.55979174 0.24338455 -0.7496853 -0.40652028 0.3188172 -0.006058195 -0.06741671 -0.10336053 -0.37228805 0.093884625 0.41573566 -0.24697125 -0.2896283 0.42577684 -0.24927275 -0.36312404 0.030242467 0.24556899 0.3176263
producto 0.16832691 0.2813325 0.5510045 -0.049819604 -0.11708876 -0.25424603 0.10562609 0.17002565 0.24730206 0.7638293 0.12426955 0.5360282 0.21717007 -0.72183794 -0.36693552 0.292627 0.012325099 -0.071208514 -0.10332668 -0.3438305 0.07750014 0.40699896 -0.24936421 -0.24932715 0.3877016 -0.2502216 -0.3303791 0.024673263 0.24329811 0.2985666
tarjeta 0.18397103 0.30621004 0.5850682 -0.048682272 -0.12397732 -0.26469824 0.121314496 0.15255894 0.2877104 0.7985482 0.14055966 0.5650617 0.24527845 -0.7673901 -0.40068513 0.32706788 -0.008156553 -0.08667443 -0.10756584 -0.39156756 0.087467924 0.42578375 -0.2448815 -0.27897298 0.4106486 -0.261652 -0.35021758 0.01831148 0.22634768 0.30999854
comun 0.2039654 0.32927918 0.59487325 -0.05694748 -0.12836613 -0.28613675 0.114162646 0.18409611 0.28379527 0.857099 0.14357649 0.5836142 0.26106852 -0.79061633 -0.42166895 0.34680274 -0.0011005116 -0.07257992 -0.094662696 -0.40066478 0.09168367 0.4545507 -0.27091402 -0.28132388 0.44005463 -0.27723175 -0.3897128 0.03622833 0.26226375 0.33513096
respuesta 0.20439772 0.31073722 0.5955764 -0.078172825 -0.124288484 -0.30254096 0.13208658 0.17877354 0.29803517 0.8322225 0.13555995 0.5883677 0.26379555 -0.80228907 -0.4340968 0.3384989 0.007068513 -0.073231384 -0.11296839 -0.39190882 0.11874761 0.4580143 -0.26505166 -0.2914999 0.42710567 -0.2771782 -0.37562305 0.039590605 0.2659574 0.33185735
anteriores 0.1791323 0.3052989 0.58436215 -0.058557224 -0.11268479 -0.280972 0.13389257 0.1825842 0.2875941 0.79067683 0.14683147 0.5508319 0.24461918 -0.7567376 -0.41957146 0.32429752 0.009168717 -0.06752497 -0.09402491 -0.39111993 0.09129378 0.43632668 -0.25472033 -0.27357224 0.41088077 -0.2673887 -0.36761573 0.024969192 0.25453517 0.31684548
bancolombia 0.20061204 0.29761493 0.5762351 -0.06583525 -0.10884036 -0.29332832 0.121153824 0.16526736 0.28755435 0.81205845 0.13562568 0.5492742 0.2363332 -0.7569192 -0.42231005 0.33056894 -0.0058821933 -0.06810471 -0.111599125 -0.3662513 0.087450124 0.41123962 -0.24273947 -0.29443592 0.42460647 -0.25222299 -0.35817927 0.02186342 0.22667609 0.33281115
retirar 0.17004052 0.26247436 0.52156883 -0.0459551 -0.127859 -0.24160346 0.10839941 0.15733474 0.23375657 0.7226902 0.13784578 0.49514425 0.23020762 -0.69089437 -0.35495722 0.311768 0.016408106 -0.080800794 -0.096806064 -0.3251308 0.08594045 0.39038542 -0.24359818 -0.26590124 0.39904052 -0.24711594 -0.32188934 0.03400831 0.22589335 0.28088254
enero 0.18166319 0.30213383 0.5819628 -0.06809909 -0.13340323 -0.27044615 0.14204088 0.17846428 0.27025515 0.81592715 0.13741148 0.5880744 0.24605212 -0.7765751 -0.42656538 0.33610943 -0.0018318845 -0.09956858 -0.09115302 -0.4035733 0.1108145 0.41726857 -0.2669095 -0.27116245 0.44621298 -0.2481204 -0.34765038 0.048630957 0.258213 0.3339494
datos 0.1805047 0.3016822 0.557845 -0.0461761 -0.11699007 -0.26417997 0.11134851 0.15795682 0.27878127 0.80407727 0.14414185 0.5447365 0.2369905 -0.76802295 -0.41216657 0.3364013 0.007197069 -0.07469689 -0.087666646 -0.37820095 0.10993694 0.41015404 -0.25637612 -0.2868975 0.42021704 -0.23912074 -0.34306964 0.04423299 0.23351802 0.33356923
ejemplo 0.18017271 0.29298773 0.58289486 -0.07154701 -0.14093843 -0.27372503 0.12198908 0.15017034 0.27211177 0.7992965 0.12705642 0.5441405 0.24955224 -0.7710726 -0.41421986 0.3165719 0.007607968 -0.088775106 -0.08770159 -0.37860137 0.11060365 0.42191038 -0.26455864 -0.26719627 0.43362477 -0.24312936 -0.36257976 0.046699706 0.25353596 0.3376664
nadie 0.18737344 0.31001422 0.6007162 -0.073773645 -0.11739837 -0.28545114 0.12217287 0.16562901 0.29670268 0.8433878 0.14932175 0.59688944 0.24280082 -0.8004923 -0.44052118 0.35851908 -0.0026445303 -0.08816795 -0.11647801 -0.40655977 0.08919262 0.43079573 -0.28413394 -0.30371124 0.43877128 -0.26238018 -0.38394946 0.03733216 0.26824746 0.35149014
octubre 0.18302487 0.2800161 0.5573504 -0.041950684 -0.13453224 -0.27262652 0.11761343 0.1753219 0.27894533 0.7677433 0.13307689 0.52215034 0.2390302 -0.7491044 -0.38976857 0.31116483 0.012499194 -0.06327398 -0.07836464 -0.3595085 0.08216167 0.38908398 -0.24076736 -0.25755578 0.41647387 -0.22896698 -0.34802604 0.037538134 0.23936418 0.2939044
ingresos 0.16797483 0.26188084 0.5078579 -0.043201417 -0.1126896 -0.2609385 0.10669748 0.1467894 0.24417171 0.73760766 0.11805782 0.5065036 0.21878569 -0.7112842 -0.36040783 0.30901527 0.0069758296 -0.08656002 -0.08286701 -0.3363206 0.08431338 0.39594057 -0.2501144 -0.24533653 0.36670375 -0.2154692 -0.32519677 0.028392313 0.2340173 0.29978624
pasado 0.18250468 0.2820877 0.5605664 -0.047092006 -0.10896618 -0.28029048 0.12596191 0.17230079 0.28772122 0.7977099 0.14535826 0.5592346 0.23577026 -0.7579139 -0.39977425 0.3248105 -0.0065811016 -0.07258609 -0.11198105 -0.36332244 0.09109202 0.41391358 -0.2722448 -0.27536768 0.41803148 -0.24538285 -0.36152166 0.04471901 0.22597945 0.29939115
cedula 0.19029555 0.2904654 0.58625865 -0.04543448 -0.1348565 -0.28776357 0.13057145 0.18578292 0.28226748 0.8212797 0.14699718 0.5797123 0.2602745 -0.7833485 -0.4073479 0.32439283 0.011853266 -0.09945082 -0.10183384 -0.3831106 0.111064374 0.43805864 -0.2597113 -0.2929105 0.44414464 -0.25409645 -0.36035797 0.035247736 0.2599773 0.3241966
nivel 0.19228546 0.3208221 0.60143656 -0.056786798 -0.11203347 -0.269253 0.110962294 0.1841206 0.27663472 0.8238392 0.15393195 0.5553168 0.2329262 -0.7965361 -0.40681618 0.34897926 0.012662462 -0.09571762 -0.097755 -0.37326962 0.09184659 0.42690846 -0.26549545 -0.2999206 0.43985537 -0.27236465 -0.37810445 0.01910794 0.26125836 0.32805398
ciudad 0.1955898 0.2814275 0.56114465 -0.066117555 -0.1370128 -0.27293894 0.11760183 0.17406988 0.26480988 0.758654 0.13111942 0.5465622 0.24370849 -0.7349222 -0.38105965 0.3237334 -0.013517797 -0.08544535 -0.0785709 -0.37607124 0.087774344 0.41724873 -0.25783032 -0.27646807 0.39601263 -0.23067509 -0.33229068 0.035553593 0.21927741 0.31901348
ahorros 0.18330221 0.2970328 0.5639041 -0.071040414 -0.124309875 -0.28736672 0.12613714 0.15753612 0.27998585 0.78967017 0.12860988 0.5471668 0.2461712 -0.7520106 -0.39021745 0.30725995 0.008964294 -0.091437995 -0.081091076 -0.36283615 0.089122586 0.4130303 -0.2437039 -0.27880707 0.40635857 -0.25552228 -0.35421968 0.013750445 0.23343179 0.32096025
realidad 0.2002349 0.27942854 0.575571 -0.066383414 -0.13721414 -0.2786909 0.1353306 0.1739719 0.2611428 0.7836874 0.1545621 0.5493625 0.24611834 -0.7609608 -0.39871922 0.31090033 -0.0049205497 -0.06765012 -0.101025544 -0.37990728 0.080363594 0.42273575 -0.25259614 -0.28726318 0.40090418 -0.23514767 -0.36022088 0.021366114 0.23058887 0.30007586
documento 0.17000811 0.26927197 0.5460473 -0.059941605 -0.11382705 -0.2713961 0.1052341 0.15038124 0.25059384 0.76263505 0.15306965 0.52530545 0.23865135 -0.72323555 -0.3749167 0.31395763 -0.015015055 -0.08321073 -0.09201021 -0.37121502 0.098763674 0.39055157 -0.25987762 -0.2644553 0.41497037 -0.25588402 -0.34845006 0.023559049 0.2217992 0.30213046
final 0.17841993 0.28728724 0.6010963 -0.050843775 -0.12333848 -0.2978224 0.13487908 0.16709207 0.29537323 0.82350695 0.1366316 0.56912386 0.25500524 -0.7868466 -0.41015613 0.34722733 0.011294751 -0.09000464 -0.095903106 -0.37664202 0.086732686 0.4334436 -0.27465898 -0.29526886 0.4259496 -0.24287608 -0.36567774 0.017903004 0.24236405 0.33916128
minutos 0.18053107 0.27106553 0.5338425 -0.072153546 -0.124829836 -0.27777272 0.10352163 0.16202876 0.2732576 0.7409016 0.13772452 0.50442785 0.24081676 -0.7232367 -0.39204478 0.3207895 -0.002929494 -0.07796071 -0.08619928 -0.3550121 0.080153584 0.40920135 -0.25419447 -0.26173598 0.40974507 -0.23363239 -0.32499853 0.046674956 0.24296756 0.2820003
creditos 0.19259527 0.30847216 0.57597446 -0.049087502 -0.13643886 -0.28685376 0.10651295 0.15846728 0.2892177 0.8069628 0.13528454 0.5414157 0.23577747 -0.7626156 -0.3982946 0.314134 0.011365084 -0.068160646 -0.09279017 -0.36711732 0.09717057 0.43915468 -0.26761168 -0.29534298 0.42563647 -0.26959434 -0.34210438 0.029455826 0.25016135 0.32028612
senal 0.14921193 0.2540181 0.45683417 -0.04008754 -0.117136806 -0.21299082 0.08245317 0.1331168 0.2157831 0.6593362 0.1030147 0.440341 0.19514704 -0.6397126 -0.34253892 0.25752118 0.016317058 -0.07467511 -0.07838765 -0.32087454 0.07272137 0.33320582 -0.20477393 -0.23581077 0.3437447 -0.19605899 -0.28034186 0.023238137 0.21664241 0.27602008
ingresar 0.17887104 0.27586627 0.52428156 -0.039393574 -0.1160924 -0.25845098 0.12293695 0.16117178 0.26160994 0.73575217 0.13475418 0.5217483 0.24324661 -0.7286101 -0.37572402 0.3207144 0.0131476205 -0.095206335 -0.104559526 -0.3464644 0.08602095 0.39142734 -0.23357883 -0.2592808 0.37741905 -0.24400254 -0.33082524 0.037914414 0.2197039 0.30377594
cambiar 0.1638205 0.280857 0.54982203 -0.06573355 -0.11198943 -0.264536 0.12263143 0.13776436 0.24838182 0.7460913 0.13411117 0.5044832 0.21424824 -0.7265026 -0.36702046 0.29894733 0.012546202 -0.0840937 -0.09964528 -0.3635695 0.08906298 0.4082757 -0.2329204 -0.26343286 0.40606156 -0.22467154 -0.3443098 0.020599801 0.24418373 0.29327923
preguntas 0.16719773 0.24900883 0.49173182 -0.06773629 -0.100429006 -0.24449804 0.11819072 0.15341221 0.2205922 0.6994867 0.12241108 0.47736555 0.20251279 -0.67254746 -0.33987528 0.29312292 0.00478958 -0.067765154 -0.06786993 -0.33470163 0.08167828 0.3711837 -0.21572252 -0.24452259 0.3780478 -0.22098759 -0.31296006 0.033224806 0.21397085 0.28056377
numeros 0.17630148 0.30672696 0.55824757 -0.05273745 -0.13666032 -0.27204713 0.11521631 0.15744741 0.25349772 0.7820352 0.14898388 0.53898335 0.22216278 -0.7638393 -0.38792673 0.3352018 0.0056319493 -0.08070836 -0.10687275 -0.36092395 0.10750765 0.42376256 -0.26782158 -0.27764076 0.40610448 -0.23551463 -0.33592612 0.014257379 0.22922145 0.29979238
antioquia 0.17081898 0.26377964 0.5263774 -0.04219519 -0.13158341 -0.2441592 0.12635848 0.16798861 0.2594315 0.7474899 0.13413483 0.53351724 0.23754807 -0.7207954 -0.39471573 0.30158257 0.013385204 -0.061990652 -0.088763535 -0.3588115 0.09396754 0.40948293 -0.23403488 -0.2661992 0.3928826 -0.22515999 -0.33121485 0.032361127 0.22687458 0.31252837
encuentro 0.17614573 0.2929907 0.5454621 -0.06853294 -0.1244206 -0.2557859 0.112978615 0.17642754 0.26070973 0.7833893 0.12306382 0.53699744 0.22048022 -0.7554639 -0.38648742 0.3263039 0.016793478 -0.09516081 -0.095479906 -0.36517313 0.08086947 0.40407065 -0.23742972 -0.28646857 0.3951498 -0.24430595 -0.33874503 0.027003227 0.2226881 0.31329593
total 0.18629308 0.29082134 0.5351842 -0.067454055 -0.118014686 -0.24727802 0.10384492 0.16121578 0.24784607 0.7405904 0.14904106 0.52855706 0.23195511 -0.7162435 -0.36268678 0.31451565 0.015688125 -0.08822249 -0.08051435 -0.35177615 0.10201993 0.39766675 -0.24619156 -0.2710047 0.39246842 -0.22417219 -0.3297431 0.044987418 0.21891595 0.29369825
pagos 0.17500748 0.28489172 0.5144027 -0.05603082 -0.10784008 -0.23680021 0.10008929 0.14151049 0.2575497 0.73343873 0.14330754 0.4953017 0.2120798 -0.68932045 -0.38743412 0.3104888 0.012594982 -0.075999044 -0.08574252 -0.3498985 0.0983814 0.3734216 -0.22022653 -0.23782615 0.3990465 -0.24744563 -0.32095867 0.013502082 0.23782288 0.2820971
ultima 0.18942651 0.28745916 0.5515091 -0.072956786 -0.124399364 -0.28379607 0.12292246 0.16509572 0.26372203 0.7746804 0.14400874 0.5471968 0.24658234 -0.73678225 -0.39108643 0.31345683 -0.0114249615 -0.06677983 -0.10215561 -0.37104902 0.07723477 0.404721 -0.24685091 -0.27465016 0.3916122 -0.2372574 -0.33080184 0.01578733 0.2298098 0.29325196
transferencia 0.15077576 0.26685685 0.47971308 -0.05511086 -0.1152399 -0.25245127 0.12081243 0.13931006 0.23029076 0.6863398 0.13478018 0.47590914 0.21796069 -0.6785736 -0.356853 0.26816958 -0.0040039876 -0.078175195 -0.09647207 -0.3116167 0.06945861 0.36760557 -0.235862 -0.2543594 0.37117895 -0.22609398 -0.3197057 0.027179923 0.22067931 0.27344555
personas 0.17867054 0.29411244 0.60799414 -0.06626746 -0.14316301 -0.28105974 0.12083917 0.17990911 0.2899175 0.8318583 0.14756241 0.5651204 0.2543026 -0.79482645 -0.40946603 0.32682768 -0.006427368 -0.09949605 -0.10697597 -0.40642434 0.08967072 0.4214883 -0.26833606 -0.27396482 0.44203648 -0.26745698 -0.3546893 0.039323967 0.24579231 0.32892743
agua 0.1693254 0.2652852 0.544448 -0.05173463 -0.11213604 -0.27583468 0.12799948 0.16302177 0.26300666 0.7417558 0.12951955 0.5170127 0.21574351 -0.7192355 -0.39330822 0.30164355 0.0034811462 -0.08021817 -0.091179304 -0.34669307 0.079626404 0.39301333 -0.24191736 -0.25049102 0.37775013 -0.23868243 -0.34600565 0.014865775 0.22097605 0.28213364
precio 0.17299551 0.28634298 0.52305263 -0.05215044 -0.122304484 -0.24911973 0.111472525 0.14314508 0.26917845 0.7355805 0.14344345 0.5246537 0.20875043 -0.70318764 -0.36714584 0.29896986 0.015265704 -0.09261559 -0.07826077 -0.34524488 0.09372126 0.37464118 -0.22660182 -0.2540041 0.38856843 -0.23862256 -0.31749183 0.03362605 0.22887711 0.30501682
termino 0.18127866 0.29457307 0.55100095 -0.044686686 -0.122852966 -0.2703598 0.120970555 0.14185521 0.25150332 0.757735 0.12967221 0.53934604 0.22481704 -0.7187147 -0.3727625 0.3207336 0.0058183335 -0.09042572 -0.10807972 -0.349293 0.1104149 0.3892828 -0.2305343 -0.27702755 0.39643344 -0.25652426 -0.3260312 0.04773182 0.24751042 0.3006719
unico 0.18527369 0.2707005 0.5488102 -0.071647376 -0.121908896 -0.25075302 0.11103261 0.1639703 0.26042497 0.76648486 0.14926203 0.52120155 0.21188769 -0.72741216 -0.39683697 0.31761166 -0.0012871607 -0.07304823 -0.104061015 -0.36258662 0.07790664 0.40524504 -0.23272084 -0.27605549 0.4095798 -0.24257226 -0.32454094 0.034432203 0.24409525 0.29967517
llegarn 0.16945939 0.2789316 0.5189342 -0.049393866 -0.109867014 -0.2460057 0.09565397 0.16011795 0.23739348 0.6921636 0.13262102 0.48790485 0.19784144 -0.6814839 -0.34862235 0.2962095 0.0020416633 -0.05934373 -0.07969519 -0.32839224 0.097335026 0.35882074 -0.22465503 -0.2315755 0.37762395 -0.23519139 -0.30771023 0.021352671 0.19904794 0.27214056
bancaria 0.1881259 0.3185367 0.60124934 -0.05008848 -0.11340829 -0.30015165 0.110111475 0.18647109 0.28334022 0.8003655 0.1440603 0.5839571 0.24161853 -0.7697083 -0.4170368 0.329223 -0.013241027 -0.090199344 -0.089401044 -0.39836183 0.112898715 0.4347869 -0.280769 -0.2724559 0.42490107 -0.2646372 -0.34879485 0.02850653 0.24033572 0.32505018
entra 0.18396872 0.27947637 0.5494754 -0.053394902 -0.105509244 -0.27326232 0.11693909 0.16429378 0.24670503 0.7812332 0.13598026 0.5441234 0.2389079 -0.7345259 -0.3944666 0.3139087 0.0033503189 -0.06930956 -0.095636316 -0.34933317 0.108523905 0.41341934 -0.25071123 -0.26286536 0.40832585 -0.24512522 -0.33909705 0.018638026 0.22838855 0.3113602
ahorro 0.17961922 0.2706334 0.53417474 -0.051189974 -0.13117254 -0.27408165 0.10754722 0.17328489 0.24733606 0.74299383 0.12023526 0.5134758 0.23090842 -0.73003036 -0.4008745 0.31209105 -0.010281528 -0.09477165 -0.07671338 -0.36482927 0.07704111 0.39338064 -0.26143467 -0.27610797 0.41243145 -0.23546542 -0.34281656 0.016233528 0.21568519 0.29416466
programa 0.18914233 0.29965544 0.5424205 -0.04183762 -0.13780838 -0.28081247 0.10241961 0.17662801 0.2594526 0.78435314 0.15313137 0.5525857 0.23402396 -0.752697 -0.40732992 0.3304339 0.0053614476 -0.09210571 -0.11001748 -0.38127562 0.09507581 0.4227703 -0.25231445 -0.26953676 0.41609243 -0.23938455 -0.32837534 0.034076277 0.24526459 0.31062946
llegardo 0.18026192 0.27680376 0.4955012 -0.0461103 -0.1221931 -0.25286478 0.09309615 0.16169678 0.26191872 0.72820556 0.11184596 0.50847954 0.22144927 -0.69415927 -0.35211834 0.30636048 -0.013129798 -0.06664839 -0.08844211 -0.33254418 0.07676728 0.3868601 -0.23859249 -0.2462377 0.38097072 -0.22574277 -0.32254797 0.028833421 0.20739916 0.2844687
comunicar 0.18725003 0.2980272 0.5639207 -0.048812907 -0.11881087 -0.2737024 0.12965491 0.15304741 0.26866987 0.7667557 0.13332714 0.53479433 0.22869992 -0.7352568 -0.4041051 0.3264126 0.0027949184 -0.075686 -0.097079225 -0.37976396 0.106566966 0.42171955 -0.2567851 -0.27455762 0.40820733 -0.2558913 -0.34904292 0.025532704 0.2376818 0.3057387
diario 0.16402218 0.26614285 0.4997272 -0.054940987 -0.1008784 -0.25596496 0.09725992 0.15965201 0.23870647 0.6986867 0.11706579 0.48120704 0.20259492 -0.68628436 -0.37062666 0.2961613 0.0013863258 -0.07511096 -0.077192746 -0.34004405 0.07063101 0.3657648 -0.2360706 -0.25190616 0.37945655 -0.20956838 -0.3100929 0.024036095 0.20565952 0.26912192
proceso 0.18610762 0.2647064 0.5426914 -0.04622521 -0.10986865 -0.2571978 0.10301486 0.14354233 0.27409765 0.74949974 0.1455459 0.5204786 0.22683717 -0.715855 -0.36884764 0.30521077 0.01623292 -0.08092154 -0.078213654 -0.3688037 0.10007152 0.3956147 -0.23333271 -0.26929796 0.40392852 -0.24467766 -0.33859554 0.029984102 0.22726327 0.29786536
diciembre 0.16618313 0.27450496 0.52978534 -0.04131726 -0.12436548 -0.26594687 0.12924063 0.14091435 0.26115242 0.73874974 0.13268068 0.5321647 0.23630878 -0.7104686 -0.3764256 0.30612037 -0.001378535 -0.070066236 -0.08250899 -0.34128624 0.07611079 0.39901295 -0.25446984 -0.2615347 0.40039513 -0.23575751 -0.32993957 0.028153624 0.23513284 0.29338843
enviar 0.17930652 0.28571412 0.5528487 -0.072407186 -0.12650344 -0.26505655 0.107330754 0.17507173 0.27056488 0.7981061 0.15204494 0.54038537 0.2234253 -0.7637375 -0.40521446 0.33283663 0.014925357 -0.08461042 -0.09843158 -0.3687356 0.090808846 0.39748853 -0.26732016 -0.28231978 0.42172715 -0.2647521 -0.3512578 0.021129595 0.23147553 0.32459253
edicion 0.15874273 0.28311062 0.54013276 -0.039464623 -0.10440186 -0.24230991 0.11007974 0.16801818 0.24150988 0.7254308 0.12648447 0.52179587 0.22777247 -0.6992439 -0.36071596 0.30992 0.012725732 -0.08670196 -0.10318727 -0.361433 0.103630364 0.3955935 -0.22895427 -0.24312292 0.37473395 -0.24840651 -0.33195472 0.027705168 0.22094975 0.29900795
preguntica 0.1473539 0.25401828 0.49927637 -0.057934992 -0.099139675 -0.25356883 0.11488096 0.132375 0.24320692 0.69470984 0.121268585 0.4750556 0.2239555 -0.6687787 -0.34987968 0.2704101 -0.0139795635 -0.07618256 -0.06765721 -0.33323392 0.09287591 0.36985943 -0.24055704 -0.24036749 0.3736771 -0.21647723 -0.2966144 0.020698097 0.22135723 0.263968
traje 0.16948232 0.2614476 0.51517254 -0.05852439 -0.11571609 -0.2531317 0.11418178 0.16337375 0.2369002 0.7186212 0.12535009 0.50791013 0.22268245 -0.6909369 -0.380142 0.29226723 -0.007371442 -0.0656275 -0.10303296 -0.36092046 0.08894635 0.3702934 -0.25217065 -0.2717666 0.3965499 -0.2475841 -0.34054875 0.035470866 0.22699313 0.3019005
podia 0.18991272 0.30425003 0.60013354 -0.04903129 -0.14571176 -0.30655056 0.13678572 0.16232236 0.27295363 0.817972 0.13407126 0.5791084 0.26130968 -0.8093343 -0.40984473 0.3562052 -0.0056160497 -0.07983947 -0.110679254 -0.40253156 0.0884854 0.42259607 -0.28077468 -0.28547204 0.4481041 -0.25994438 -0.38684744 0.037572812 0.24236451 0.3454309
necesita 0.18166876 0.26489162 0.49102032 -0.066671826 -0.09831246 -0.25507233 0.103865325 0.15452085 0.25443295 0.6899644 0.13531867 0.47792 0.22330005 -0.6806561 -0.35110646 0.26842782 0.00555472 -0.060087834 -0.08735069 -0.34003493 0.07831566 0.3749954 -0.21393338 -0.23826103 0.35679585 -0.21328367 -0.32543987 0.030311653 0.22127855 0.27461493
agente 0.16434576 0.30020845 0.55989957 -0.05850406 -0.1227184 -0.27777165 0.11303628 0.15331015 0.27862427 0.78334403 0.123205274 0.53624845 0.21864441 -0.7514314 -0.393724 0.31380984 -0.013068979 -0.07019996 -0.085551426 -0.36327758 0.10931046 0.41558477 -0.2463367 -0.25379673 0.4143442 -0.2491249 -0.32908723 0.032929167 0.25113842 0.30200997
hablando 0.18055898 0.29432037 0.5934721 -0.049250346 -0.13762334 -0.2875995 0.11307587 0.15150672 0.27454743 0.8115998 0.14363818 0.54499185 0.2532743 -0.76418364 -0.41869962 0.33194965 0.00053726026 -0.0849201 -0.10360208 -0.39392787 0.09464068 0.41992444 -0.2495096 -0.26535088 0.42122105 -0.2704625 -0.35632294 0.048608392 0.23873489 0.32980853
cobrardo 0.2112443 0.3302561 0.610663 -0.06445202 -0.14247927 -0.2966003 0.14769256 0.18192065 0.29912865 0.86231 0.13677932 0.5917203 0.25587067 -0.80736816 -0.43374556 0.338597 -0.0037380543 -0.099398665 -0.11259 -0.4057015 0.08979547 0.4392203 -0.28900957 -0.2816315 0.45684585 -0.28107932 -0.38498738 0.047416616 0.2583704 0.34906706
sistema 0.1935561 0.3013335 0.6086767 -0.061600808 -0.1463011 -0.2994848 0.13233507 0.1661945 0.2933997 0.811857 0.14913683 0.5623352 0.25714144 -0.77422464 -0.43534228 0.3489073 -0.0006306234 -0.07893982 -0.113651015 -0.37798455 0.11497954 0.4256239 -0.28195646 -0.30190015 0.44346333 -0.25999558 -0.3813501 0.04046469 0.26393247 0.32097554
colocar 0.1831434 0.27027038 0.5530774 -0.050311305 -0.11017044 -0.2740503 0.11179799 0.17348742 0.26030478 0.76149124 0.12529421 0.5272673 0.22350119 -0.71938336 -0.39932662 0.3242656 -0.014036899 -0.079708695 -0.09188385 -0.34806857 0.09767702 0.40530956 -0.25193015 -0.25020584 0.41851932 -0.24267173 -0.32562062 0.046234205 0.2331396 0.32004732
cobrar 0.1776015 0.31310323 0.59021366 -0.059336603 -0.12973854 -0.27913216 0.12093472 0.15029292 0.2628758 0.81855804 0.13735572 0.5518729 0.25414005 -0.7683695 -0.41813242 0.33629686 0.006506743 -0.08580335 -0.091645606 -0.38949865 0.10050175 0.43826944 -0.25489676 -0.29405233 0.4118841 -0.23983267 -0.3663963 0.04452427 0.24569155 0.30754882
facil 0.17748721 0.2795959 0.5729571 -0.048221327 -0.11079076 -0.26160267 0.1271618 0.15604852 0.26313424 0.79731184 0.13354929 0.5475806 0.2481734 -0.75203145 -0.40401757 0.3292165 -0.0049527995 -0.09741617 -0.08453794 -0.35905728 0.103560135 0.42333683 -0.26911673 -0.29065984 0.42205784 -0.26315188 -0.34883797 0.024361482 0.25827354 0.3245018
abrir 0.19532874 0.29184353 0.557541 -0.061122954 -0.110055104 -0.25200978 0.101976596 0.1528217 0.24629422 0.7594777 0.1381398 0.5266527 0.22852564 -0.7269105 -0.39587575 0.3072811 0.0006536776 -0.07921713 -0.09513146 -0.34395108 0.10890109 0.39408207 -0.23825505 -0.275303 0.41039962 -0.24855533 -0.3194975 0.015612685 0.24484232 0.30687496
verificar 0.17021208 0.28565374 0.55110765 -0.06419783 -0.10521227 -0.2767957 0.121224225 0.14617135 0.27759716 0.76300657 0.14293236 0.5287103 0.22448376 -0.75753325 -0.39489636 0.32806498 -0.010098597 -0.08315769 -0.10213659 -0.3783801 0.086476766 0.3941522 -0.2467809 -0.2814871 0.39163607 -0.2524633 -0.32819703 0.046749298 0.23569718 0.30252945
alivio 0.21890469 0.32974738 0.60524625 -0.07812146 -0.14335161 -0.31334677 0.13962747 0.1930837 0.28060338 0.86154896 0.16553435 0.6045704 0.24605885 -0.81650615 -0.42278117 0.3663021 -0.0072396174 -0.09537414 -0.11984273 -0.401531 0.10474915 0.44383758 -0.2803675 -0.30758104 0.45725715 -0.28053686 -0.38234803 0.0362934 0.25373435 0.34288388
control 0.17816253 0.30500612 0.5743183 -0.051242225 -0.12631297 -0.25595334 0.12372412 0.15763928 0.25920644 0.7802067 0.14626049 0.5498608 0.2411727 -0.743843 -0.40844506 0.31959793 -0.011649269 -0.08912339 -0.08771008 -0.37989655 0.082240276 0.40368885 -0.23834059 -0.25723264 0.42130765 -0.232889 -0.3442741 0.019840615 0.23447658 0.29339632
septiembre 0.20185782 0.27866465 0.55693555 -0.06841545 -0.13834979 -0.27396524 0.12957776 0.17687097 0.27913773 0.7872751 0.14894341 0.55120015 0.24405687 -0.7594956 -0.40572748 0.31666785 -0.0074397805 -0.07966751 -0.08482914 -0.38490364 0.09998733 0.41462666 -0.25275892 -0.26536888 0.42762238 -0.2355883 -0.35294512 0.041602347 0.24772488 0.30824828
hiciera 0.1912349 0.30588767 0.5529179 -0.06856579 -0.13373622 -0.25950095 0.11438878 0.14868867 0.2811249 0.77585363 0.14966057 0.53112596 0.22260131 -0.75647247 -0.38632855 0.32255298 -0.00012804593 -0.09305481 -0.0856355 -0.38735843 0.0921431 0.41479892 -0.2603259 -0.27424255 0.40365744 -0.25499815 -0.34725577 0.015111069 0.23511218 0.31615666
espera 0.19661902 0.3062992 0.552415 -0.06867672 -0.13419466 -0.2728566 0.10650345 0.17765795 0.28553537 0.7943355 0.15231043 0.54020137 0.23687227 -0.7525501 -0.4037542 0.30740243 0.00067379745 -0.07361427 -0.09187969 -0.38717315 0.082651466 0.4150702 -0.255399 -0.28218028 0.42100355 -0.25506774 -0.3382912 0.023618657 0.24077101 0.32246748
consignar 0.16167606 0.23897077 0.46403626 -0.06528813 -0.09895641 -0.22197017 0.11570186 0.1321061 0.23696283 0.6762749 0.11781848 0.47406355 0.19297226 -0.6367051 -0.34165418 0.2886584 -0.015493346 -0.06951101 -0.09053877 -0.30091977 0.0937314 0.34643844 -0.22283888 -0.21818575 0.35809797 -0.21528804 -0.30558592 0.023746958 0.19107106 0.25208324
barranquilla 0.17765287 0.2568972 0.50879353 -0.051998787 -0.10937026 -0.26357162 0.09726243 0.13631952 0.2570266 0.7043264 0.11239316 0.5046597 0.2024181 -0.69660723 -0.35413313 0.29101956 -0.004188005 -0.07898183 -0.10179429 -0.32799622 0.084018745 0.38249323 -0.23985653 -0.23986547 0.37587538 -0.22166443 -0.32399848 0.027900023 0.21363382 0.27849272
horas 0.19277039 0.29639637 0.54827374 -0.04777043 -0.10879017 -0.2563566 0.12610686 0.15782987 0.27364075 0.7521054 0.14032324 0.51675725 0.22021486 -0.7441894 -0.36958516 0.30720773 -0.013181166 -0.094607174 -0.09111288 -0.359309 0.099081695 0.3953808 -0.26031077 -0.2659399 0.3873582 -0.2286739 -0.34737226 0.018333482 0.2411007 0.31341684
calificacion 0.18647528 0.33742726 0.6552987 -0.0718545 -0.13544054 -0.32946238 0.1314594 0.1970429 0.2814382 0.8641347 0.14129946 0.6203697 0.24432737 -0.8843903 -0.4310633 0.37175858 0.025323456 -0.09848911 -0.08999853 -0.39349028 0.07743622 0.49576497 -0.31377637 -0.31755373 0.4660449 -0.287803 -0.40327486 0.027292905 0.25177884 0.32959595
intencion 0.14841382 0.21164784 0.44226718 -0.043212615 -0.084507175 -0.21012764 0.106145084 0.13645521 0.21730925 0.6120966 0.11130136 0.43198195 0.17885825 -0.55724055 -0.30817807 0.22952417 0.0032009939 -0.049406774 -0.08038483 -0.29363465 0.06950699 0.2998753 -0.19579533 -0.19884178 0.30342847 -0.2064512 -0.26726246 0.007631111 0.17331344 0.23336153
hogar 0.14920035 0.24290554 0.49082845 -0.065233484 -0.115436494 -0.2519506 0.0978817 0.13884524 0.2368553 0.70359176 0.11973972 0.4886306 0.19815849 -0.65581506 -0.35388458 0.26723692 -0.016210703 -0.08785779 -0.08236326 -0.31065017 0.08424856 0.37378743 -0.23951496 -0.2337289 0.36904472 -0.2192492 -0.29338545 0.033209205 0.2074698 0.27981645
quede 0.1796326 0.28924906 0.53871864 -0.06695799 -0.1201552 -0.27538002 0.10937236 0.15675937 0.26450616 0.727121 0.14796498 0.52321315 0.22080824 -0.71839964 -0.38085318 0.3018257 -0.0077680605 -0.08670209 -0.10054689 -0.35859257 0.09367337 0.38609618 -0.23717265 -0.25687614 0.39550668 -0.22886574 -0.32725373 0.024830136 0.235878 0.30203515
llamars 0.16790934 0.26351833 0.49664292 -0.04876067 -0.10656 -0.2506128 0.12397258 0.15283424 0.24875271 0.6922713 0.1300505 0.493137 0.21607618 -0.66987365 -0.34669194 0.29239148 0.016622894 -0.08461027 -0.06941392 -0.33246437 0.09165816 0.35510322 -0.23850428 -0.24961239 0.38538113 -0.21327525 -0.2984747 0.028124198 0.22397469 0.29054558
manejo 0.18215655 0.25902155 0.5181383 -0.04674414 -0.09986297 -0.2410199 0.10550898 0.13433643 0.24925318 0.6978253 0.12048881 0.49132288 0.22642583 -0.6726859 -0.3736106 0.283338 -0.016999183 -0.07619151 -0.08978196 -0.35390446 0.071921736 0.37068215 -0.22404866 -0.26402098 0.36382642 -0.22435153 -0.31004694 0.020048436 0.23063384 0.296833
entidad 0.19386148 0.31192717 0.5850563 -0.07079636 -0.11021274 -0.26939085 0.12906443 0.17324951 0.2847843 0.8061831 0.15273468 0.5551006 0.22732209 -0.7804608 -0.40566465 0.33515343 0.014532828 -0.075827114 -0.097838715 -0.38327968 0.112045415 0.41904238 -0.24601749 -0.29228222 0.43655926 -0.24386734 -0.36857218 0.042118542 0.24004267 0.32533023
normal 0.18927056 0.27477777 0.55551535 -0.05899404 -0.10453062 -0.25840887 0.10030026 0.15054676 0.24745315 0.7687345 0.14398552 0.53064466 0.23848778 -0.73259187 -0.37642142 0.30421093 -0.014910255 -0.07074265 -0.09655681 -0.35072473 0.0781479 0.38866228 -0.24569568 -0.26507828 0.392238 -0.2513091 -0.32544932 0.035911612 0.23159698 0.29092276
salir 0.17758635 0.26398137 0.50824034 -0.05953172 -0.12416597 -0.2518473 0.103570975 0.15723602 0.25286052 0.7167141 0.14074926 0.49700856 0.23068847 -0.6989087 -0.36599725 0.28636295 0.015869329 -0.068398066 -0.09060989 -0.33576778 0.07772345 0.36269066 -0.2340744 -0.2658153 0.38568383 -0.23619543 -0.31232977 0.027163355 0.20965724 0.30263653
proyecto 0.15408644 0.2596072 0.5093642 -0.036384687 -0.0973932 -0.25543454 0.112513535 0.1489568 0.25918075 0.6946826 0.1353556 0.5028116 0.22286579 -0.6876557 -0.3683767 0.289281 0.006600881 -0.072712116 -0.09669287 -0.3434977 0.097169325 0.37308845 -0.24613188 -0.2435949 0.38361025 -0.22222643 -0.29729503 0.016447352 0.20980905 0.28821692
inconveniente 0.17323098 0.24364915 0.4869925 -0.045126706 -0.11627223 -0.23466466 0.09568871 0.1472226 0.23559998 0.6699807 0.115202785 0.48128554 0.21430483 -0.65014136 -0.3344524 0.28184953 -0.009324848 -0.07436625 -0.081785835 -0.33683506 0.09242288 0.3747571 -0.22062443 -0.22071059 0.36190793 -0.21219341 -0.29053128 0.025220564 0.22272277 0.28854033
especial 0.17734334 0.28236616 0.5479625 -0.0402237 -0.11112945 -0.25112572 0.12543902 0.14048399 0.25472772 0.74897474 0.12805007 0.5099805 0.2247516 -0.71192956 -0.38226733 0.3019404 -0.016011324 -0.0819711 -0.10260782 -0.36679918 0.08800792 0.3903963 -0.25405118 -0.2555616 0.38100627 -0.235682 -0.3258832 0.03422232 0.23288172 0.2989444
perfil 0.17097248 0.28150135 0.54913795 -0.058770455 -0.12033664 -0.2749571 0.121575795 0.15087841 0.2567648 0.7708549 0.13896076 0.54280305 0.2354625 -0.73707896 -0.3994303 0.32545286 -0.0066031665 -0.069603704 -0.09372009 -0.37023646 0.080642276 0.39901048 -0.23488398 -0.2607011 0.38805553 -0.23931779 -0.31930238 0.026861284 0.228906 0.31750283
poquito 0.15309533 0.27805275 0.5123131 -0.045328744 -0.09727393 -0.24014676 0.11252054 0.14193913 0.22930542 0.72091156 0.12854308 0.49925682 0.22145447 -0.7004572 -0.363729 0.29635802 -0.0057802824 -0.0874797 -0.083578646 -0.33482978 0.09576628 0.39372396 -0.2226367 -0.23827125 0.38835946 -0.22544305 -0.3161447 0.0456379 0.22211367 0.29991582
totalidad 0.16633338 0.27590045 0.5631547 -0.0753464 -0.12857932 -0.26238438 0.11622415 0.17306557 0.24989061 0.7731512 0.13230924 0.5418158 0.2159738 -0.74242437 -0.37775773 0.29869193 -0.0013063377 -0.07700341 -0.10341629 -0.3565062 0.10041724 0.4127805 -0.23872909 -0.26702526 0.40784764 -0.22112213 -0.3458178 0.021692233 0.2301904 0.29515913
solicitud 0.16301195 0.28121105 0.5337659 -0.056421205 -0.11384854 -0.25053766 0.104762115 0.14259537 0.23377767 0.73471504 0.13780856 0.5022618 0.22313417 -0.6986008 -0.35598907 0.31118646 0.010126588 -0.06140817 -0.096566185 -0.34663782 0.07219247 0.38121897 -0.2370802 -0.23828675 0.3689639 -0.24159856 -0.32483423 0.017060973 0.22482347 0.2952979
perdero 0.14216532 0.24371396 0.44023854 -0.05539723 -0.09420591 -0.2262146 0.106987186 0.12637092 0.21782453 0.6134939 0.12101996 0.44358537 0.18993618 -0.6179137 -0.33549726 0.24449281 0.010378066 -0.0642497 -0.083712175 -0.30651796 0.07152797 0.315992 -0.20616403 -0.22095247 0.31593192 -0.21204764 -0.2811827 0.03740027 0.20121332 0.2389431
sacar 0.1581995 0.24789508 0.50885576 -0.04992388 -0.10210747 -0.24502763 0.09942248 0.14914042 0.23054801 0.70620304 0.110568956 0.48968238 0.19819069 -0.65578806 -0.3379175 0.29859093 0.01245394 -0.0693085 -0.08561922 -0.34331343 0.085349336 0.37726015 -0.2085175 -0.23125948 0.37891677 -0.22032836 -0.31228638 0.03101487 0.22556174 0.28829023
comunicarme 0.1580847 0.24345556 0.46662673 -0.045978874 -0.11116469 -0.21285114 0.10181179 0.1312661 0.22092447 0.6504456 0.10748931 0.46808246 0.18833698 -0.6344185 -0.33091658 0.26081562 0.0103747 -0.083756566 -0.065069534 -0.32062235 0.066617124 0.35092562 -0.22318819 -0.21130662 0.33832443 -0.21105942 -0.28059143 0.012747874 0.19080967 0.24461232
hijos 0.17752309 0.26892656 0.53199935 -0.049263306 -0.10733972 -0.26493195 0.10186632 0.1641038 0.24963437 0.7740194 0.12063822 0.5217639 0.23393685 -0.71956354 -0.4005289 0.30158645 -0.006125243 -0.07190574 -0.092391044 -0.36330396 0.10779693 0.3897366 -0.23199277 -0.28170845 0.3985303 -0.24959525 -0.34550378 0.044900708 0.21957901 0.29480398
pandemia 0.1987359 0.3022993 0.6076841 -0.070038155 -0.114003025 -0.30123362 0.12839343 0.17301327 0.28850672 0.84228176 0.13541152 0.58294123 0.23869523 -0.7993609 -0.41111046 0.3333091 -0.0076269335 -0.08181261 -0.097006105 -0.39313844 0.103362344 0.42741516 -0.25821736 -0.2831713 0.43452403 -0.25134748 -0.36069602 0.04642165 0.2664152 0.33777973
volver 0.1975043 0.29543602 0.56225616 -0.07523352 -0.11178544 -0.26689246 0.10589058 0.17407043 0.27197006 0.7850052 0.14306737 0.5404357 0.2543949 -0.7451392 -0.41121128 0.31527907 0.016956579 -0.08832431 -0.112444416 -0.37670633 0.11210731 0.41343915 -0.2532719 -0.27315712 0.42841414 -0.25218335 -0.36317286 0.03156778 0.25238255 0.31546825
parar 0.16500933 0.26608247 0.5003244 -0.066571034 -0.12000606 -0.23224403 0.10944676 0.15712032 0.22596544 0.68930984 0.12693258 0.47760448 0.18921591 -0.6557087 -0.3304322 0.26425758 -0.0091347145 -0.062650144 -0.09400342 -0.31941256 0.09706182 0.37037483 -0.22163004 -0.23453112 0.3528934 -0.22736517 -0.2856154 0.04031631 0.20035386 0.270598
confirmar 0.18308716 0.29352778 0.5309929 -0.059251416 -0.12752865 -0.2835849 0.10340328 0.14955565 0.27346823 0.77544427 0.14434452 0.528704 0.21682706 -0.7151577 -0.40156686 0.29531726 -0.0010240385 -0.06327228 -0.09849892 -0.3441695 0.10184536 0.38587707 -0.24694563 -0.26763058 0.38924676 -0.2569355 -0.34160903 0.04272001 0.21866085 0.2972353
raro 0.17685436 0.27172518 0.53281075 -0.0583687 -0.11870303 -0.25079617 0.118391514 0.14347143 0.24126709 0.7529 0.13239324 0.52348363 0.24110544 -0.7132435 -0.38184205 0.31056044 -0.0141252605 -0.06973143 -0.08030198 -0.36162078 0.08999333 0.37726372 -0.22797932 -0.26528326 0.39425102 -0.24160777 -0.31911576 0.020781908 0.2238102 0.28634918
inicio 0.18946432 0.28840688 0.5290488 -0.046154454 -0.12618381 -0.24639897 0.098049246 0.16333765 0.24743721 0.73248935 0.1373646 0.5223871 0.22968519 -0.71705645 -0.38667968 0.30792728 -0.013635701 -0.079279006 -0.09195806 -0.33750817 0.079941414 0.39631128 -0.24610613 -0.24868171 0.39234933 -0.23965327 -0.33331096 0.0392574 0.22425811 0.2838583
llamado 0.1731319 0.2532777 0.46441182 -0.047140874 -0.100633904 -0.24139078 0.08774723 0.1390738 0.22873773 0.65562344 0.12249105 0.4645484 0.20424974 -0.64633954 -0.35145867 0.26714906 -0.0032224283 -0.055893827 -0.06596523 -0.30912063 0.082260475 0.3466715 -0.20485856 -0.225125 0.35215288 -0.19347644 -0.3082268 0.01707394 0.19118778 0.27402553
contrasena 0.13772058 0.22273542 0.45252177 -0.052924912 -0.102379285 -0.22638592 0.086721055 0.12522642 0.21584696 0.6292858 0.11993732 0.44465145 0.18055403 -0.61211926 -0.32692388 0.24639577 0.013350109 -0.08034653 -0.070711076 -0.2932144 0.06508005 0.32182786 -0.20331427 -0.22620292 0.34952596 -0.18730363 -0.2681756 0.02446336 0.18976817 0.24427669
unica 0.14497252 0.25176108 0.4841517 -0.05877009 -0.10684734 -0.24710101 0.095296055 0.1314734 0.24702342 0.67983073 0.1119503 0.48007193 0.20261374 -0.64436597 -0.34880322 0.27255866 0.013283235 -0.07144184 -0.09095748 -0.31629658 0.09473612 0.3691122 -0.22808284 -0.2506199 0.35154128 -0.22326247 -0.2853335 0.024094056 0.19994746 0.26720124
pueda 0.18317558 0.28504178 0.5376425 -0.055565335 -0.11271778 -0.24480721 0.12041297 0.14852089 0.2510339 0.73528755 0.14940394 0.5138061 0.22871101 -0.69710016 -0.3656407 0.29740664 0.0037543727 -0.06563967 -0.096871436 -0.34301254 0.081497945 0.38616198 -0.25748527 -0.24840839 0.4089118 -0.24751 -0.33529213 0.040636934 0.2382009 0.28665304
encuentran 0.17265408 0.25037947 0.5018409 -0.05500473 -0.09700586 -0.25613984 0.09678503 0.14536296 0.22701322 0.68544716 0.12172574 0.48661798 0.19804242 -0.6588372 -0.3348745 0.29326603 -0.00403255 -0.056810413 -0.08190502 -0.30923173 0.08200515 0.353874 -0.20880389 -0.24548957 0.3596115 -0.21922666 -0.29312348 0.03960231 0.21526304 0.25955436
atlantico 0.16763906 0.23571843 0.4701078 -0.039684407 -0.10310684 -0.23560381 0.093395695 0.14019555 0.22386368 0.64098305 0.11022508 0.43118194 0.18466787 -0.6196252 -0.3219591 0.27730253 0.012133709 -0.07902292 -0.08795985 -0.30731335 0.08511948 0.34072563 -0.20775826 -0.22900642 0.32943735 -0.21985626 -0.29172796 0.010991511 0.20517036 0.2677641
consulta 0.14380996 0.25057203 0.46631455 -0.06345074 -0.11428288 -0.24272853 0.109627135 0.12834343 0.21701139 0.6321706 0.102591656 0.43963963 0.19903423 -0.6344999 -0.32430795 0.27939266 -0.0012563373 -0.0529965 -0.07911198 -0.3032131 0.072362 0.3464724 -0.22462744 -0.21788722 0.34846494 -0.19982193 -0.27435425 0.01313482 0.21540794 0.27242878
evitar 0.16460486 0.2674656 0.51906794 -0.058867235 -0.108878784 -0.2537742 0.091902584 0.14024681 0.23046932 0.7233923 0.113455124 0.48220617 0.23351462 -0.6931057 -0.36226505 0.2947609 0.011087115 -0.07958243 -0.09283253 -0.34846812 0.072502114 0.38819388 -0.24138285 -0.26430252 0.39317712 -0.24144222 -0.29982138 0.018178826 0.20562498 0.2911405
mandar 0.1876398 0.2748469 0.5678788 -0.04335673 -0.13256761 -0.27833313 0.12940061 0.17267841 0.27245492 0.7780848 0.13512139 0.5495543 0.23994048 -0.7450854 -0.3863771 0.30768082 -0.006567833 -0.0748376 -0.106011614 -0.3671359 0.08085233 0.41559204 -0.26294112 -0.27780843 0.40437418 -0.24163859 -0.3548545 0.04608683 0.25210828 0.3038622
enviaron 0.18341775 0.2713045 0.53037816 -0.04338643 -0.11322609 -0.26009944 0.10493452 0.16497654 0.23926918 0.7398006 0.121884234 0.4875083 0.22324817 -0.70224786 -0.38595966 0.28445464 -0.015032618 -0.087931 -0.09306207 -0.34995955 0.09414466 0.38465542 -0.22357889 -0.2515718 0.36836618 -0.22209531 -0.32257223 0.043210335 0.22508161 0.3059779
registro 0.17012016 0.2962585 0.57275397 -0.044207375 -0.11824992 -0.2670905 0.11689879 0.15494089 0.28821865 0.7986534 0.13643058 0.53451884 0.24203545 -0.7405793 -0.4021903 0.31959197 -0.012924538 -0.074845955 -0.08152273 -0.36080858 0.08274778 0.423676 -0.2421985 -0.280335 0.4000096 -0.23817304 -0.33591205 0.045724034 0.23087348 0.3324162
pregunte 0.1549375 0.25165537 0.4901516 -0.04085386 -0.09948039 -0.22785087 0.09829983 0.1566967 0.24660657 0.69388145 0.11637563 0.4858131 0.19570495 -0.66970813 -0.36258262 0.28626576 0.0004805582 -0.06818967 -0.071463935 -0.3417955 0.09130306 0.35926923 -0.2105114 -0.2568352 0.38242123 -0.2174954 -0.31547418 0.02050968 0.2270507 0.27398413
peticion 0.17731328 0.28901207 0.5431425 -0.049220603 -0.13315068 -0.2581468 0.13194063 0.17332366 0.27034912 0.7375211 0.14804354 0.5075507 0.21243574 -0.723476 -0.38643613 0.3026708 0.016435154 -0.062658206 -0.08760567 -0.37167642 0.10607737 0.40989923 -0.24538042 -0.27562612 0.3908855 -0.23613359 -0.3212289 0.046774887 0.21937473 0.31144348
actualizar 0.15349494 0.27091625 0.51773953 -0.07095504 -0.11007376 -0.2439087 0.09227169 0.15769003 0.26072437 0.72001445 0.11646391 0.48417315 0.21453695 -0.6851151 -0.3745907 0.2794866 -0.0031552047 -0.08206166 -0.099328674 -0.3265958 0.077934116 0.3811882 -0.23130247 -0.26132905 0.3841925 -0.23951897 -0.3248573 0.039432492 0.2166116 0.2861433
estacion 0.16840371 0.22908148 0.46242252 -0.055227764 -0.09922691 -0.21857671 0.08484878 0.13960327 0.22808841 0.6569943 0.10401876 0.46340635 0.19895636 -0.6395031 -0.3322318 0.28202668 -0.015171564 -0.062620305 -0.080201685 -0.29649177 0.073516235 0.3510102 -0.21133557 -0.24304046 0.3448753 -0.21420188 -0.28468996 0.016258795 0.21474697 0.26867113
cambia 0.15810974 0.27352983 0.5381551 -0.058036566 -0.10358488 -0.25033817 0.102194116 0.16221175 0.2576273 0.72303355 0.12054535 0.5068298 0.2084876 -0.69038624 -0.3663754 0.30273378 0.01532921 -0.07485782 -0.07685509 -0.36224145 0.09719821 0.36961204 -0.22414246 -0.25607988 0.37628374 -0.2210903 -0.33190474 0.01922382 0.2381057 0.27779603
contrato 0.18891478 0.29468375 0.56636095 -0.07676773 -0.13484651 -0.27870163 0.11652421 0.15460554 0.27088606 0.7767129 0.14157437 0.5448002 0.23283276 -0.7585838 -0.39533588 0.32629716 0.008050839 -0.08637326 -0.10904949 -0.3781867 0.1001054 0.42904747 -0.24410945 -0.2775062 0.40981963 -0.23476018 -0.35763776 0.02523483 0.22486892 0.29767573
trata 0.17459725 0.27745575 0.494612 -0.05800683 -0.11965686 -0.25956285 0.11617766 0.13061482 0.23279752 0.7140547 0.116476886 0.4914593 0.2251739 -0.6815408 -0.36787763 0.27641094 -0.0009769329 -0.0820547 -0.09136559 -0.34807765 0.10048286 0.3553916 -0.2337522 -0.23772636 0.36806855 -0.23396038 -0.32965115 0.019372106 0.22951922 0.29116908
propio 0.17519096 0.25255755 0.51236534 -0.06555155 -0.11516915 -0.2623829 0.11932245 0.12956573 0.23847437 0.69511527 0.11705791 0.493163 0.20530544 -0.67709136 -0.36155722 0.27777293 -0.009071463 -0.059918687 -0.099816225 -0.3436807 0.09367137 0.3615877 -0.23875792 -0.23351556 0.38277435 -0.24000424 -0.32567748 0.024135573 0.22970773 0.27824447
debil 0.19512938 0.26911473 0.5484893 -0.0733889 -0.12850504 -0.27456614 0.12415052 0.14817736 0.27439228 0.7506275 0.1338515 0.51748514 0.23239571 -0.7502916 -0.3865371 0.3098164 -0.00863361 -0.08306531 -0.09183504 -0.34578097 0.10626285 0.40121794 -0.24869254 -0.28344786 0.39273983 -0.24694918 -0.3507189 0.039153155 0.23715532 0.3010985
acercarme 0.19164631 0.2836221 0.5530478 -0.047619775 -0.14058071 -0.26222947 0.10807266 0.16212907 0.25406918 0.7944181 0.15722409 0.5391414 0.25153983 -0.74003947 -0.41006228 0.32463244 0.015144042 -0.08434708 -0.087250136 -0.37802505 0.08801608 0.4124115 -0.26707 -0.26220548 0.42091513 -0.2588049 -0.34757346 0.04754326 0.24774961 0.31035823
humo 0.17787157 0.25042892 0.49617255 -0.03660454 -0.10434932 -0.2570949 0.11708861 0.15153342 0.25180605 0.71031404 0.12171524 0.4818346 0.19855164 -0.6770119 -0.36755413 0.28936768 -0.0050924383 -0.06797453 -0.10267669 -0.3438819 0.087774 0.3851832 -0.22985815 -0.25778717 0.38765505 -0.21098079 -0.30285612 0.034253426 0.23230673 0.26930544
supuestamente 0.17729837 0.30796072 0.582688 -0.046278987 -0.13898958 -0.26344466 0.13768694 0.17015444 0.2729756 0.81502384 0.14649902 0.56486446 0.2535872 -0.76968676 -0.3954029 0.32782957 0.009103459 -0.0917178 -0.09812601 -0.39758992 0.09689764 0.4289904 -0.27210253 -0.29601312 0.42284414 -0.24988338 -0.33820552 0.0354775 0.25130194 0.32614943
esperando 0.18635578 0.2681515 0.5404174 -0.05577744 -0.10732537 -0.24615438 0.11281225 0.15857325 0.2700471 0.75854695 0.14192277 0.51130307 0.21640886 -0.7176748 -0.3703469 0.29232028 0.017558051 -0.092777885 -0.07925146 -0.36382437 0.091496944 0.38282362 -0.23132378 -0.26298982 0.3972268 -0.24942778 -0.3447737 0.040041804 0.24418004 0.30508047
prosperidad 0.17572919 0.2536587 0.52376145 -0.04647722 -0.12284109 -0.2515265 0.11010245 0.16459407 0.24346627 0.6934022 0.12508164 0.50026804 0.21031323 -0.6889931 -0.34580728 0.30556193 0.012495887 -0.06086011 -0.07780289 -0.34327605 0.08687393 0.38250348 -0.22381985 -0.2520334 0.38774607 -0.2337155 -0.29981467 0.011172259 0.22975655 0.2858724
negocio 0.1591057 0.27291957 0.5350701 -0.056573447 -0.122941904 -0.24398908 0.093915634 0.15215392 0.24694252 0.73166394 0.14720316 0.49641487 0.23244372 -0.70052946 -0.3692268 0.29171973 -0.007157477 -0.08300339 -0.08385681 -0.35571542 0.08749217 0.37919933 -0.23522793 -0.24617273 0.39347583 -0.24219678 -0.3090449 0.03185152 0.21403758 0.29543677
audiencia 0.15054093 0.2192019 0.46643502 -0.030432446 -0.09475324 -0.21267997 0.1074127 0.11807756 0.22195256 0.6279297 0.10407498 0.43619764 0.19242188 -0.6117875 -0.31177312 0.25897324 -0.007760462 -0.06582874 -0.06870268 -0.28491688 0.07225668 0.3208528 -0.19564532 -0.22925803 0.3383535 -0.19637977 -0.28243953 0.01198588 0.20612821 0.26257437
error 0.1807004 0.27335382 0.5453748 -0.06354445 -0.115277655 -0.26287326 0.11507964 0.14339642 0.253308 0.7680242 0.12989923 0.54849774 0.25111517 -0.75875425 -0.39109933 0.3317594 -0.0040149037 -0.073427714 -0.08897721 -0.35362664 0.10635087 0.41426736 -0.25569785 -0.27508926 0.41224462 -0.24535497 -0.32973185 0.04277499 0.23582506 0.3065129
estudio 0.17281708 0.2855156 0.5628064 -0.046264846 -0.1277381 -0.28626764 0.117943145 0.16833006 0.27177823 0.7852799 0.13857561 0.5527946 0.22456448 -0.7597891 -0.4107431 0.3347737 0.014997786 -0.095871165 -0.09425553 -0.38662124 0.11147244 0.42069745 -0.24013257 -0.2620563 0.4027465 -0.24701221 -0.3499452 0.027997714 0.23224281 0.3191095
llamara 0.15171953 0.24340472 0.5082772 -0.06449666 -0.11494356 -0.25418445 0.10298999 0.16053016 0.23721196 0.7047829 0.118060865 0.4842279 0.19444469 -0.6558418 -0.36449006 0.29550722 0.015912423 -0.06979803 -0.096583776 -0.31263545 0.09759757 0.35980135 -0.21508622 -0.22494216 0.38121578 -0.21546671 -0.29972088 0.026666058 0.22241765 0.27370262
virtual 0.18961631 0.3075503 0.5797133 -0.058500744 -0.13506117 -0.29931372 0.12964125 0.164753 0.277258 0.8294366 0.1609466 0.56446487 0.25629616 -0.77890533 -0.40615708 0.3248826 -0.007298247 -0.07241629 -0.092685536 -0.38302052 0.107408114 0.43817085 -0.25941244 -0.2914838 0.44076777 -0.27256188 -0.366453 0.03059034 0.24750677 0.33774823
salida 0.14461565 0.23640054 0.43258402 -0.04298049 -0.1033603 -0.20985566 0.080208346 0.14127377 0.20710811 0.6180298 0.09772587 0.4224521 0.18163861 -0.60136336 -0.31600195 0.2386152 0.008375066 -0.05648081 -0.062230267 -0.28421143 0.0853591 0.30758354 -0.19826959 -0.2262144 0.3243045 -0.17944123 -0.28160378 0.03008711 0.19642986 0.25940448
muchacho 0.19585453 0.28906375 0.5519699 -0.058353417 -0.10992517 -0.25249127 0.10598548 0.1729952 0.27214783 0.7409253 0.13485351 0.51663613 0.22348978 -0.7388869 -0.38768554 0.294212 -0.0010355006 -0.075798474 -0.10649384 -0.36258683 0.10116233 0.4096898 -0.24285305 -0.26180595 0.41188428 -0.24328467 -0.33138654 0.02872506 0.23438157 0.31209102
social 0.17683236 0.27866295 0.5293849 -0.061015427 -0.11987433 -0.265603 0.097213306 0.15531927 0.23278807 0.7024472 0.14149323 0.49147087 0.22572514 -0.6782023 -0.37929845 0.2849346 -0.010271736 -0.06505467 -0.09960177 -0.3536866 0.10326957 0.38373935 -0.24703987 -0.24191745 0.38802457 -0.24068809 -0.33303344 0.018672664 0.22299847 0.28563187
intel 0.17922589 0.26907492 0.5049302 -0.05416542 -0.10120193 -0.25575668 0.11329709 0.13503152 0.25841856 0.7041041 0.1360143 0.510332 0.21179627 -0.6929856 -0.35657516 0.300798 -0.014854539 -0.08170917 -0.07568981 -0.34094602 0.072828695 0.39082068 -0.2323766 -0.24177769 0.38559008 -0.21331125 -0.3239171 0.040494174 0.20418042 0.2706781
volvi 0.17515138 0.30509937 0.5635385 -0.047324236 -0.119605534 -0.27847937 0.10991776 0.15229824 0.2802239 0.79803103 0.12569004 0.57092935 0.24219793 -0.74695885 -0.39233842 0.3383823 0.0036525072 -0.06993067 -0.09564696 -0.39321363 0.09665566 0.41366675 -0.27483958 -0.28526837 0.42575395 -0.23605342 -0.35302392 0.03137677 0.2489273 0.32758278
tarjetas 0.16093151 0.25989377 0.5230098 -0.046403605 -0.09700631 -0.24325733 0.112050205 0.14105906 0.22819267 0.71629083 0.123039484 0.50198543 0.21813463 -0.6619371 -0.34982035 0.29201505 -0.009724542 -0.063490056 -0.08274428 -0.32644027 0.08583978 0.38447997 -0.22830138 -0.23438767 0.35884005 -0.23012456 -0.32613197 0.043588776 0.20218648 0.26746735
notas 0.13759522 0.23418893 0.4472856 -0.032499943 -0.095538795 -0.21985638 0.08945909 0.11490231 0.22644888 0.6150812 0.12763593 0.4304072 0.19165552 -0.6112943 -0.3155916 0.24784708 0.00030880116 -0.06077887 -0.0752082 -0.31045485 0.08340279 0.31560138 -0.21747859 -0.20672852 0.3162945 -0.21044789 -0.28115657 0.03342241 0.19300859 0.25287074
olvido 0.16894932 0.28394657 0.5412943 -0.060332622 -0.111406125 -0.25370285 0.121795215 0.14894834 0.25041634 0.742572 0.13956888 0.49534404 0.23481059 -0.7134457 -0.38216504 0.31258222 -0.001340244 -0.07131825 -0.07192547 -0.33372703 0.08105014 0.3772884 -0.22567111 -0.26996195 0.38076666 -0.22648147 -0.33143365 0.03351645 0.23155184 0.28585684
encuentra 0.15865506 0.2533922 0.49719277 -0.06060803 -0.11359538 -0.2387305 0.10181323 0.14176814 0.22938782 0.6856954 0.12099992 0.50340265 0.21591145 -0.67936087 -0.3443148 0.27398676 0.0018214055 -0.08400053 -0.069857225 -0.31681365 0.083431125 0.385923 -0.23123533 -0.2547657 0.36093742 -0.21137704 -0.3261291 0.010939588 0.19683492 0.27326784
mensual 0.19397415 0.31182724 0.60686475 -0.074207336 -0.11248621 -0.2944076 0.12919831 0.16655046 0.29222918 0.8133874 0.1578604 0.57160527 0.25578687 -0.7903955 -0.41573644 0.33376446 -0.00227304 -0.076760426 -0.110837 -0.39986855 0.11855958 0.4394931 -0.24789526 -0.2851258 0.41681454 -0.25325963 -0.37021115 0.044183593 0.23756881 0.32243654
inicial 0.16116929 0.2806902 0.54046315 -0.04393541 -0.11390499 -0.2720477 0.10014182 0.14936659 0.2523287 0.7477102 0.13648547 0.52351224 0.21364251 -0.7068688 -0.37084892 0.2980734 0.00036599787 -0.067701995 -0.09055702 -0.36286095 0.09124306 0.40630707 -0.25393572 -0.25279695 0.40344438 -0.23627079 -0.3347481 0.030134689 0.23080857 0.28883055
confirmacion 0.16882457 0.28446713 0.53039825 -0.051587027 -0.101872794 -0.26358834 0.11854679 0.15411037 0.24861978 0.7340629 0.12963012 0.49617323 0.21937591 -0.69566756 -0.3559946 0.30044764 0.012285588 -0.0681933 -0.0727249 -0.3523374 0.08282724 0.3715477 -0.25001714 -0.25009322 0.38455245 -0.24523918 -0.32406726 0.039110854 0.23521852 0.30496716
quedaron 0.15929742 0.24519809 0.46302623 -0.03392809 -0.10474935 -0.22432743 0.0925992 0.12366467 0.22675154 0.6393752 0.12193751 0.45089582 0.18508312 -0.623804 -0.32139382 0.2626835 -0.014727163 -0.061116725 -0.07031619 -0.31489578 0.08830868 0.35331425 -0.20846693 -0.2302785 0.33065522 -0.21732831 -0.26899493 0.037349537 0.20609327 0.264206
debito 0.18370439 0.26577947 0.5231808 -0.07005116 -0.12790076 -0.24183151 0.1117195 0.14387317 0.23242414 0.7261215 0.12916996 0.49237034 0.2196538 -0.6793334 -0.36978468 0.2998752 0.005672584 -0.0726076 -0.088660344 -0.3372018 0.07307248 0.39083233 -0.24168961 -0.25398552 0.36670583 -0.2381419 -0.32522866 0.02906751 0.23558043 0.30616748
club 0.17539214 0.26365948 0.5020553 -0.053079348 -0.11337557 -0.24834155 0.08832696 0.13661918 0.22897871 0.69077486 0.13957675 0.4809254 0.2045877 -0.6762915 -0.33958584 0.28118354 0.01121025 -0.06958692 -0.069195434 -0.32465434 0.07400156 0.370218 -0.23496388 -0.22561346 0.35264754 -0.23014882 -0.2947166 0.044049174 0.19989216 0.27601337
inter 0.1306319 0.2359211 0.43457654 -0.047311127 -0.10611039 -0.21346244 0.09539622 0.1142549 0.19855964 0.5947849 0.11197099 0.42473426 0.18353643 -0.5801143 -0.3022846 0.25829273 -0.0153073985 -0.07432593 -0.07408668 -0.28362283 0.07459362 0.312456 -0.208651 -0.2190804 0.3162994 -0.20142405 -0.26295012 0.023558926 0.19742388 0.24745682
reporte 0.18709236 0.31484157 0.5966833 -0.07124427 -0.111194015 -0.29164654 0.13288283 0.1797544 0.2596145 0.80893016 0.13794623 0.550243 0.23507605 -0.79286796 -0.41537103 0.33313295 -0.010507849 -0.09182837 -0.09734993 -0.37202454 0.08940309 0.41373634 -0.25767216 -0.30086556 0.40909812 -0.25540736 -0.34847647 0.022100765 0.23183134 0.33574757
contesta 0.17190996 0.2590649 0.47253755 -0.059599567 -0.11785037 -0.2227618 0.10735643 0.15669854 0.22738424 0.6804761 0.10501804 0.47394377 0.20412837 -0.6508939 -0.3308179 0.2770025 -0.012437099 -0.06275641 -0.074956656 -0.3308695 0.079801925 0.34821156 -0.22515056 -0.23808274 0.34968376 -0.2269605 -0.28887293 0.03836728 0.2064429 0.27890378
expedicion 0.18727978 0.2828892 0.54803556 -0.04824848 -0.10289982 -0.27815473 0.11987654 0.16206124 0.2505866 0.77236366 0.12498927 0.5163692 0.21992004 -0.73675656 -0.39369282 0.3163308 0.0031355005 -0.06375728 -0.0854853 -0.34612152 0.11050893 0.41496384 -0.25105366 -0.27119625 0.4118807 -0.24203613 -0.34519562 0.03302083 0.23788595 0.3082656
telefonico 0.14167696 0.2085228 0.4295508 -0.042963125 -0.09621204 -0.20590362 0.08912621 0.11171245 0.21479557 0.6121799 0.10457922 0.42277762 0.1901763 -0.5830072 -0.3040856 0.25620466 -0.014553021 -0.049547326 -0.070430964 -0.268884 0.0692523 0.3118093 -0.20564167 -0.19654708 0.33042106 -0.1912977 -0.25994006 0.039251715 0.1932315 0.25066715
movimiento 0.17908372 0.3056789 0.58505964 -0.05094252 -0.120894045 -0.28655228 0.119530685 0.15687452 0.28783455 0.79541326 0.15026867 0.553928 0.24267094 -0.741104 -0.4002412 0.31490466 -0.017124278 -0.09015257 -0.09039808 -0.3708887 0.10895531 0.4055917 -0.2447071 -0.26029024 0.40190718 -0.23775412 -0.36418352 0.026668783 0.24579886 0.329344
bancami 0.1759252 0.27061644 0.511479 -0.049863674 -0.12640022 -0.22961189 0.10099033 0.15500808 0.23035762 0.7010595 0.12839563 0.48522308 0.21504706 -0.67149526 -0.35018232 0.27488253 -0.00859646 -0.07760859 -0.080662906 -0.32082388 0.07362234 0.3744029 -0.2408757 -0.25938022 0.37916684 -0.21035217 -0.32372504 0.015469815 0.21981746 0.268766
cancelar 0.1665541 0.23785591 0.47807163 -0.055747572 -0.11373705 -0.22757636 0.120413646 0.13084044 0.23071757 0.6875861 0.119915985 0.48714417 0.21363999 -0.662134 -0.3653457 0.27064615 -0.005841977 -0.05880789 -0.09364126 -0.32143322 0.079517104 0.344322 -0.22666709 -0.2384433 0.34627023 -0.20580626 -0.31955227 0.028706707 0.2145944 0.2574981
especie 0.15222165 0.24403678 0.46633533 -0.042681243 -0.109838724 -0.2194068 0.11280874 0.12856981 0.21528535 0.6837711 0.110415384 0.47615105 0.20811878 -0.6334533 -0.332916 0.2589128 -0.010268254 -0.06061446 -0.07734755 -0.32646838 0.075169176 0.34216872 -0.20158201 -0.22787443 0.35051632 -0.22229236 -0.2979763 0.029581811 0.20330441 0.28220603
formacion 0.14178956 0.23608974 0.468268 -0.055538032 -0.103994265 -0.23454405 0.0889686 0.12764238 0.21774876 0.6362421 0.11608724 0.4388364 0.19630128 -0.6168952 -0.336846 0.25822875 -0.01622141 -0.08158296 -0.066244304 -0.30957106 0.08227939 0.32661873 -0.21677944 -0.23569968 0.32580736 -0.2060113 -0.27972165 0.014329205 0.20592414 0.2583545
partes 0.1442577 0.26264656 0.46771738 -0.05229908 -0.102470994 -0.24158832 0.09486104 0.15369995 0.23729952 0.652656 0.12783515 0.4778284 0.21526726 -0.624733 -0.34823957 0.2853714 0.0015313767 -0.079459295 -0.07981654 -0.30329016 0.079977944 0.34822732 -0.20872724 -0.22350228 0.35554126 -0.21831404 -0.30013457 0.024856567 0.2070574 0.27364638
compra 0.19632083 0.29279053 0.5606884 -0.064336784 -0.10866971 -0.25004497 0.101487376 0.17320095 0.26414794 0.756751 0.15389103 0.53652644 0.23613247 -0.7236365 -0.3838435 0.30652076 0.0054245573 -0.06728663 -0.10929124 -0.36120477 0.09646796 0.40812844 -0.24070913 -0.2608674 0.39945525 -0.22999726 -0.3440807 0.026989078 0.23969656 0.30509758
cobra 0.19989511 0.29965076 0.5579422 -0.058086388 -0.111769594 -0.27489617 0.13103463 0.16140753 0.261044 0.8017322 0.15275183 0.5456353 0.25295842 -0.7391325 -0.40136626 0.32915726 -0.0034653393 -0.085304625 -0.109601445 -0.38354766 0.10062751 0.4140313 -0.23996691 -0.29019278 0.4048534 -0.25631157 -0.35976553 0.0458056 0.25280604 0.30576605
pedir 0.16917081 0.2561324 0.49257827 -0.04317515 -0.110325 -0.25052184 0.11370566 0.13145384 0.2513464 0.69950247 0.11749006 0.47905722 0.20577998 -0.6642857 -0.34223858 0.28992745 0.015178703 -0.059672285 -0.096825905 -0.34074563 0.095332116 0.36683455 -0.2362253 -0.23329352 0.3721508 -0.21511935 -0.32051492 0.025464129 0.19692835 0.27178752
cantidad 0.14885518 0.25820923 0.49805358 -0.06752776 -0.0974748 -0.23753947 0.09387073 0.12860437 0.22513612 0.6778638 0.12479562 0.4635626 0.20285006 -0.6614657 -0.35329166 0.27371082 0.014921588 -0.08546826 -0.095758446 -0.32085824 0.09022464 0.3583713 -0.21458001 -0.24696195 0.38133305 -0.22037292 -0.3086841 0.015590454 0.20889354 0.2905488
familiar 0.13612646 0.21667224 0.42637172 -0.047748465 -0.075569645 -0.19837444 0.086721465 0.121440396 0.2072672 0.59364396 0.110086344 0.40694326 0.17093813 -0.56451946 -0.29521814 0.24082725 -0.016389973 -0.060975827 -0.08409249 -0.28255633 0.05464327 0.29776272 -0.20397155 -0.1916008 0.30902573 -0.17056069 -0.26426512 0.022603203 0.19158427 0.22817923
adios 0.16089495 0.23170504 0.48074752 -0.045490056 -0.099248506 -0.24081023 0.11146235 0.12285065 0.2276363 0.6738164 0.12344038 0.46908706 0.19802588 -0.65248394 -0.3388284 0.27606332 -0.0014673808 -0.061576955 -0.069938615 -0.30676597 0.07779027 0.33760574 -0.21122654 -0.24662915 0.35505456 -0.21126877 -0.30456954 0.029701132 0.20037119 0.27447754
vayan 0.18167056 0.27907294 0.5715668 -0.06921449 -0.13751595 -0.27693826 0.11108071 0.16808279 0.28283337 0.8017403 0.14689203 0.54643893 0.2455723 -0.7709628 -0.3993771 0.31285247 -0.009103373 -0.09354513 -0.08492746 -0.3892774 0.110288374 0.4074856 -0.27518618 -0.26888114 0.41184035 -0.24029857 -0.35229778 0.0149448905 0.24675351 0.30025312
totalmente 0.18211105 0.30055 0.5661818 -0.06419998 -0.112385385 -0.25535288 0.12724032 0.15921302 0.28051978 0.77455664 0.14811309 0.54836786 0.22250262 -0.7625895 -0.4107573 0.3046314 -0.0019820677 -0.07523486 -0.10515963 -0.3523258 0.078985244 0.41098282 -0.26627988 -0.27469292 0.42514554 -0.26328558 -0.33244434 0.020654846 0.23008148 0.31091726
departamento 0.16469106 0.25438464 0.49471048 -0.052058402 -0.11829155 -0.23941039 0.09447429 0.1398412 0.24795225 0.67021596 0.13238308 0.47871926 0.21534315 -0.6562859 -0.35475466 0.27315375 -0.013491656 -0.08033553 -0.07909652 -0.31437993 0.07075438 0.35373795 -0.2305604 -0.23356707 0.36020288 -0.21068768 -0.30618998 0.018721666 0.2166166 0.27935374
entrega 0.172656 0.2542855 0.4933497 -0.04299983 -0.11627955 -0.25346595 0.10482252 0.14709829 0.22316036 0.6751975 0.13616861 0.47403863 0.19176643 -0.6558124 -0.3586668 0.26999798 0.016335117 -0.06376992 -0.07795458 -0.31266287 0.09025068 0.359376 -0.22656535 -0.2249905 0.367859 -0.2146579 -0.31233484 0.037884213 0.20860802 0.27851084
ganar 0.16744283 0.2979403 0.54805684 -0.05344848 -0.12912256 -0.25632966 0.12573767 0.15721388 0.2657134 0.7502876 0.119443595 0.54231906 0.24418548 -0.7140714 -0.39294216 0.30461502 0.005692907 -0.08710815 -0.08939091 -0.35901573 0.09047672 0.4037527 -0.25126982 -0.2569393 0.3952907 -0.2421235 -0.33074394 0.020669956 0.24653316 0.30412996
certificado 0.18616983 0.29256126 0.595233 -0.07221763 -0.1121798 -0.29005027 0.12256056 0.17463405 0.29807776 0.8182098 0.15693273 0.5623235 0.26115975 -0.77830905 -0.39951178 0.32376054 0.015633227 -0.09107222 -0.105358146 -0.4008386 0.11730486 0.4199267 -0.2614925 -0.27961776 0.42139676 -0.25273535 -0.37276527 0.030361263 0.24498826 0.32317334
funcion 0.19581155 0.30407777 0.566481 -0.059775166 -0.106216736 -0.27308962 0.11033526 0.14778377 0.2535547 0.79497516 0.1439887 0.5341783 0.24660112 -0.75620663 -0.38689798 0.3315258 -0.011415637 -0.07306178 -0.079472065 -0.36778814 0.100640014 0.4132888 -0.25802627 -0.2603318 0.41286385 -0.26122713 -0.36271927 0.020680493 0.23865943 0.32828265
aparecio 0.17638667 0.29247716 0.55313176 -0.05493487 -0.11254769 -0.27926546 0.11188769 0.1486485 0.25178117 0.76597035 0.13046695 0.54029745 0.22431774 -0.712678 -0.37792495 0.29926792 -0.011983416 -0.078184955 -0.090587996 -0.37506846 0.07796292 0.38993424 -0.23000962 -0.28250927 0.41511282 -0.23996308 -0.33125287 0.030514754 0.24332494 0.30143833
colaborar 0.16742282 0.2488906 0.5073362 -0.04616242 -0.10689327 -0.2413702 0.091657825 0.14219694 0.24127078 0.69564444 0.113645345 0.4725204 0.22470659 -0.6635273 -0.3542201 0.274235 -0.010725946 -0.06348746 -0.09374603 -0.32214597 0.0716658 0.35485908 -0.21139029 -0.25200838 0.3509737 -0.23199019 -0.3101602 0.01508392 0.20436342 0.27746508
habitacion 0.16533495 0.2704569 0.5245527 -0.056082066 -0.10657264 -0.23807602 0.09238347 0.16024669 0.25175926 0.71512395 0.11765373 0.49094152 0.2179623 -0.68681246 -0.3690419 0.2926756 0.0017262852 -0.059544254 -0.0894377 -0.3306329 0.076633625 0.35919005 -0.217885 -0.26467648 0.37602428 -0.22685836 -0.32192227 0.036180433 0.21249868 0.28261903
minimo 0.17051029 0.2850062 0.51006705 -0.058231086 -0.100083545 -0.23871955 0.10963312 0.15514153 0.24797666 0.7210376 0.11734009 0.51198524 0.2114797 -0.6967626 -0.37775865 0.28789037 -0.015109013 -0.087195106 -0.08108556 -0.33207795 0.09261264 0.3988306 -0.2275446 -0.24479431 0.3893648 -0.23704034 -0.3183948 0.013338318 0.22634211 0.30594927
amiga 0.19169918 0.27817795 0.53706414 -0.050733577 -0.1305754 -0.25088668 0.12661318 0.15092197 0.26048753 0.74205637 0.13569239 0.5247863 0.24045177 -0.72305256 -0.38650715 0.29004937 -0.010786298 -0.07819388 -0.102683984 -0.36384386 0.080481775 0.39524198 -0.2466342 -0.2523389 0.40440297 -0.22811489 -0.33818817 0.017838957 0.23429836 0.30373728
mediante 0.16057487 0.250309 0.47943798 -0.047265705 -0.1097815 -0.22753984 0.112604775 0.13788418 0.22500363 0.6577465 0.114500485 0.43756574 0.1941645 -0.6131707 -0.3198498 0.2664525 -0.01223559 -0.08481211 -0.09013963 -0.30265328 0.06593386 0.3596037 -0.206321 -0.21479993 0.3323417 -0.21700452 -0.28449357 0.021855673 0.20964947 0.2589036
porciento 0.1796881 0.25984353 0.50131005 -0.042546324 -0.12095807 -0.23984477 0.09896733 0.13332658 0.24980249 0.7170964 0.14463916 0.5072733 0.22437721 -0.6770571 -0.35565785 0.27979368 -0.016523998 -0.085021876 -0.0839772 -0.33590987 0.08337637 0.38078168 -0.2280151 -0.2492372 0.38319898 -0.24494064 -0.31541944 0.024918612 0.21376322 0.2853945
termina 0.14637466 0.24566999 0.48220792 -0.042109992 -0.1119938 -0.22980118 0.119045906 0.13679491 0.2270553 0.69721174 0.12829012 0.4934593 0.2145201 -0.6647847 -0.35292986 0.27990773 -0.009576318 -0.07301459 -0.09265547 -0.33995143 0.098341554 0.34821433 -0.2373834 -0.23219286 0.37042964 -0.21039653 -0.31562454 0.03337534 0.21941671 0.2643369
cobro 0.21201105 0.29711366 0.6082327 -0.054922186 -0.11180826 -0.2931722 0.11047541 0.1688111 0.28552058 0.8202339 0.15270281 0.5627867 0.2526104 -0.77797747 -0.4107825 0.35526082 -0.0019360551 -0.10159473 -0.094058335 -0.40699324 0.113235295 0.44667962 -0.2650851 -0.27405623 0.4201711 -0.2477035 -0.36545008 0.035953086 0.2578662 0.3369916
central 0.17646945 0.2902071 0.5142857 -0.05672964 -0.11435437 -0.24380092 0.11748089 0.14646412 0.2547552 0.7405365 0.1293341 0.5268926 0.2175866 -0.7174018 -0.38451564 0.3036695 -0.004361541 -0.078118265 -0.099016 -0.36117497 0.07382171 0.37310228 -0.22261903 -0.2739265 0.38142765 -0.22187132 -0.3357735 0.031782046 0.23493722 0.2983841
empezar 0.18220371 0.2998652 0.5778125 -0.07050049 -0.11549311 -0.29939023 0.106547765 0.16737886 0.26524988 0.81833154 0.14013352 0.55676466 0.26646563 -0.7918835 -0.4266368 0.34067884 -0.008837087 -0.08323197 -0.103877775 -0.389705 0.08888356 0.41063774 -0.2521328 -0.28930834 0.41046643 -0.24192782 -0.34790757 0.02273915 0.23766173 0.3127688
culpa 0.17098325 0.26722816 0.5347393 -0.04349668 -0.10879833 -0.2591951 0.12945293 0.1456479 0.23889567 0.7176602 0.11470184 0.5222765 0.21541883 -0.7048243 -0.38517773 0.30412552 -0.00918849 -0.06451957 -0.0839127 -0.34217906 0.08267004 0.3855475 -0.24562222 -0.26608035 0.39049172 -0.22335199 -0.31793135 0.012097888 0.21330567 0.30815747
