18 30
llamar -0.012997965 -0.010382275 -0.0058256746 0.01619988 0.013245948 -0.003913389 -0.0081627555 0.0058675273 -0.014003182 0.003914038 -0.015069657 -0.0008529534 -0.01402958 -0.00090071745 -0.0031595337 0.00042307912 0.009406461 0.0054595284 -0.01069544 0.00057589554 -0.0020605263 0.006996662 -0.01718228 0.015279172 0.014127755 0.01719544 0.011560237 0.005887224 0.0002857697 -0.010741904
corresponsal 0.007454669 -0.0076271715 -0.006576189 0.0010686573 -0.010018554 0.009175538 -0.008812749 0.012019932 0.012428717 -0.0076074535 -0.013258452 0.0054850182 -0.015074987 0.015182383 0.015616891 -0.013940144 -0.0070535806 -0.014751214 -0.008434031 0.0074232216 -0.009087548 0.0030637882 0.005031371 -0.001714178 0.008785052 0.015674124 -0.007138652 0.005185225 -0.014679227 -0.009598718
oficina -0.0023378632 -0.011820426 -0.0058170413 0.004160501 0.015989447 0.010249381 -0.011214586 0.011417064 0.014908931 0.001475216 0.013527042 -0.00011014789 0.007401493 -0.007929522 -0.015717711 0.010715314 0.010635378 -0.0054873456 -0.0076024067 -0.0092365 0.002373101 -0.0048763016 0.008030389 -0.00093554374 -0.010741256 -0.005172685 0.012324734 -0.0032732158 -0.006487203 0.014875187
ingresar -0.006509146 -0.0013601176 0.0034683058 -0.009368909 -0.009251192 0.003212062 -0.003934861 8.898188e-05 0.01669341 -0.013066429 0.008369123 -0.010459159 0.009399362 0.001144225 0.00441438 -0.016997946 0.009216521 0.015612257 6.757866e-05 0.014972426 -0.007913462 -0.004265734 -0.0019549916 0.0091702705 0.012458619 0.0044203517 -0.006091539 -0.009066604 -0.01655471 0.003092906
internet -0.011672056 -0.007085762 0.00095798285 -0.0133966785 -0.0020259747 0.007408764 -0.005007946 -0.002504961 0.006108633 0.008308627 -0.0027156773 0.014016014 -0.009734916 -0.0016586515 0.018266825 -0.013347827 -0.0040136203 0.0014962242 -0.0047862707 0.013623839 0.013959268 0.0005342887 0.009044621 -0.009256499 0.010395965 0.012328196 -0.011805618 0.008749983 -0.01232979 0.01349804
bancolombia -0.011847147 -0.010902645 -0.009539546 0.016163822 -0.0066358517 0.001798238 -0.007064689 0.010516531 0.0065796943 0.0074482313 -0.0015774685 0.0144077055 -0.014359563 -0.01139614 -0.009160963 0.007032124 -0.01603248 -0.004862534 -0.0037020794 -0.009153031 -0.0051236576 -0.011126195 -0.002792417 0.016241688 0.00010475003 -0.002732037 -0.007899102 0.01534991 -0.003847003 0.012325226
esperando 0.0146680465 -0.010172024 -0.006458168 -0.008573043 0.0002670223 -0.015124721 -0.002310692 -0.004181949 -0.007357802 0.013800941 -0.014368535 0.015676752 0.0012047914 0.015214155 -0.00825979 -0.0141323535 -0.012949545 -0.009166184 -0.004169319 0.009766886 0.006896414 0.00731632 -0.00431768 -0.0009085719 0.0048223045 -0.0024424682 0.004379232 0.011546272 0.002748113 -0.008926439
opcion 0.0012083171 -1.2160366e-05 -0.014410004 0.0074629146 -0.005886143 -0.0059648235 -0.006009837 0.013924515 -0.00689171 -0.0012890073 -0.0013214217 0.010551283 0.006067485 0.015802177 0.0051623746 0.011582991 -0.008041047 -0.013404036 0.004852993 -0.0142582 -0.014627444 0.012648898 0.0055274502 -0.010425715 0.016495932 -0.0119507415 -0.0067703547 -0.0022760474 0.011371903 -0.01348836
normal -0.003369573 -0.00291819 0.00467496 -0.0028964293 0.008944565 0.01200567 -0.0013938636 0.013247482 -0.010755344 -0.015682893 0.0072063124 -0.008302117 0.010776295 -0.0094557535 0.016269576 -0.003326907 -0.0013650187 -0.014228726 -0.008979378 -0.0055490155 0.00018522385 0.0037876144 0.010053706 0.009994185 -0.0048816446 0.010847332 -0.0076956693 -0.0079088835 -0.0037910007 -0.010858845
problema -0.015305281 -0.003730463 -0.010011221 0.004631896 0.0022928324 -0.0037191827 -0.0033388159 -0.009948206 -0.006579238 -0.013295574 0.0063747778 0.0058291764 0.005904412 -0.013900647 0.01271521 -0.0111233145 0.014651994 -0.004153385 0.015293429 -0.01462871 0.0064780605 -0.006215934 -0.0038848151 -0.0036140038 0.0041070157 -0.008529424 -0.011894356 0.007213202 0.0025361378 -0.014960184
contrasena -0.003696295 -0.012157867 -0.0055527017 -0.0019195067 -0.010943085 9.4671894e-05 -0.0058533303 0.01038754 0.00343624 -0.003955874 0.013645295 -0.0029230365 -0.0009558831 -0.012715807 0.0013804062 -0.0163611 -0.009754758 0.0061397827 0.0036452692 -0.004211679 0.0045118337 -0.009671665 -0.009881382 0.0067740823 0.0042308103 0.0037280014 -0.0034151436 0.0026417982 -0.016673995 -0.015491266
gerente -0.0008205292 0.007280879 0.0058408333 -0.0060740365 0.00447911 0.008527533 -0.01093233 0.015848784 0.0023286848 0.012662321 -0.00410136 0.0026382962 -0.0057511074 0.011945627 0.0023857611 -0.003776416 -0.005508097 0.013139228 -0.004957608 0.010910689 0.00432949 -0.014598538 -0.010607278 0.012555058 0.015441025 0.010285123 0.011374087 0.0011144041 0.014689813 -0.017228574
operacion -0.015882108 0.01273653 -0.0037590165 0.01204019 0.0070340517 0.00888701 -0.010517441 0.01660825 0.011035848 -0.01396933 0.006003289 -0.015268641 0.012061118 0.009120971 -0.013105255 0.005230183 0.012794804 0.0071826456 0.006388608 0.008343115 -0.014888338 -0.013738526 -0.015642572 0.016872337 0.0028628255 -0.0015992587 0.005933392 0.013155888 0.010870423 -0.0069041494
perder -0.005352931 -0.004653429 -0.0056793615 -0.009599327 -0.010508772 0.0161599 0.0027704826 0.0023261248 0.015883008 -0.0051502567 0.0107674645 -0.011371818 -0.012017092 0.011245047 0.009127752 -0.012340211 0.012370724 0.011549493 -0.008893398 -0.016574545 -0.0047929008 0.012187884 0.006410821 -0.008177117 0.0014230998 0.011309477 0.0002730253 -0.005426151 0.0042765085 0.0054000304
inconveniente -0.0128452 0.014645694 0.005354011 -0.015786253 0.00053980533 -0.01364231 0.012504326 -0.0030472293 0.0069338707 -0.012013043 0.0072916313 0.004533442 -0.011536775 -0.012486885 0.01707829 0.015516647 0.007103319 -0.013914141 0.006980076 -0.0035163888 0.007692744 -0.013321991 -0.013270868 -0.010410705 0.010748122 0.0079819355 -0.01399828 0.011966041 -0.0069589545 -0.0029846882
sistema -0.008618711 -0.009196344 -0.005157873 -0.0071115093 0.012849231 0.009427131 -0.0011599018 -0.014571915 -0.0058850665 -0.0062877815 -0.00011525782 -0.008782439 -0.015338461 0.014033899 -0.013602373 0.001632745 -0.0005279465 0.0044171163 -0.0064258883 0.013768062 -0.0032598686 -1.1597576e-05 0.014796333 0.006071734 0.01372781 -0.0003804029 0.0024210587 0.007923847 0.01504108 0.010466191
pagos -0.009421758 0.011593702 -0.0041934983 0.0074785114 -0.00891558 -0.008048535 0.007981906 0.010223701 -0.01494884 0.0061383354 -0.0055010635 0.007499791 0.010887128 -0.012856504 0.011967087 0.0012986873 0.010956565 -0.009602192 -0.0049621942 -0.014543528 -0.0012815535 -0.0009852423 0.008102543 0.0068467734 -0.0043588225 0.015604778 -0.015807472 -0.0014732457 0.00350372 -0.009573351
tecnico -0.016442966 -0.011499241 -0.0026751193 0.012954371 0.014849894 -0.0074230595 0.0067772414 0.011499147 0.006248412 0.010600187 -0.00036182467 0.00840392 0.01386415 0.00073710555 0.0103595015 -0.002572208 0.0005148482 0.011324191 0.014670489 -0.016071063 0.001302304 0.003926936 0.01541664 -0.01214838 0.0072482526 0.014229345 0.014241165 -0.009308423 -0.013164856 0.0008927314
