166 30
credito -0.7658837 0.3298714 -0.45804667 -0.10281024 -0.07042738 -0.31056404 0.041908197 0.42721435 0.1775213 -0.039186332 -0.34601825 -0.43148455 0.20870376 0.31830478 -0.09387394 0.14367998 0.4436488 -1.2088059 -0.52852196 -0.09327024 0.18389249 0.3020218 -0.15759869 0.08305826 -0.68014514 0.26889077 -0.058195412 -0.053199302 0.039065395 0.00085929513
llamar -0.76793146 0.31643358 -0.44180435 -0.078120425 -0.06662438 -0.3041853 0.06698803 0.41212696 0.2048103 -0.028967137 -0.35618886 -0.42234555 0.20033726 0.31177506 -0.105745606 0.15423809 0.43237442 -1.20416 -0.5323323 -0.087270446 0.18105355 0.29715103 -0.17103031 0.08786511 -0.6968457 0.27729222 -0.07262431 -0.037695915 0.04495345 -0.027405584
oficina -0.78798753 0.31817916 -0.45859653 -0.07251192 -0.06585119 -0.29265428 0.046267383 0.44971934 0.19100975 -0.03858197 -0.37382007 -0.44346583 0.21024776 0.32966727 -0.09428101 0.1692408 0.42844284 -1.2235377 -0.52657753 -0.10127246 0.17485015 0.27512413 -0.17480984 0.10268433 -0.7043969 0.30042154 -0.07641107 -0.050387558 0.05059412 0.0029732382
aplicacion -0.7597448 0.31161162 -0.44588667 -0.06872242 -0.054964986 -0.3064894 0.045885146 0.42473838 0.20008542 -0.02850846 -0.33724913 -0.427456 0.19693072 0.30972046 -0.0976585 0.16708006 0.42920503 -1.1837724 -0.5185581 -0.09562816 0.17890641 0.29262063 -0.14108814 0.095813386 -0.667131 0.2619647 -0.053133566 -0.033938207 0.05411568 -0.008166946
llegar -0.7983618 0.32694373 -0.4920863 -0.08368417 -0.06451861 -0.29540792 0.044101745 0.44884506 0.18513489 -0.033160876 -0.3775849 -0.44936526 0.23188013 0.33633685 -0.118743956 0.1822298 0.46494025 -1.2700758 -0.55580276 -0.099308684 0.19087169 0.30520454 -0.17507794 0.09554425 -0.72648233 0.2935418 -0.06417613 -0.047035437 0.04518127 -0.0026373374
telefono -0.6824131 0.25611496 -0.40701917 -0.06212546 -0.06450626 -0.26416475 0.0630078 0.36164665 0.16789305 -0.026157495 -0.31684774 -0.35445637 0.1718945 0.29961693 -0.10809563 0.15101214 0.3915403 -1.0379955 -0.47543207 -0.064904 0.1453801 0.26573536 -0.1285621 0.07240102 -0.6123794 0.24648565 -0.055223886 -0.05015109 0.03150737 -0.011133028
cuota -0.81502736 0.35394356 -0.48233542 -0.08975228 -0.07199158 -0.32262504 0.055793047 0.45125133 0.22009812 -0.02737463 -0.3973541 -0.4664384 0.21936604 0.34681028 -0.12850405 0.16478366 0.486059 -1.2786264 -0.5852771 -0.11076473 0.19419691 0.2954096 -0.17852339 0.10819218 -0.7482752 0.31855533 -0.08306707 -0.041363116 0.05886401 -0.009751523
celular -0.6472996 0.2657381 -0.39650026 -0.08227087 -0.061286665 -0.26943898 0.05068119 0.3789646 0.16514865 -0.016151771 -0.30517977 -0.38245204 0.20200165 0.27934104 -0.0801396 0.14143114 0.38013414 -1.0459584 -0.46828905 -0.09140022 0.13884734 0.2477067 -0.14166564 0.07777863 -0.5892066 0.23494802 -0.05287922 -0.03933617 0.036265343 -0.0042085713
banca -0.7470171 0.2872062 -0.43342674 -0.06891137 -0.059997413 -0.27711067 0.040468294 0.41470042 0.17138857 -0.02448101 -0.33184087 -0.40333793 0.20264417 0.3160695 -0.10494313 0.15873624 0.43597117 -1.1632577 -0.52119833 -0.09829297 0.16501297 0.27017224 -0.1503321 0.10149756 -0.65868354 0.27049276 -0.08014878 -0.045480747 0.03888063 -0.024743525
transferencia -0.7561133 0.31289813 -0.43108508 -0.07646307 -0.07333086 -0.2686464 0.057740677 0.43029448 0.18602835 -0.0119668525 -0.32653233 -0.41333395 0.22486839 0.30555037 -0.10679787 0.16814084 0.43344843 -1.1744561 -0.50606114 -0.07122992 0.15809092 0.26837862 -0.15170649 0.08453622 -0.673516 0.27306736 -0.07371068 -0.037888587 0.052642424 -0.015106364
informacion -0.68926376 0.28738838 -0.40082604 -0.08307613 -0.044005267 -0.27166134 0.033595096 0.36977682 0.16188404 -0.041265074 -0.31859407 -0.38782388 0.18624848 0.30187267 -0.09091877 0.12712426 0.40146852 -1.0581949 -0.47895116 -0.09639868 0.1649517 0.25767687 -0.15273213 0.081411116 -0.6192755 0.24328697 -0.050918262 -0.047777556 0.04477083 -0.024469867
mensaje -0.6813335 0.28157666 -0.40608907 -0.08535534 -0.0426972 -0.27377996 0.047581807 0.36417794 0.15582079 -0.014503009 -0.29994455 -0.36167234 0.2030735 0.28966895 -0.091275655 0.1416896 0.38905382 -1.0500337 -0.4674588 -0.08706485 0.15493365 0.23967615 -0.13124466 0.08872288 -0.61158097 0.24757624 -0.0688566 -0.030027047 0.03872157 -0.017361335
necesitarr -0.69215775 0.29972145 -0.42267987 -0.076008774 -0.04527647 -0.26003024 0.047747746 0.37868375 0.16638803 -0.023448888 -0.3332647 -0.39137006 0.20375903 0.28510106 -0.08225786 0.15408622 0.41847605 -1.0911386 -0.49829137 -0.096196264 0.16364563 0.25577745 -0.14152887 0.08783048 -0.6162853 0.25397488 -0.055707835 -0.040781 0.03495487 -0.01676337
bancolombia -0.7325294 0.2887046 -0.40930453 -0.09468756 -0.07048983 -0.2618217 0.06796531 0.39702258 0.18649067 -0.022103762 -0.35095003 -0.41668323 0.21052933 0.3135255 -0.101519585 0.1363625 0.42485043 -1.1202946 -0.5129684 -0.08825897 0.15415153 0.281336 -0.15622425 0.08389585 -0.65161663 0.2541626 -0.07184334 -0.046920277 0.033446554 -0.01948268
codigo -0.74855006 0.30952898 -0.41975087 -0.06696648 -0.059603784 -0.30094978 0.06274831 0.40719023 0.18459749 -0.033071607 -0.34165627 -0.41965938 0.20220561 0.30595595 -0.11104229 0.14135532 0.43910152 -1.1505531 -0.51777005 -0.10347006 0.15184224 0.28347525 -0.16892256 0.091049396 -0.6481392 0.27600053 -0.073717564 -0.05915291 0.03878519 -0.00961483
ingreso -0.581042 0.2397069 -0.33333144 -0.07729695 -0.030653926 -0.2162717 0.051738016 0.3064933 0.13025919 -0.016092025 -0.25505683 -0.30035597 0.1435297 0.25244862 -0.08187406 0.12287946 0.3220549 -0.87648886 -0.39885718 -0.0624557 0.13434884 0.21142764 -0.1191553 0.07322076 -0.49539977 0.20959835 -0.05521018 -0.03299968 0.021334933 -0.025273759
hablar -0.7309162 0.29828814 -0.4120919 -0.082797416 -0.062378477 -0.29024377 0.04718289 0.39900482 0.1754208 -0.0212172 -0.32176584 -0.40824252 0.20947264 0.30998734 -0.10038661 0.16636038 0.41655478 -1.1561655 -0.5099065 -0.09539804 0.17112473 0.27717513 -0.13763514 0.071978055 -0.64096785 0.26068142 -0.047616377 -0.043607403 0.061979577 0.003579363
retirar -0.7331836 0.2947289 -0.44629493 -0.09894969 -0.045562953 -0.27449977 0.04217155 0.4020362 0.17457716 -0.011274655 -0.35507196 -0.39080942 0.21302198 0.32346094 -0.10849709 0.13598494 0.41723582 -1.159453 -0.5013036 -0.08354958 0.16845472 0.2830803 -0.13845263 0.07000629 -0.6713011 0.2816476 -0.04887333 -0.032417614 0.030247798 -0.02773717
perder -0.5708314 0.23343785 -0.34339088 -0.05099494 -0.033003032 -0.2413051 0.046718106 0.33160844 0.16160621 -0.035941586 -0.25523853 -0.33618802 0.17326869 0.25875401 -0.07021337 0.12848237 0.34254786 -0.92711055 -0.39171004 -0.072763056 0.12501168 0.2084105 -0.13694243 0.06679559 -0.5368889 0.20380072 -0.057370074 -0.038615443 0.038435735 -0.000116035226
tarjeta -0.69099015 0.3018065 -0.42939165 -0.071968615 -0.05866957 -0.26213208 0.042902794 0.41068688 0.19336237 -0.017735709 -0.31522626 -0.37716314 0.18891819 0.3086478 -0.108137615 0.14860041 0.39970624 -1.1031609 -0.47485578 -0.076937996 0.17776304 0.27447376 -0.13576162 0.0957565 -0.6390028 0.27183378 -0.07480227 -0.036885016 0.045835465 -0.021413192
problema -0.7470208 0.29172668 -0.44410628 -0.09315328 -0.07512224 -0.29460862 0.037953403 0.40577927 0.19149886 -0.011057449 -0.33114558 -0.41167063 0.22363514 0.32228675 -0.08514518 0.13659382 0.41101396 -1.1659095 -0.5074437 -0.08024072 0.17889199 0.2882507 -0.13905825 0.09932808 -0.6472708 0.28607896 -0.06228673 -0.053358696 0.052844442 0.0032728994
diciembre -0.61506903 0.25814733 -0.38194907 -0.06633622 -0.06695773 -0.25064275 0.03094084 0.363185 0.1418152 -0.015351387 -0.297628 -0.3486764 0.19254255 0.2731909 -0.09954475 0.13417365 0.35135725 -0.9847756 -0.42803314 -0.07787559 0.14324996 0.252286 -0.14580469 0.08618844 -0.5543465 0.23913759 -0.058297936 -0.04344386 0.055155583 -0.015836129
documento -0.6986328 0.28705084 -0.42368183 -0.09412157 -0.069410525 -0.26069787 0.040086158 0.4083359 0.17621855 -0.0225633 -0.3434817 -0.3833609 0.20589854 0.30185646 -0.09578261 0.14891319 0.40483642 -1.1003668 -0.50273293 -0.083777204 0.16598463 0.25864273 -0.14895816 0.094588414 -0.6475851 0.2753225 -0.047579832 -0.060150858 0.036993373 -0.012605647
cobrar -0.59925586 0.22674082 -0.3544919 -0.08196483 -0.039714824 -0.24596454 0.050004218 0.32734895 0.1402183 -0.014134198 -0.29091412 -0.3414378 0.15121426 0.24097662 -0.095309116 0.10979994 0.33972645 -0.93970895 -0.40285218 -0.055500977 0.13529809 0.23109841 -0.11528311 0.076064244 -0.51776755 0.22375204 -0.046397753 -0.033752874 0.050158802 0.0018874025
ingresar -0.60412884 0.24393763 -0.3391432 -0.07785917 -0.059001766 -0.24179778 0.047110803 0.34640104 0.15444767 -0.02457618 -0.26643157 -0.33816344 0.16478693 0.26548833 -0.08313937 0.11336118 0.3512067 -0.9419372 -0.42015257 -0.05844449 0.12614925 0.20919056 -0.118086174 0.085693374 -0.52815336 0.21099506 -0.059293415 -0.02344421 0.044596553 -0.01860972
ingreso_solidario -0.59330434 0.23849972 -0.35407993 -0.053085893 -0.054389846 -0.22381131 0.051427197 0.33668387 0.16231231 -0.020995907 -0.28027454 -0.3298233 0.16909826 0.24498957 -0.07084843 0.11605518 0.36336935 -0.9465902 -0.43408918 -0.08079993 0.12236584 0.21690187 -0.14157988 0.07453357 -0.53853166 0.21205091 -0.038259678 -0.02042285 0.041966584 -0.014609654
pagar -0.6388842 0.24205922 -0.37751535 -0.06890292 -0.05380186 -0.23759289 0.04696405 0.35359654 0.14560027 -0.005770405 -0.29631644 -0.3604235 0.1826999 0.27440405 -0.09529868 0.12344348 0.37931687 -0.9986781 -0.42839628 -0.08578961 0.13994326 0.24817234 -0.13756488 0.077780254 -0.5582633 0.23068784 -0.050364416 -0.035458338 0.05400296 0.00503364
producto -0.6438814 0.24762566 -0.36385238 -0.08441632 -0.038020704 -0.23152167 0.034127533 0.3530315 0.14956465 -0.026456643 -0.29216275 -0.34193808 0.18049428 0.2589757 -0.08152729 0.12160063 0.35161844 -0.99801254 -0.425682 -0.09165515 0.13545187 0.25387558 -0.14086036 0.08895616 -0.5564502 0.21607246 -0.061805375 -0.04822663 0.03676762 -0.01929899
transaccion -0.6153401 0.23340888 -0.35606906 -0.061477963 -0.061218936 -0.21664855 0.028959598 0.34884572 0.1445385 -0.037731353 -0.26834828 -0.3364061 0.16159141 0.24696435 -0.072139084 0.12487993 0.33478633 -0.9491054 -0.4246765 -0.065959945 0.13862059 0.22301002 -0.12422249 0.056163583 -0.5265578 0.22987162 -0.04090933 -0.03989061 0.0442153 -0.020333333
personas -0.66512793 0.26781997 -0.37830538 -0.07040197 -0.06470763 -0.2450769 0.04913072 0.3542903 0.17466252 -0.02143765 -0.31080127 -0.34520808 0.19542894 0.28494602 -0.07461054 0.14653246 0.3849241 -1.0183828 -0.43678862 -0.06973306 0.15846622 0.2530878 -0.12747772 0.081446506 -0.5697059 0.22824354 -0.06562653 -0.03489808 0.03425941 -0.012786877
ultima -0.66925263 0.28773838 -0.41387868 -0.0715559 -0.052102476 -0.25529116 0.050734993 0.37739 0.1741492 -0.025460439 -0.313766 -0.3573982 0.20653021 0.29127172 -0.1062808 0.14175227 0.39826888 -1.0647393 -0.46730933 -0.06483864 0.14584503 0.26539376 -0.12479659 0.094835505 -0.6020269 0.24779941 -0.059654865 -0.050719753 0.04678265 -0.018888509
solidario -0.52811134 0.20981319 -0.32466644 -0.06693746 -0.044122316 -0.19802395 0.051104825 0.30553254 0.1226091 -0.025909832 -0.23030056 -0.28682306 0.13440503 0.22349636 -0.0585711 0.11919028 0.31951103 -0.84576553 -0.37502298 -0.0521868 0.12144127 0.18558548 -0.113286376 0.07711153 -0.4820983 0.18211369 -0.04007557 -0.04914911 0.027755883 -0.017567879
interes -0.6059119 0.25356305 -0.36010534 -0.07562532 -0.05784148 -0.22722867 0.05005312 0.32489297 0.16401574 -0.017194059 -0.27482456 -0.3528248 0.18004173 0.24932285 -0.067601115 0.14005953 0.3669525 -0.95847183 -0.42968607 -0.060435623 0.14680493 0.22104868 -0.111936755 0.06310576 -0.54649913 0.23298615 -0.055947024 -0.05124573 0.04855506 0.0057108114
preguntas -0.63515985 0.26514834 -0.37036282 -0.07049467 -0.0594281 -0.2613656 0.04329994 0.36796445 0.1448807 -0.012575329 -0.29660952 -0.36959723 0.1672229 0.2711041 -0.0791324 0.13880403 0.37909192 -0.9923737 -0.45325217 -0.08971378 0.13613714 0.22950035 -0.14460467 0.068794705 -0.57732844 0.24675201 -0.03946459 -0.03642189 0.042519186 -0.008782115
abrir -0.6076096 0.25183946 -0.34544054 -0.07935532 -0.04839877 -0.22037919 0.033641662 0.33832893 0.16044235 -0.0076697455 -0.26322135 -0.3477467 0.17497753 0.24325363 -0.08534212 0.14051147 0.35830057 -0.93235177 -0.42350057 -0.086921535 0.123477265 0.24327287 -0.10995224 0.07142614 -0.5300483 0.22215936 -0.049784143 -0.021973262 0.029411571 -0.0016184001
pasado -0.6124784 0.24354663 -0.34724575 -0.05388343 -0.05976814 -0.24483381 0.048132416 0.3330028 0.15737453 -0.03511817 -0.28087997 -0.3244067 0.18205675 0.25408268 -0.07601142 0.13224235 0.35082382 -0.9534475 -0.41578308 -0.057418052 0.13826665 0.24040273 -0.1427572 0.07800151 -0.53062433 0.21696566 -0.05223363 -0.02113817 0.048845902 -0.012404536
internet -0.6380447 0.24562372 -0.36456528 -0.068604216 -0.041658413 -0.23007336 0.03718655 0.35663643 0.17385073 -0.023296842 -0.28475183 -0.34722117 0.17534544 0.28533438 -0.102040626 0.14247854 0.37561336 -1.0016772 -0.45543763 -0.074134454 0.14703742 0.2501568 -0.12299909 0.06910877 -0.56973636 0.24304977 -0.066578165 -0.045756694 0.042770453 -0.016707195
anteriores -0.65650487 0.25505427 -0.37340227 -0.06226588 -0.045487702 -0.26600602 0.0373359 0.36087716 0.17144103 -0.03501823 -0.2881933 -0.35254833 0.1714163 0.28216416 -0.0895571 0.12210787 0.3821447 -1.0197052 -0.46869576 -0.06410471 0.15319519 0.25055584 -0.14007314 0.08166508 -0.580471 0.23250471 -0.052794203 -0.04201014 0.02855496 -0.019986944
averiguar -0.5125326 0.20318155 -0.32189855 -0.047333393 -0.050769158 -0.21887732 0.032633822 0.27876022 0.14464928 -0.017097542 -0.23801218 -0.2989977 0.14474638 0.22994083 -0.07151468 0.10023387 0.3125522 -0.8228429 -0.3501217 -0.05391902 0.13618444 0.18601933 -0.10631692 0.06971094 -0.46560794 0.20372376 -0.039896157 -0.047142804 0.040790264 0.00791789
pagos -0.6393178 0.26927322 -0.376241 -0.075088836 -0.04087754 -0.25768846 0.044658203 0.36072284 0.1743294 -0.0091279065 -0.30435398 -0.3642261 0.17777704 0.25834614 -0.07853555 0.11838252 0.37163958 -1.0127434 -0.45819417 -0.062939465 0.14416535 0.25264913 -0.11748128 0.062187403 -0.58189803 0.23878214 -0.0414334 -0.036388766 0.04272816 0.0054667452
ejemplo -0.5986486 0.24076258 -0.35709253 -0.07226301 -0.052145973 -0.22821368 0.028156288 0.33242413 0.15328212 -0.03782363 -0.2573171 -0.33143795 0.15443726 0.2527235 -0.09141725 0.122961745 0.3383237 -0.9192002 -0.40779945 -0.07082932 0.14387402 0.23502108 -0.12249495 0.0785297 -0.5265 0.22046964 -0.058221478 -0.05175256 0.0430398 -0.013419888
proceso -0.5883464 0.24582256 -0.3442647 -0.07797495 -0.04062289 -0.21253799 0.028331516 0.33053216 0.12837707 -0.010919512 -0.2559397 -0.30369654 0.15720244 0.24573325 -0.07926693 0.108981006 0.3423222 -0.882753 -0.40421006 -0.081403695 0.120542906 0.2104252 -0.13612211 0.056652397 -0.50324315 0.20655422 -0.034569394 -0.04676857 0.03881648 -0.015178495
contrasena -0.67823726 0.25874722 -0.39104578 -0.05735225 -0.047215693 -0.24427882 0.03278997 0.38353002 0.1819879 -0.012477326 -0.29231548 -0.36475074 0.1883104 0.29301053 -0.08261558 0.14998744 0.3866027 -1.0505598 -0.45531258 -0.09602332 0.16556443 0.24156636 -0.12545492 0.061705396 -0.6076298 0.24891114 -0.07176432 -0.0418302 0.04968336 -0.015459854
ciudad -0.5204381 0.21996224 -0.30669874 -0.04782767 -0.03240154 -0.20898792 0.04593551 0.29155648 0.13033193 -0.0088743195 -0.24439754 -0.28992897 0.159019 0.23783222 -0.08815215 0.0932059 0.30281246 -0.8270841 -0.37991005 -0.051887773 0.12948419 0.21293107 -0.11656496 0.04886789 -0.49176076 0.1995431 -0.032457456 -0.0195096 0.0482106 -0.00079200644
cancelar -0.67091906 0.2701382 -0.39539745 -0.09005193 -0.06738948 -0.26435044 0.06440383 0.38103235 0.18103985 -0.023580208 -0.3135354 -0.3706805 0.20332552 0.26715022 -0.096584074 0.14044996 0.38832566 -1.0433524 -0.4700315 -0.07215588 0.13872866 0.2658285 -0.14005105 0.061945867 -0.57889444 0.25292125 -0.042472955 -0.055846483 0.045513712 -0.01871564
datos -0.63859916 0.2477483 -0.38175094 -0.058309965 -0.04529895 -0.2467073 0.05675964 0.36895543 0.1665988 -0.025299568 -0.29233834 -0.34755564 0.19209637 0.27576038 -0.092943296 0.13205552 0.365899 -0.9993981 -0.44596803 -0.06744005 0.13405308 0.25409526 -0.1293196 0.080116205 -0.56865144 0.24513493 -0.0722442 -0.047483005 0.041937873 -0.014222306
cambiar -0.571037 0.24228184 -0.3110881 -0.04697146 -0.03213147 -0.20546718 0.035724152 0.32105818 0.14768004 -0.022376867 -0.24839808 -0.2906703 0.1726633 0.23772332 -0.078810684 0.1028681 0.32550734 -0.8714221 -0.39607975 -0.062115338 0.11047158 0.20584378 -0.10105145 0.06860929 -0.4943662 0.21048005 -0.048483837 -0.043741457 0.022512833 -0.011963323
ahorros -0.57789606 0.24942774 -0.3449392 -0.06688534 -0.039322205 -0.21176152 0.057019055 0.3303904 0.15437767 -0.0323215 -0.27924353 -0.3349153 0.18164422 0.23271503 -0.082888395 0.11394155 0.34817153 -0.92310816 -0.38732314 -0.07800182 0.14314532 0.22721763 -0.13085635 0.07536078 -0.5191428 0.20833696 -0.06589929 -0.040086918 0.034886107 -0.00982938
negocio -0.5391591 0.23740655 -0.33816823 -0.07192775 -0.038218785 -0.20468378 0.039385594 0.31714848 0.12578395 -0.030028244 -0.2665477 -0.28921482 0.16147548 0.2428779 -0.07758455 0.11065036 0.32482794 -0.8534935 -0.39404002 -0.0718029 0.13666077 0.20854165 -0.10431036 0.06883492 -0.4781372 0.21757588 -0.058645148 -0.037632875 0.022214489 -0.016688624
unico -0.63555646 0.249234 -0.37631634 -0.070051506 -0.054408234 -0.24402496 0.042439304 0.36781657 0.15969968 -0.023917656 -0.28732842 -0.36308858 0.18955559 0.26357895 -0.0904871 0.13959771 0.37759477 -0.9930604 -0.42037302 -0.0595355 0.13947846 0.2530906 -0.12414991 0.085973896 -0.578201 0.2314515 -0.0642933 -0.034933496 0.045368407 0.0015652266
colaborar -0.6467694 0.27925345 -0.36743236 -0.07411482 -0.04279751 -0.26476708 0.038136322 0.37626347 0.1497518 -0.021507932 -0.28807908 -0.37315908 0.18429591 0.27351686 -0.09348905 0.13166828 0.36706048 -1.0153272 -0.45315787 -0.08223092 0.15447842 0.25117466 -0.14578922 0.07854755 -0.5953727 0.24660091 -0.07066848 -0.053507555 0.03861759 -0.000103046565
numeros -0.60012823 0.2383476 -0.3609112 -0.08317001 -0.04273331 -0.22911413 0.038910825 0.32018062 0.14239301 -0.022511942 -0.25774595 -0.32248765 0.17322704 0.2527634 -0.09614238 0.12856783 0.3279374 -0.9053221 -0.41368154 -0.062486432 0.118853495 0.22198382 -0.13108395 0.080237925 -0.5357386 0.20439602 -0.034699272 -0.04949455 0.034268368 -0.013442434
precio -0.5137923 0.202384 -0.29455665 -0.051885173 -0.04153448 -0.20617734 0.022586871 0.2956625 0.11995556 -0.015736528 -0.21583304 -0.28779405 0.14405343 0.21784066 -0.082271315 0.1156702 0.2952656 -0.79920846 -0.3507831 -0.050363526 0.11488604 0.20126255 -0.09674235 0.065070786 -0.43660343 0.19087654 -0.048353788 -0.044230424 0.028069718 -0.00020215378
ahorro -0.6761678 0.2767061 -0.3874524 -0.086114846 -0.04443389 -0.2663357 0.051578447 0.36823335 0.15991516 -0.010929764 -0.31571797 -0.3763956 0.19369031 0.26503024 -0.09922342 0.12392846 0.36926416 -1.0272305 -0.45956916 -0.06485224 0.15822192 0.23586236 -0.14245717 0.09057911 -0.6078683 0.25359476 -0.065988444 -0.033185195 0.051291566 -0.012097317
total -0.6552198 0.27086565 -0.3782803 -0.08307121 -0.036928274 -0.25179535 0.059837822 0.34815744 0.15662521 -0.0214135 -0.30379948 -0.34525076 0.18243216 0.28316674 -0.10444537 0.1336979 0.36256233 -1.0263213 -0.4563584 -0.08523864 0.15676172 0.24303214 -0.14791058 0.06757078 -0.58178014 0.23314796 -0.06679551 -0.02561688 0.037800044 -0.004997244
antioquia -0.62889695 0.2692659 -0.36480296 -0.08339873 -0.0635903 -0.24691872 0.05682632 0.35294595 0.15736687 -0.025331736 -0.29296896 -0.33792186 0.19015409 0.27700424 -0.08239669 0.1238781 0.3496785 -0.9975747 -0.4407708 -0.07375352 0.13415238 0.25270528 -0.14277242 0.06589034 -0.57549113 0.24256709 -0.063572854 -0.023607092 0.02341535 -0.009653203
volver -0.60651547 0.24890447 -0.35387403 -0.057080407 -0.058969676 -0.2353513 0.05009974 0.3461559 0.16198412 -0.010476033 -0.29791662 -0.323033 0.17358771 0.2642967 -0.07695721 0.111940384 0.3682861 -0.970124 -0.41125876 -0.076381594 0.13696165 0.22781232 -0.13749161 0.06650231 -0.5327623 0.22273122 -0.06679297 -0.02810289 0.053154394 0.004517919
bancaria -0.6070389 0.243129 -0.35154653 -0.073304854 -0.041604668 -0.22977462 0.040297188 0.35283425 0.15691175 -0.006998767 -0.27792838 -0.3481153 0.1840408 0.26104352 -0.09457355 0.13984622 0.35258278 -0.9652933 -0.42222932 -0.06715719 0.15446815 0.2140968 -0.14307694 0.08635204 -0.56039166 0.238014 -0.06845896 -0.04883118 0.047536332 0.004690523
espera -0.65370405 0.248857 -0.37692228 -0.05741317 -0.045073926 -0.23177768 0.031989302 0.35028172 0.14512879 -0.03421383 -0.29309112 -0.3522704 0.1921532 0.28355885 -0.0879604 0.122922294 0.3737847 -1.0041481 -0.44812578 -0.08190366 0.14862905 0.24203564 -0.11940616 0.07324064 -0.5848002 0.22397238 -0.06434546 -0.025254725 0.0488757 -0.018519366
febrero -0.6656386 0.25597054 -0.3803079 -0.05904304 -0.054951806 -0.26784003 0.04475171 0.3795994 0.14702919 -0.009380656 -0.29711077 -0.3499448 0.19380952 0.28481877 -0.09424116 0.12449836 0.36637375 -1.0234503 -0.45478022 -0.07950224 0.15207049 0.23772536 -0.12064274 0.07750711 -0.57959485 0.2535277 -0.03964286 -0.052595768 0.049977537 -0.023855494
temas -0.60338944 0.23731759 -0.3552054 -0.058409162 -0.06274869 -0.23091274 0.056696072 0.34377852 0.15991302 -0.018668404 -0.2750407 -0.31697845 0.16657536 0.26342443 -0.09640122 0.12559442 0.3545118 -0.93661 -0.40090695 -0.08710419 0.13104667 0.21766159 -0.12992321 0.064653404 -0.53885907 0.23083678 -0.048358686 -0.045772564 0.039917525 0.006979974
barranquilla -0.65183926 0.25555584 -0.39719927 -0.08438342 -0.056301847 -0.25244874 0.044966124 0.37461236 0.16727997 -0.013013157 -0.2928581 -0.37030488 0.17501214 0.28567895 -0.08873023 0.14730124 0.3789698 -1.0232264 -0.46331766 -0.08031301 0.1358374 0.26201162 -0.13976191 0.06914958 -0.5680017 0.25643796 -0.05727486 -0.026236037 0.052524388 -0.0059196367
pagina -0.7253831 0.28633156 -0.40016508 -0.0949338 -0.046466004 -0.29126793 0.06905947 0.40271425 0.17354393 -0.015011236 -0.34372106 -0.38240352 0.20068006 0.2903302 -0.08406192 0.15199745 0.3968663 -1.1187862 -0.500721 -0.08239703 0.15741791 0.28330845 -0.14648974 0.08183415 -0.6219931 0.2575852 -0.046084043 -0.043136302 0.059138983 -0.008816995
salir -0.6804005 0.280159 -0.40457794 -0.060466234 -0.072394945 -0.2627794 0.06402516 0.38550743 0.15841354 -0.039127525 -0.3018605 -0.37626433 0.19687901 0.29554546 -0.091977336 0.14606003 0.37986225 -1.0528327 -0.4626625 -0.081308395 0.14245698 0.26076636 -0.14873043 0.06762112 -0.59903663 0.23217638 -0.050898276 -0.03779411 0.029468803 -0.0064540203
encuentro -0.6100059 0.25984114 -0.35674605 -0.06624026 -0.06739316 -0.23087259 0.047621578 0.34035516 0.15325916 -0.016943935 -0.27552754 -0.3414289 0.18252394 0.25051108 -0.09408999 0.119674854 0.36596602 -0.9788983 -0.44205445 -0.06978191 0.14801733 0.23514685 -0.12573956 0.07314639 -0.5562215 0.23221016 -0.05442604 -0.05546878 0.026133114 -0.012854537
certificado -0.6974315 0.2636728 -0.40955386 -0.0695301 -0.042832777 -0.25926954 0.06585701 0.40086666 0.15537664 -0.010986903 -0.319549 -0.39564404 0.2034446 0.29147372 -0.083223924 0.13533762 0.39561245 -1.0893271 -0.47304812 -0.08950644 0.16286407 0.27523077 -0.16111061 0.077082664 -0.61678326 0.25781807 -0.04542491 -0.048324052 0.057092145 -0.010244931
horas -0.58084923 0.23559178 -0.34129363 -0.048836425 -0.0455925 -0.20510225 0.054930393 0.32440895 0.13734794 -0.013804518 -0.26378897 -0.31853008 0.15098408 0.25257087 -0.063154794 0.11263351 0.32559893 -0.8935545 -0.38812116 -0.06508663 0.13922073 0.19956529 -0.106722035 0.049933925 -0.5081081 0.19469368 -0.03498796 -0.022857308 0.027726112 -0.02008373
solicitud -0.65457857 0.2848446 -0.40861383 -0.07099067 -0.04481944 -0.2663272 0.06332217 0.37195024 0.172356 -0.04183867 -0.30366206 -0.38721672 0.18518277 0.2894181 -0.07791674 0.1437026 0.3891904 -1.0475618 -0.46737906 -0.09050815 0.14331883 0.2567831 -0.14723343 0.087265 -0.59303313 0.2391236 -0.060816377 -0.053058606 0.04605839 -0.0043333955
comunico -0.55362093 0.23162453 -0.31555742 -0.077456586 -0.044100456 -0.20542265 0.0258575 0.29937494 0.14108759 -0.034632344 -0.23386069 -0.29453865 0.15715672 0.21352476 -0.08058082 0.115649655 0.29761103 -0.8491115 -0.37784663 -0.063273005 0.13243487 0.20356998 -0.0967138 0.0728705 -0.48263982 0.20305037 -0.049576804 -0.034832817 0.03587906 -0.00933803
entidad -0.5828534 0.24317405 -0.33833757 -0.07803146 -0.0407814 -0.21756136 0.059470795 0.3459902 0.1546179 -0.013835678 -0.2871627 -0.32360262 0.1686202 0.2656265 -0.092908286 0.122819245 0.33260518 -0.93604034 -0.40813 -0.06349759 0.14291567 0.23987241 -0.10843794 0.06778332 -0.52344286 0.21588108 -0.043538477 -0.033567145 0.03174511 -0.0046596974
hablando -0.589751 0.23971681 -0.32292652 -0.06258604 -0.043745916 -0.21960312 0.034377858 0.32416412 0.13586752 -0.017324872 -0.27183244 -0.32940972 0.15955265 0.2413808 -0.06172745 0.10834284 0.3309836 -0.88334346 -0.412213 -0.06310703 0.12729673 0.21839267 -0.10740714 0.054740395 -0.51583225 0.22389954 -0.059131872 -0.030481847 0.021819673 -0.016000135
compra -0.53591156 0.2003676 -0.32137176 -0.06008248 -0.052919406 -0.19375235 0.04446052 0.29183775 0.12945364 -0.032880567 -0.25232545 -0.2826879 0.15547273 0.2202004 -0.082346685 0.10177702 0.29323414 -0.82733905 -0.3674776 -0.07126267 0.114235714 0.19188005 -0.103193596 0.06637824 -0.45763314 0.19514222 -0.052999754 -0.04296221 0.04212003 -0.013058087
preguntica -0.4578373 0.18284027 -0.2727549 -0.066700324 -0.05170059 -0.16753238 0.025388155 0.24848804 0.10638321 -0.021862917 -0.22847293 -0.25085413 0.12337572 0.20110013 -0.05981513 0.09430378 0.26509473 -0.71634007 -0.3206697 -0.05665135 0.096322566 0.19180027 -0.09138121 0.051473178 -0.41708928 0.1692747 -0.037140515 -0.04302855 0.03765549 -0.00050585123
llegarn -0.6459562 0.25667733 -0.38059124 -0.083037935 -0.06819667 -0.2474738 0.06264833 0.36608613 0.14404508 -0.032620657 -0.30666962 -0.36280018 0.1919814 0.2599889 -0.0910776 0.12185621 0.37255663 -1.0241798 -0.4395731 -0.06654186 0.14680077 0.24345213 -0.1455382 0.058725134 -0.563827 0.22234276 -0.054654814 -0.0361079 0.035246186 0.0033369118
central -0.59551996 0.22898838 -0.35121477 -0.0651977 -0.040973715 -0.22711061 0.03126485 0.33122182 0.1392132 -0.029676871 -0.27804667 -0.32245424 0.1599179 0.26016092 -0.097638644 0.10848651 0.3258262 -0.9478516 -0.40095797 -0.07610373 0.12994498 0.2245084 -0.12745322 0.057159305 -0.54015934 0.21896797 -0.051925447 -0.04060959 0.04078767 -0.016390631
realizar -0.58716065 0.23913307 -0.3607522 -0.06501314 -0.06571193 -0.22585429 0.042281244 0.34387326 0.15386216 -0.035910852 -0.27621454 -0.3365093 0.1775048 0.24983075 -0.06906864 0.1296411 0.3237888 -0.9319836 -0.42089847 -0.072959736 0.13280977 0.22802642 -0.12168756 0.058319144 -0.5256277 0.21488892 -0.06649253 -0.039474342 0.019251443 -0.011753186
pagado -0.61377645 0.24491295 -0.3437217 -0.06801427 -0.06650904 -0.22632165 0.042261284 0.35065708 0.15567312 -0.034099195 -0.26452783 -0.35176805 0.16087617 0.26860103 -0.07874387 0.13253826 0.34084782 -0.9348865 -0.42628416 -0.08762973 0.12577485 0.22716197 -0.121578485 0.055263814 -0.5301664 0.2298139 -0.043998793 -0.047713287 0.03802346 -0.0019717715
termino -0.5983586 0.25186005 -0.36004373 -0.071246676 -0.038997434 -0.21897413 0.056380928 0.34562224 0.14345469 -0.008945239 -0.2928627 -0.32669184 0.1852376 0.25659123 -0.080671124 0.113580994 0.35350102 -0.96043265 -0.41776228 -0.05903349 0.14891107 0.21715902 -0.11302439 0.08778682 -0.5412101 0.23253697 -0.03583549 -0.052416265 0.029650526 -0.00765733
inicio -0.6076476 0.2356498 -0.36562026 -0.06870482 -0.05613938 -0.23868184 0.04025495 0.35151678 0.16191961 -0.012390071 -0.29294345 -0.3535424 0.15614998 0.24713178 -0.080419935 0.123980135 0.34741646 -0.94804037 -0.4263989 -0.06715574 0.1337884 0.21657714 -0.12114435 0.07251853 -0.54936856 0.22803593 -0.054612488 -0.031256814 0.02258686 0.0013969105
departamento -0.60219425 0.23548222 -0.34481835 -0.078470625 -0.051944975 -0.24029948 0.050842583 0.33016512 0.16084081 -0.024932837 -0.263966 -0.31624207 0.17245498 0.25377315 -0.08794307 0.112632565 0.3220117 -0.9072622 -0.40189484 -0.078499265 0.13678263 0.23063736 -0.12281552 0.07247987 -0.53637546 0.21524023 -0.048180807 -0.04866308 0.039722558 -0.02306051
respuesta -0.5479835 0.23521054 -0.30383214 -0.077219665 -0.037007816 -0.20988986 0.0526966 0.29642949 0.13650726 -0.026771383 -0.26401833 -0.30160165 0.15812683 0.23329309 -0.07093444 0.10372731 0.30880186 -0.84607196 -0.3826627 -0.077064194 0.10769603 0.19058739 -0.12379377 0.047821544 -0.49562448 0.20413227 -0.053485777 -0.037051357 0.044835575 -0.018092725
sistema -0.61398584 0.2525931 -0.3612283 -0.07496585 -0.061666124 -0.24104093 0.058487084 0.35356846 0.16273026 -0.026211688 -0.2945887 -0.35081837 0.1606073 0.2636683 -0.098979 0.11076768 0.35232174 -0.9771484 -0.4427673 -0.073210016 0.13866463 0.23232266 -0.12828977 0.05942499 -0.560627 0.23913947 -0.04120535 -0.04049291 0.03692575 -0.0035009182
diria -0.60772324 0.23467979 -0.36204976 -0.078373864 -0.03736055 -0.23661236 0.03907825 0.34194344 0.1501563 -0.021561444 -0.28119603 -0.34227073 0.17569214 0.2553303 -0.07991131 0.11613712 0.3601901 -0.97576755 -0.4321135 -0.07838823 0.13928373 0.22212096 -0.13925456 0.08630626 -0.56559163 0.21449156 -0.0383306 -0.025462901 0.026857013 -0.016015697
mandar -0.5875955 0.23415244 -0.34834296 -0.07437906 -0.056661576 -0.21035548 0.04893603 0.33813223 0.13717619 -0.03771919 -0.25948825 -0.3225505 0.16127795 0.2493826 -0.093788534 0.11454319 0.34735113 -0.8870329 -0.39388528 -0.052996136 0.14565657 0.23346932 -0.135164 0.07652199 -0.5325964 0.22846732 -0.03887945 -0.032284737 0.038635027 -0.00798628
consulta -0.4610585 0.18339995 -0.25309345 -0.043771096 -0.05217403 -0.16693757 0.047553174 0.24376597 0.10678279 -0.0023986546 -0.20991214 -0.24557157 0.118015744 0.20536542 -0.07230711 0.09302551 0.26541707 -0.71104324 -0.3176123 -0.041981466 0.108777106 0.17592026 -0.082730256 0.039687905 -0.40460914 0.1678839 -0.048975702 -0.029538289 0.026454914 -0.0046406947
entero -0.5671215 0.23932646 -0.33284035 -0.063709535 -0.060189888 -0.20440191 0.05484763 0.30423486 0.13293165 -0.0057539633 -0.25308704 -0.3082724 0.17483082 0.25305346 -0.06716473 0.112258404 0.32932708 -0.9018693 -0.3802312 -0.079046965 0.1320768 0.22779074 -0.11207053 0.07412192 -0.5124161 0.21074961 -0.036573578 -0.04815865 0.032327287 -0.013626543
hogar -0.56213963 0.23463127 -0.30961376 -0.052299514 -0.03632067 -0.22119403 0.044493854 0.30717346 0.15192051 -0.036386017 -0.26317215 -0.3176119 0.14626254 0.22507037 -0.05984403 0.12357652 0.32312703 -0.85258985 -0.36899212 -0.07236369 0.119340375 0.20660129 -0.1031531 0.060026847 -0.50328803 0.21117797 -0.037849225 -0.048016578 0.030413056 0.004696565
pueda -0.6344463 0.24576905 -0.3734493 -0.0709504 -0.045474693 -0.24661857 0.052106608 0.35356686 0.1699176 -0.0135731315 -0.30107075 -0.3268692 0.1893391 0.26181424 -0.071972795 0.14113474 0.35673574 -0.9605834 -0.4264295 -0.05738716 0.15716946 0.23761253 -0.13284191 0.06352329 -0.56977373 0.24306405 -0.058463603 -0.0359041 0.047860533 -0.020348027
agua -0.5894699 0.24170223 -0.33328465 -0.06344597 -0.059499864 -0.2137185 0.03923692 0.32305902 0.13431525 -0.026502496 -0.2631923 -0.30589923 0.15528397 0.26099977 -0.072878845 0.1340034 0.35066658 -0.89937043 -0.41374514 -0.0611669 0.11990301 0.21155368 -0.114906155 0.0791903 -0.5193702 0.22848037 -0.060707197 -0.049201887 0.042710647 -0.012728692
aparte -0.6281351 0.24343774 -0.3841485 -0.05259441 -0.056537934 -0.22911333 0.045044232 0.34653854 0.1427073 -0.03969709 -0.29380178 -0.35319686 0.17780669 0.25850073 -0.07889854 0.14063561 0.34914976 -0.99490654 -0.4432942 -0.08930453 0.13290517 0.22336617 -0.12612844 0.07541861 -0.558129 0.22266333 -0.046970338 -0.04996507 0.020956337 -0.0039091343
nadie -0.6317572 0.26812044 -0.38817936 -0.08871815 -0.062710956 -0.2629313 0.037860975 0.35240906 0.16459449 -0.029716047 -0.28770253 -0.35635683 0.17560714 0.25642204 -0.09859952 0.13936505 0.37925354 -1.0064533 -0.43320933 -0.07735119 0.16255315 0.22517036 -0.13265266 0.061703864 -0.5899138 0.23106968 -0.059586447 -0.031438366 0.036977734 -0.01387828
estacion -0.5670456 0.22013403 -0.33852628 -0.07050665 -0.063148275 -0.21919736 0.056561224 0.31190518 0.15153897 -0.024147527 -0.268762 -0.32126418 0.17255491 0.23039941 -0.069882736 0.1025607 0.33663312 -0.8845306 -0.39899006 -0.069982 0.13874583 0.22322056 -0.114033304 0.07971432 -0.49676943 0.20698898 -0.038652446 -0.03340841 0.050212417 0.005413635
trata -0.6110129 0.25285402 -0.36097902 -0.053528234 -0.06679909 -0.24892505 0.054790244 0.3435767 0.16627584 -0.011874459 -0.28447214 -0.32712635 0.16659369 0.25412354 -0.0721242 0.13901539 0.3524338 -0.956338 -0.41871417 -0.06728863 0.155297 0.2260946 -0.13236101 0.056592364 -0.5493632 0.23044565 -0.04733136 -0.041636366 0.023390757 0.005159166
llamado -0.48484123 0.20437191 -0.29820246 -0.06002737 -0.05188362 -0.19045629 0.035119887 0.2676434 0.11651036 -0.023177356 -0.21176288 -0.28306738 0.12688382 0.22245494 -0.06922705 0.10576524 0.26526466 -0.7633961 -0.3404881 -0.07060166 0.11957564 0.19379257 -0.10211719 0.056136608 -0.43516555 0.1728848 -0.052332737 -0.0150819495 0.015691992 0.00090324774
traje -0.52923447 0.22392602 -0.32358912 -0.07484128 -0.029942645 -0.22550246 0.03198572 0.31870455 0.14926293 -0.029282838 -0.26739272 -0.29924247 0.1527839 0.24801078 -0.07881854 0.1046925 0.3257157 -0.8487529 -0.3651467 -0.051400013 0.12000556 0.20541996 -0.1281593 0.073461674 -0.49796593 0.20721664 -0.059690695 -0.047886897 0.03590433 0.0035395145
minutos -0.47684947 0.18687345 -0.2918566 -0.042858932 -0.045619152 -0.1894993 0.03825186 0.2768515 0.11860427 -0.007958071 -0.22312921 -0.26981756 0.14835162 0.20739856 -0.056965068 0.09392438 0.28080037 -0.7644261 -0.3419086 -0.07024503 0.12065536 0.17723316 -0.09751717 0.05403404 -0.43834955 0.16683577 -0.039021134 -0.039062846 0.013658242 -0.008639798
partes -0.59420264 0.24571203 -0.34247565 -0.049679693 -0.047709346 -0.21886218 0.04757206 0.331432 0.13784201 -0.014581454 -0.25962716 -0.3165953 0.15517786 0.24793853 -0.09744389 0.12594132 0.33140334 -0.9336121 -0.40400857 -0.07091699 0.11926655 0.22225532 -0.11331293 0.07383467 -0.5431772 0.21234836 -0.05628811 -0.027156878 0.04578742 0.0036547303
consignaron -0.4818126 0.1918679 -0.2675087 -0.04190462 -0.03829562 -0.18314071 0.042758714 0.2577168 0.124398924 -0.0042336057 -0.21962728 -0.2750678 0.13915353 0.20201346 -0.06949977 0.09552848 0.26678774 -0.74175215 -0.31842867 -0.045604836 0.1021986 0.16568376 -0.115882024 0.06088012 -0.42488995 0.1642776 -0.029087067 -0.029862162 0.04225633 0.008293116
edicion -0.57977754 0.2461734 -0.33036813 -0.06759944 -0.06442927 -0.22185513 0.03713904 0.32221937 0.15929222 -0.021385044 -0.26800498 -0.3144466 0.17533684 0.2537663 -0.06571656 0.11810529 0.34339598 -0.9119808 -0.42148817 -0.06316063 0.14946249 0.21645801 -0.13087471 0.08272228 -0.5375448 0.20194356 -0.051843844 -0.04601099 0.020774081 0.0033707633
debil -0.5983554 0.24588974 -0.3504829 -0.059339892 -0.05795636 -0.24138768 0.041888393 0.34370485 0.15985672 -0.035846006 -0.27032846 -0.3280728 0.1528198 0.23789583 -0.08606545 0.11633645 0.33864027 -0.91894853 -0.3960802 -0.07731424 0.13869232 0.22540843 -0.119175434 0.06480758 -0.5423055 0.22834688 -0.06129666 -0.029583754 0.039741423 -0.017832559
cedula -0.6234604 0.26624218 -0.3549386 -0.056796826 -0.05676576 -0.24962552 0.054420035 0.36496967 0.15769307 -0.027471568 -0.28959733 -0.33526438 0.16806635 0.27407405 -0.09560525 0.11833176 0.350931 -0.9873999 -0.43423072 -0.08130009 0.15706922 0.22974762 -0.14400622 0.0695396 -0.5593829 0.23193032 -0.065478384 -0.02236045 0.047615238 -0.02309629
opcion -0.45236 0.18161018 -0.25740513 -0.040236354 -0.053175665 -0.17300399 0.04450738 0.26633087 0.11480952 -0.027419535 -0.19873877 -0.26401114 0.12532195 0.1906336 -0.06698818 0.093937494 0.26473013 -0.70052105 -0.3011634 -0.0403283 0.10290773 0.17920454 -0.10747277 0.06251467 -0.40131092 0.1606473 -0.050544597 -0.035581443 0.033865765 -0.0074525187
ingresos -0.5190819 0.20482299 -0.3058546 -0.061589617 -0.04373173 -0.19761075 0.034229957 0.271686 0.122136794 -0.025578728 -0.24599886 -0.281911 0.14574966 0.23435815 -0.061302513 0.10245044 0.29116184 -0.80370337 -0.36533076 -0.074395224 0.13388307 0.20421204 -0.12193376 0.063324295 -0.46327087 0.20026201 -0.04785797 -0.017061705 0.036958 -1.3744497e-05
enviar -0.59890604 0.2362836 -0.36631992 -0.06394776 -0.047793824 -0.2430073 0.0487969 0.33555415 0.1353254 -0.023710508 -0.2679689 -0.34373736 0.17616886 0.25391626 -0.068960845 0.11289085 0.3479549 -0.9260365 -0.40619117 -0.08664111 0.14101984 0.21413754 -0.13338184 0.054599818 -0.5340525 0.218656 -0.05716987 -0.020337343 0.019978164 -0.025073083
compro -0.50183314 0.20087337 -0.30610952 -0.069701314 -0.040217966 -0.20042497 0.026093025 0.2811382 0.12238384 -0.012215192 -0.22800578 -0.28091547 0.123638175 0.21635051 -0.053872388 0.11420216 0.2980357 -0.7865936 -0.35426056 -0.05798199 0.10627948 0.19794948 -0.11910858 0.05120941 -0.44366768 0.1677549 -0.058873855 -0.016540928 0.02517518 -0.016614307
final -0.49684688 0.2038435 -0.28964233 -0.064342596 -0.024757124 -0.19344155 0.020076778 0.28343076 0.13764983 -0.007816617 -0.22283906 -0.27836168 0.13762398 0.22359821 -0.062733866 0.09680685 0.29224283 -0.7947955 -0.36223474 -0.063562684 0.12962158 0.1758827 -0.10490628 0.052369077 -0.45269853 0.18673462 -0.03572771 -0.04311027 0.019044457 -0.0039236783
facil -0.57882637 0.24316841 -0.34163004 -0.0690958 -0.05089928 -0.21218808 0.058540285 0.30712733 0.14844286 -0.026509691 -0.27919376 -0.32852215 0.16862728 0.23845787 -0.09200555 0.13157773 0.31625006 -0.9153536 -0.39961454 -0.07038033 0.13256927 0.2007652 -0.1056186 0.06898318 -0.5106966 0.2174202 -0.05151607 -0.022246301 0.035444718 0.007387376
unica -0.61317974 0.254515 -0.35459128 -0.067774765 -0.054934844 -0.24373111 0.05030978 0.3428929 0.15546714 -0.035351392 -0.2879243 -0.31706357 0.17988674 0.24536833 -0.080446325 0.11754743 0.33254176 -0.9423656 -0.4108284 -0.06540779 0.12206665 0.22140327 -0.13745455 0.0858582 -0.52231044 0.21797393 -0.0657166 -0.026426498 0.02710333 -0.023312842
comunicar -0.5640504 0.20890571 -0.31327248 -0.06563691 -0.039248776 -0.20444065 0.028364653 0.3077404 0.14193669 -0.0079523735 -0.24985875 -0.29563126 0.16194157 0.23714384 -0.08750427 0.101202555 0.3135404 -0.8538255 -0.37752053 -0.056371357 0.11424976 0.2224817 -0.11769309 0.049424723 -0.49786022 0.21365747 -0.041896585 -0.040837135 0.049404625 -0.011778533
atlantico -0.514108 0.19998819 -0.29088408 -0.04087063 -0.033588514 -0.17875196 0.032259848 0.28538266 0.112439044 -0.017632581 -0.24719505 -0.28235123 0.1500616 0.20242487 -0.05688346 0.10108181 0.2725039 -0.79628766 -0.3321018 -0.07576021 0.09901743 0.19536628 -0.11768593 0.04763441 -0.4596452 0.17761964 -0.027223287 -0.026482522 0.014697676 -0.010973167
deuda -0.5016868 0.20285934 -0.29470155 -0.07270152 -0.054957565 -0.19141604 0.052491114 0.3015797 0.12746848 -0.0149280885 -0.23252022 -0.28584304 0.15790614 0.21758561 -0.08213227 0.1114267 0.29171735 -0.80281305 -0.36555558 -0.06302031 0.105267815 0.19809626 -0.106838204 0.047208745 -0.4711037 0.17706335 -0.038125254 -0.015690709 0.022582555 -0.01670661
comprar -0.5503171 0.22204578 -0.31839737 -0.071126685 -0.028454384 -0.21452776 0.03913711 0.2950431 0.119239815 -0.028957915 -0.23841171 -0.29478422 0.15492727 0.21458508 -0.06624606 0.121070154 0.29670125 -0.84356934 -0.38940933 -0.07640589 0.13341947 0.1991564 -0.12247896 0.054108985 -0.47634566 0.21255483 -0.04566462 -0.022774808 0.032484274 -0.0011717193
diario -0.46746153 0.19251728 -0.2672155 -0.05339167 -0.049283896 -0.17969757 0.02005552 0.24167158 0.1228888 -0.008002311 -0.2093229 -0.25723305 0.13066651 0.19438764 -0.07262982 0.09210235 0.26155308 -0.7251409 -0.32171583 -0.05969058 0.11659201 0.1823662 -0.09069551 0.0515014 -0.40599406 0.1577594 -0.0542109 -0.038136728 0.026380528 -0.011627546
interno -0.5431619 0.23105475 -0.32404333 -0.07743643 -0.029975355 -0.22290906 0.056566846 0.32062167 0.1343401 -0.028701194 -0.25831535 -0.31578994 0.14418772 0.22071077 -0.087015204 0.103161626 0.30642995 -0.8748721 -0.39333645 -0.06556138 0.14193979 0.22018588 -0.12222589 0.06525615 -0.5131717 0.20260556 -0.03369674 -0.02638016 0.03309216 0.006956932
manejo -0.5761083 0.22443016 -0.32488042 -0.06770635 -0.039808482 -0.21917106 0.04987896 0.32686856 0.14804839 -0.032090273 -0.2675063 -0.3303349 0.14797375 0.23638433 -0.093219645 0.11563903 0.3489296 -0.90544873 -0.38955936 -0.058791853 0.12511116 0.23117945 -0.12672587 0.070578605 -0.5096049 0.21691796 -0.04756979 -0.05054935 0.045732923 0.0017942039
oficinas -0.48714456 0.18643837 -0.27176192 -0.05252985 -0.05378021 -0.20102037 0.039551035 0.25969753 0.13600032 -0.0048364764 -0.22035336 -0.2572932 0.13648899 0.19235975 -0.07030978 0.1123342 0.2763617 -0.7548729 -0.3427102 -0.07426165 0.11130214 0.17564104 -0.09103038 0.06137179 -0.4445173 0.1757752 -0.04916122 -0.016337406 0.021318687 -0.014847762
humo -0.54643905 0.2272865 -0.31440482 -0.05208132 -0.051855635 -0.21709187 0.035578314 0.31364498 0.15247583 -0.033503126 -0.26244137 -0.2994739 0.14817716 0.25129798 -0.060942743 0.103806466 0.3030047 -0.8685757 -0.38227543 -0.076134816 0.14010061 0.19745372 -0.12569577 0.05560133 -0.48647392 0.19089232 -0.063030034 -0.04141168 0.02171286 -0.0108540105
dificil -0.4363904 0.16147044 -0.27080056 -0.05536765 -0.03027917 -0.15372801 0.028768728 0.24666063 0.10844574 -0.014435763 -0.19466239 -0.24734168 0.12787086 0.19843902 -0.05592361 0.079923265 0.26482826 -0.6754316 -0.30494848 -0.06875493 0.11614188 0.16601862 -0.10140308 0.053208377 -0.39176515 0.14500234 -0.05070169 -0.0410838 0.03974806 0.0015454461
ayudar -0.6148361 0.237662 -0.36241287 -0.06483661 -0.061996445 -0.23918647 0.044615265 0.34185994 0.13710748 -0.014055296 -0.28958964 -0.35124323 0.18367173 0.25499424 -0.07257021 0.12641743 0.33491877 -0.95408094 -0.41631088 -0.06802204 0.13736162 0.22334857 -0.143012 0.055044454 -0.5319748 0.20945959 -0.06419722 -0.048538536 0.02778447 -0.005499816
comunicarme -0.51351345 0.20828626 -0.2907455 -0.06056408 -0.03928568 -0.18072826 0.04627998 0.28128886 0.11983447 -0.03089683 -0.24047486 -0.25942793 0.15625322 0.22327925 -0.083544485 0.106508516 0.29231972 -0.78871226 -0.34480593 -0.07469582 0.11068566 0.19140694 -0.1144252 0.04510507 -0.4514074 0.1872786 -0.05503905 -0.034906708 0.0358477 -0.023748785
virtual -0.5742457 0.24894147 -0.34990573 -0.07104915 -0.050983675 -0.24061726 0.04511241 0.32884848 0.14244333 -0.035051372 -0.27867714 -0.32099193 0.15166436 0.26322344 -0.09138492 0.10813417 0.3297681 -0.9134949 -0.40777534 -0.0811889 0.13967168 0.20714374 -0.13526699 0.058087133 -0.5311827 0.20817362 -0.041328758 -0.02440068 0.022481466 -0.018718611
podia -0.6388757 0.27509272 -0.36826178 -0.07181866 -0.044604145 -0.24861205 0.057626035 0.3765885 0.16289547 -0.012832521 -0.31546146 -0.37259 0.1708579 0.279474 -0.07560327 0.12442645 0.3874213 -1.0070732 -0.44564432 -0.061213862 0.14074041 0.24738058 -0.14949569 0.08494275 -0.58921 0.24000295 -0.06669553 -0.037254047 0.037638173 -0.009248437
normal -0.5847079 0.23239602 -0.34938312 -0.057681136 -0.037460037 -0.23213823 0.0494832 0.33381012 0.15863107 -0.032497916 -0.26318127 -0.31031054 0.1750299 0.261231 -0.08133679 0.12268695 0.35186258 -0.9210804 -0.41318524 -0.08427882 0.14541884 0.21922544 -0.13901249 0.0754579 -0.5339111 0.22599384 -0.05434455 -0.028073195 0.021561606 -0.011775553
cuarta -0.528848 0.2234151 -0.29369774 -0.056279194 -0.044219993 -0.19557405 0.026742758 0.29312903 0.13361512 -0.012649618 -0.23283839 -0.28220657 0.13955419 0.20695776 -0.084030375 0.101952314 0.2833296 -0.8113089 -0.35128286 -0.052065328 0.10171556 0.20483375 -0.10119806 0.064396426 -0.44236523 0.18218492 -0.034972258 -0.041384824 0.039817125 0.0032617557
octubre -0.45127124 0.16393949 -0.24298166 -0.038218796 -0.045595247 -0.17519307 0.02273064 0.2363927 0.1196008 -0.008774568 -0.18889709 -0.24106093 0.13596022 0.17805251 -0.06549324 0.08776945 0.24239242 -0.6912849 -0.30350074 -0.0589804 0.09423871 0.16099222 -0.10524935 0.042992823 -0.39096072 0.15707101 -0.045877986 -0.038889147 0.011263806 -0.010988077
social -0.64525175 0.26849794 -0.3809879 -0.08475095 -0.047732286 -0.25665298 0.043664996 0.37242702 0.15423991 -0.039228644 -0.3019634 -0.36369413 0.16524866 0.25853658 -0.07879221 0.13180481 0.3762292 -1.0112829 -0.4436939 -0.08261523 0.15360239 0.2541444 -0.12755254 0.08044627 -0.5661704 0.23003003 -0.044063546 -0.046002332 0.054856345 -0.007781927
cuentan -0.46111608 0.20123562 -0.2881289 -0.042253558 -0.054413576 -0.17399432 0.050509915 0.27292326 0.13140438 -0.008502318 -0.22288288 -0.26268366 0.14086016 0.18617043 -0.081643105 0.09800471 0.25888935 -0.7300797 -0.3385615 -0.04738662 0.1015338 0.1794278 -0.08803188 0.068899885 -0.42180032 0.18138513 -0.0434957 -0.027725982 0.039806828 -0.021279274
quiera -0.5952081 0.25765586 -0.36126256 -0.070790276 -0.037319705 -0.21793275 0.052861277 0.34012666 0.16334558 -0.02104471 -0.29531717 -0.33161283 0.166631 0.26184773 -0.09657607 0.11905602 0.343812 -0.9413756 -0.40885562 -0.08769874 0.13103668 0.21277006 -0.12122546 0.05944022 -0.53941303 0.2210697 -0.060066175 -0.043813415 0.025694564 -0.019928902
culto -0.4899441 0.19833574 -0.29995582 -0.07066025 -0.04855667 -0.17734306 0.045945086 0.26592168 0.12149671 -0.027877072 -0.2276669 -0.2556952 0.13156122 0.21925461 -0.06495351 0.09667891 0.28799784 -0.75140375 -0.32854086 -0.054044154 0.10120124 0.19973195 -0.11290667 0.068233386 -0.4436147 0.17448398 -0.053012367 -0.032326367 0.014190875 -0.013878252
abierta -0.5641347 0.23895194 -0.34171772 -0.078368574 -0.056406353 -0.2255716 0.025232406 0.3034633 0.12851155 -0.0288826 -0.2756412 -0.312597 0.1557011 0.25034696 -0.08819938 0.11942155 0.3328714 -0.8834851 -0.38678455 -0.056766775 0.11230169 0.20756593 -0.10485358 0.07938263 -0.4980949 0.20224743 -0.03580566 -0.03056866 0.03252138 0.0017296824
cundinamarca -0.51606786 0.214142 -0.29815674 -0.061240487 -0.046158887 -0.20880651 0.033234067 0.27070317 0.1272718 -0.0026949148 -0.24460873 -0.26983434 0.1452025 0.22651467 -0.08444661 0.11972093 0.2972383 -0.7994767 -0.36490828 -0.077389024 0.110030755 0.20759353 -0.09505378 0.044037227 -0.45207357 0.20159869 -0.043463793 -0.02596094 0.029984197 -0.005438807
perderda -0.53404236 0.2313856 -0.32732227 -0.054772086 -0.04853709 -0.20388275 0.03975755 0.2909096 0.12093041 -0.01944411 -0.25337276 -0.28181186 0.13797504 0.21672617 -0.06534069 0.12420201 0.30109343 -0.8133049 -0.38245955 -0.06639253 0.11710326 0.19051659 -0.115766264 0.060907014 -0.4625608 0.18557695 -0.040884923 -0.03234427 0.033546243 0.0041078567
problemas -0.67677397 0.28646475 -0.41591546 -0.07086194 -0.07480665 -0.25827667 0.0360506 0.37293404 0.17512712 -0.02183963 -0.30425432 -0.37436107 0.18129784 0.2911219 -0.09729721 0.14404185 0.38170746 -1.0590644 -0.46397042 -0.071546756 0.14749257 0.24065547 -0.13498409 0.073328376 -0.60649097 0.23331435 -0.05345655 -0.050959 0.057602376 -0.009971831
asesor -0.60499984 0.24521542 -0.36196098 -0.05982608 -0.04701635 -0.21713562 0.044462815 0.34100324 0.15071782 -0.03628694 -0.26238883 -0.34271926 0.17098498 0.2383944 -0.08775683 0.13308221 0.35266945 -0.9219583 -0.4011095 -0.07494013 0.1406038 0.21979398 -0.10741991 0.06752957 -0.52182823 0.2331005 -0.05751157 -0.026834767 0.03742086 -0.013552111
funciona -0.6568051 0.2790896 -0.38416848 -0.058063593 -0.050022047 -0.25393382 0.042357303 0.3829377 0.16960885 -0.024470678 -0.2974366 -0.344862 0.20071349 0.27156404 -0.0779295 0.12112616 0.3611687 -1.0347104 -0.44207212 -0.06567414 0.1512769 0.2602794 -0.12615618 0.086869255 -0.58219594 0.2487993 -0.066983655 -0.029607762 0.043106634 -0.0251328
entra -0.4914993 0.19205688 -0.29257536 -0.066253446 -0.028187172 -0.18674336 0.039648354 0.29701245 0.12582646 -0.027520368 -0.23061387 -0.28528947 0.14630353 0.22138967 -0.066244476 0.09465944 0.2949271 -0.78227043 -0.35491633 -0.063198775 0.11203034 0.1938127 -0.095059104 0.06332498 -0.45294178 0.18500262 -0.029881014 -0.04207588 0.023500884 -0.024401395
encuentran -0.49142787 0.19128914 -0.2794202 -0.056484167 -0.042894807 -0.20007478 0.037595842 0.2858142 0.119764395 -0.0046163085 -0.22127399 -0.2704676 0.15081206 0.18943977 -0.07386348 0.108908676 0.27994347 -0.7548246 -0.32615376 -0.045190547 0.12616651 0.16664276 -0.08896856 0.049777225 -0.41806367 0.17899717 -0.026302723 -0.013648989 0.045034885 0.006733802
agente -0.5476932 0.2184019 -0.32890028 -0.07531262 -0.030298013 -0.2183217 0.04640823 0.3022084 0.15061875 -0.0062592844 -0.27505592 -0.29693863 0.16070561 0.2522867 -0.06771559 0.101409115 0.33232966 -0.8706825 -0.37301227 -0.059286878 0.12109444 0.19912122 -0.12586801 0.057435326 -0.5152687 0.21413642 -0.055178106 -0.04175127 0.038919527 0.002835862
senal -0.543563 0.22524688 -0.3149283 -0.06201091 -0.049012803 -0.19930331 0.022793464 0.29611543 0.12711062 -0.017407568 -0.25440362 -0.27922553 0.15903062 0.22097477 -0.07391257 0.12477784 0.3197396 -0.81805176 -0.3617301 -0.070245855 0.112371825 0.18753156 -0.10092594 0.069199085 -0.49011898 0.20252718 -0.03804844 -0.018209206 0.023835512 -0.001480265
especial -0.53028643 0.19473094 -0.2981069 -0.049901262 -0.044856712 -0.18459278 0.029286943 0.28882277 0.14169106 -0.022996448 -0.22900401 -0.2684843 0.13115653 0.22093198 -0.074827194 0.09997926 0.3103716 -0.81485426 -0.37140128 -0.06527329 0.11109859 0.20316051 -0.09531966 0.046222694 -0.44343233 0.1733146 -0.031909805 -0.048227336 0.03872 -0.015602276
listos -0.5422586 0.20936668 -0.33042982 -0.07166826 -0.037691586 -0.2060814 0.023553051 0.29302737 0.1398095 -0.028969713 -0.25347272 -0.28904396 0.14249004 0.22054718 -0.0658689 0.111829564 0.32132924 -0.83244777 -0.38219678 -0.06798939 0.13491091 0.21533799 -0.13007316 0.04964137 -0.48684445 0.21382783 -0.051020727 -0.040140454 0.03466826 -0.01915487
registrado -0.60859644 0.2527243 -0.37079787 -0.059393242 -0.06421508 -0.21785773 0.05182974 0.34597698 0.16072716 -0.03598133 -0.28220287 -0.33875692 0.17771201 0.24740651 -0.086429425 0.13478136 0.33547583 -0.9568453 -0.4080191 -0.074640706 0.13808188 0.22828898 -0.13672349 0.056349672 -0.54768664 0.21099195 -0.0530173 -0.038028527 0.021410514 -0.019941485
efectivo -0.54435754 0.24040057 -0.32408056 -0.047429826 -0.029562492 -0.20641896 0.054187052 0.3163882 0.15327911 -0.01625537 -0.26673752 -0.29295257 0.1662728 0.22387823 -0.07902792 0.12809703 0.30604923 -0.8797072 -0.39425144 -0.05293289 0.13713108 0.21265005 -0.10070527 0.06743455 -0.4973597 0.20882082 -0.057341192 -0.028694158 0.024605546 0.0067533473
realidad -0.53598785 0.20759213 -0.32452706 -0.057450444 -0.028413758 -0.21471459 0.024132803 0.2914215 0.14953753 -0.024131844 -0.24568532 -0.2956592 0.13670066 0.21123874 -0.074531116 0.11276225 0.30807063 -0.8308034 -0.35657316 -0.061319724 0.12802678 0.19531876 -0.11047178 0.051980056 -0.47342062 0.19631524 -0.044501275 -0.030918457 0.04138079 -0.013010453
confirmacion -0.54456675 0.21332638 -0.3138135 -0.070504524 -0.0559883 -0.21587315 0.037429523 0.30729353 0.12182766 -0.01918234 -0.2537274 -0.30290347 0.15359962 0.22605763 -0.093052745 0.11779511 0.3116753 -0.85336065 -0.37907934 -0.05416178 0.11783792 0.19651909 -0.11015638 0.07580933 -0.5040235 0.20598221 -0.05985435 -0.025543397 0.020988336 -0.023434171
entendi -0.5117814 0.20062917 -0.31353474 -0.06616062 -0.04675733 -0.19752072 0.02405557 0.27379403 0.12321857 -0.032315128 -0.25614685 -0.3004948 0.13406992 0.21550721 -0.056436777 0.097563766 0.29327157 -0.8095474 -0.36144632 -0.055390142 0.12752496 0.19507246 -0.10759895 0.07399235 -0.4484967 0.18731263 -0.040384557 -0.03783253 0.046940565 -0.017228695
gerente -0.64110553 0.26773947 -0.36878031 -0.08046385 -0.04640951 -0.24335498 0.046158195 0.3537095 0.14813285 -0.028604222 -0.30004007 -0.36584643 0.17907946 0.27903557 -0.10529077 0.14624698 0.37092617 -1.0088354 -0.44094032 -0.072806895 0.15301548 0.23421982 -0.1297927 0.07706526 -0.574779 0.25750032 -0.06904081 -0.04952319 0.04773546 -0.0016788034
pendiente -0.5530202 0.2401158 -0.316023 -0.07160042 -0.04331548 -0.22062469 0.025005715 0.2995256 0.1516662 -0.009947641 -0.26024404 -0.3178597 0.15403548 0.23286347 -0.071507156 0.10650444 0.3009667 -0.8467286 -0.37194932 -0.06152561 0.12153035 0.22266631 -0.106380455 0.061190944 -0.49882478 0.1896241 -0.049653307 -0.017134024 0.02676897 0.0048188632
corresponsal -0.6312672 0.25016114 -0.36174995 -0.06524336 -0.06269487 -0.2436808 0.031708892 0.3415475 0.1548938 -0.023291828 -0.28131294 -0.32266074 0.18435305 0.2574224 -0.10059108 0.13110755 0.3463102 -0.9596954 -0.440106 -0.05964851 0.14123376 0.2303908 -0.13914557 0.08417325 -0.5660815 0.218351 -0.062496223 -0.020433493 0.025741296 0.005605327
apenas -0.5229773 0.23539062 -0.3306628 -0.06627902 -0.04717714 -0.21389972 0.038298182 0.303122 0.13690369 -0.025254516 -0.25303936 -0.291651 0.15007438 0.24562335 -0.060044307 0.11074214 0.29865357 -0.8422179 -0.3576579 -0.07228541 0.13952574 0.2140581 -0.109231845 0.05610935 -0.4790707 0.21335275 -0.042439528 -0.027065923 0.025749737 0.00096075743
activa -0.5526166 0.24063267 -0.32141665 -0.060459036 -0.035219222 -0.20798971 0.024876935 0.31507802 0.12433192 -0.029227398 -0.2630862 -0.31875512 0.14980967 0.24033402 -0.0609255 0.12700208 0.3072189 -0.87468773 -0.3875468 -0.06044536 0.12071124 0.20811288 -0.13092043 0.058233846 -0.50031686 0.21983464 -0.032940954 -0.028805567 0.02927121 -0.007156593
diferente -0.6476185 0.26260757 -0.38153833 -0.08708408 -0.063723795 -0.24511357 0.05799204 0.36564186 0.17795844 -0.008835099 -0.31693852 -0.3470607 0.19758235 0.2874534 -0.07592462 0.12134076 0.37734583 -1.0245032 -0.4479245 -0.09088505 0.15069471 0.2575011 -0.13395989 0.08213183 -0.5899445 0.23174287 -0.065342925 -0.038453806 0.045271143 -0.014274314
inconveniente -0.5696531 0.24647692 -0.34227657 -0.053151477 -0.06395748 -0.225951 0.045455575 0.3294992 0.13180861 -0.010130178 -0.26075947 -0.32829627 0.17580521 0.25859734 -0.073288396 0.13026986 0.33598545 -0.92490375 -0.4156182 -0.084474154 0.13490602 0.20681012 -0.124555625 0.07480297 -0.50724286 0.21281454 -0.0626592 -0.042349905 0.028576037 -0.020599876
verificar -0.52740085 0.22140923 -0.2967029 -0.06220036 -0.02787838 -0.21677297 0.03933292 0.27989253 0.11961754 -0.024478877 -0.23304206 -0.28425694 0.14954633 0.22404614 -0.06177665 0.10813305 0.30648535 -0.8334662 -0.36698538 -0.062040567 0.10425488 0.20325482 -0.105889805 0.057982575 -0.47703514 0.18709381 -0.05503137 -0.021068094 0.024746332 0.0059096594
reclamar -0.561491 0.22713877 -0.33381492 -0.07801926 -0.03175036 -0.20289974 0.04346701 0.31358317 0.15069196 -0.03211142 -0.27088866 -0.32017872 0.16613288 0.24650027 -0.06881966 0.11176152 0.3313954 -0.8648174 -0.38324314 -0.06137399 0.13960719 0.20924403 -0.13114429 0.07681412 -0.47615197 0.20204258 -0.032205723 -0.046573106 0.046448346 -0.018930249
imagen -0.5712827 0.24011016 -0.34053153 -0.079443656 -0.04212162 -0.23633806 0.047924586 0.31709632 0.13189717 -0.025492169 -0.26931524 -0.3233997 0.15891236 0.23864654 -0.082082346 0.10826097 0.33530438 -0.8920327 -0.41597337 -0.05455756 0.13024864 0.22523838 -0.11709295 0.054388963 -0.52349 0.21782239 -0.04390823 -0.04137413 0.018844401 -0.013032908
revista -0.5187543 0.21829766 -0.30260134 -0.047776666 -0.043471098 -0.19828606 0.048996005 0.29110822 0.12972943 -0.03444509 -0.25178084 -0.29522103 0.13672243 0.22795732 -0.06567506 0.09861839 0.30925542 -0.82432616 -0.3561399 -0.063501276 0.12771362 0.18534659 -0.12338898 0.06095833 -0.4622224 0.20408605 -0.0375141 -0.03859284 0.03847774 -0.023730617
unidad -0.47030818 0.18718836 -0.26197022 -0.058410745 -0.0407871 -0.16752693 0.017992929 0.2651264 0.11662827 -0.023588045 -0.23104046 -0.2555035 0.1264634 0.21616271 -0.06494213 0.09708682 0.2684856 -0.747858 -0.32869977 -0.06530651 0.11517964 0.17365707 -0.11485638 0.045943037 -0.42308736 0.17017005 -0.03618241 -0.0375698 0.027667763 -0.011668336
supuestamente -0.611971 0.23185119 -0.35825968 -0.060041256 -0.0516183 -0.22720547 0.054828256 0.34613654 0.15733895 -0.009260752 -0.27302402 -0.34267735 0.18125482 0.25249195 -0.07177162 0.12903759 0.35412124 -0.95159674 -0.40740293 -0.06961348 0.15228291 0.22381954 -0.11479112 0.08593356 -0.5310114 0.23007545 -0.048984513 -0.053303495 0.052065767 0.003528926
encuentra -0.41729057 0.17731178 -0.25697917 -0.058699746 -0.050403893 -0.16964217 0.041844215 0.25093934 0.09353091 -0.02366833 -0.1842496 -0.23509328 0.12765136 0.1873932 -0.057776805 0.08160369 0.23798557 -0.6590609 -0.28363162 -0.037337318 0.097073086 0.17237866 -0.080538854 0.038668547 -0.39151204 0.1517482 -0.051603355 -0.032874703 0.030080821 -0.015695099
actualizar -0.5827751 0.23157826 -0.34511682 -0.06559898 -0.050842524 -0.2410696 0.02833013 0.34395602 0.15261985 -0.00916669 -0.26488394 -0.30652696 0.14797835 0.2591399 -0.076813705 0.11766757 0.3538442 -0.91468686 -0.42278424 -0.070574954 0.14772888 0.21560873 -0.1198883 0.06852264 -0.52568305 0.22087607 -0.056490038 -0.027062582 0.03836308 -0.008253176
equipo -0.55697006 0.23653606 -0.33614963 -0.059791137 -0.04659312 -0.23138022 0.050876293 0.3218739 0.1425449 -0.035274033 -0.25604978 -0.2997857 0.15555765 0.2513962 -0.07270256 0.10910358 0.32138932 -0.87558746 -0.38014275 -0.07626886 0.137493 0.21406554 -0.12881671 0.06862264 -0.49306297 0.21561006 -0.06332079 -0.03900649 0.050979547 0.007926749
cambia -0.5574581 0.24149384 -0.32087326 -0.07697324 -0.05758812 -0.20920375 0.04777965 0.31217808 0.15630406 -0.02141299 -0.2594267 -0.30999964 0.14406475 0.2572947 -0.09381974 0.12021284 0.33672786 -0.87435186 -0.38602424 -0.078475654 0.11700118 0.20448416 -0.11865084 0.07949051 -0.5173265 0.21088211 -0.045821376 -0.021224298 0.03661356 -0.023993274
audio -0.45514995 0.17101319 -0.2554827 -0.041192923 -0.031609964 -0.17449689 0.043566804 0.25803447 0.10600468 -0.02023682 -0.21564734 -0.25735208 0.111157544 0.20058644 -0.07636995 0.08395183 0.24896932 -0.71120495 -0.32390893 -0.05696632 0.10928287 0.16793391 -0.10101966 0.059571844 -0.39364228 0.16654572 -0.0398498 -0.02480648 0.020152397 -0.0083337715
atender -0.60962653 0.24809664 -0.34028688 -0.06560198 -0.04436773 -0.24704762 0.057599343 0.3350589 0.15466702 -0.011576199 -0.28973645 -0.32089865 0.17581892 0.2692678 -0.0813371 0.13909303 0.34058088 -0.9327184 -0.42187956 -0.08162584 0.13726547 0.22835718 -0.13568397 0.061756715 -0.5463981 0.21566053 -0.03428748 -0.039017428 0.025436532 -0.011329581
notificaciones -0.7854514 0.32206118 -0.4805194 -0.07828798 -0.0776984 -0.31775513 0.04360197 0.4397742 0.21115011 -0.039180677 -0.3846019 -0.4441481 0.2336776 0.33047318 -0.12684701 0.16748308 0.45672888 -1.2584099 -0.56426334 -0.11186122 0.1620712 0.283497 -0.16769375 0.0826534 -0.70391333 0.2873694 -0.079057276 -0.04320262 0.044504907 -0.02512985
