9 30
necesitas -0.014952495 -0.016049687 -0.013973069 -0.0058791805 0.0069249677 0.0017548581 0.013373587 -0.0069320383 0.009808812 0.012946581 -0.01425285 -0.012854086 0.016481733 0.005332128 -0.0046179527 0.0068316455 -0.013053242 -0.015027187 -0.012234745 -0.013001666 0.006634104 0.012675222 -0.006916188 0.010095934 0.0075506107 -0.0062038014 -0.0053507453 -0.010392243 -0.0009936044 0.011585914
volver 0.0059247008 -0.011982911 -0.007480983 0.0003831868 0.0056132795 -0.00050639285 0.004117552 -0.012725929 -0.015131293 0.014858817 -0.014689563 0.015974477 0.009416231 -0.0005989635 0.011937448 -0.016374474 -0.0080392705 -0.0042853393 -0.0057177073 0.011302886 0.00021674501 -0.0072769984 -0.005909944 -0.0070552966 0.0038220566 -0.00019278188 0.0115258405 0.0114006605 0.008547774 -0.010148152
presiona -0.0012423848 0.007319152 0.014890409 0.012504833 -0.0021254623 0.009267813 0.015798884 0.014758938 0.0066312426 0.0058358703 0.015222473 -0.0014188935 -0.010431478 -0.014433527 -0.010972508 -0.013670562 -0.016831938 0.0012511802 0.01614122 0.015003926 -0.010490732 -0.008055498 -0.00896426 0.006087328 0.00951469 0.01470602 -0.016597597 -0.013057938 0.009371385 -0.011695429
numeral -0.010646731 -0.0014921568 -0.009044515 0.015839098 -0.0061254445 -0.014751086 0.007215403 0.005944459 0.0014209023 -0.0043486385 -0.0044014314 0.008188147 0.00681811 0.014477038 -0.005389242 -0.016602144 0.009817938 0.0016655275 0.013688942 0.004997514 -0.00902793 -0.011606311 0.014995157 -0.009501782 -0.015038763 0.009979209 -0.01167219 0.009939709 -0.015249545 -0.006207504
mensaje 0.008744699 0.0037939087 -0.013663503 0.011533331 0.0014988601 -0.0012304059 0.0023730514 0.014874183 0.002378133 0.009435368 -0.013355061 -0.014765289 -0.016435921 -0.00215598 -0.015077671 -0.0147659145 -0.0002518917 -0.014081129 0.0044204057 -0.014664281 -0.0146475565 -0.016597085 -0.001426545 -0.012515287 -0.0077727507 -0.0076737152 0.009876829 -0.0027017652 0.015771732 -0.00850928
escuchar 0.0030331563 -0.0029928703 0.007523941 0.008152176 -0.016535684 0.012361537 -0.011960376 -0.004997733 -6.509964e-05 0.012014709 0.01222748 -0.007967945 0.0029838816 0.01004633 0.012842762 -0.011947577 -0.011620385 0.009077522 -0.0146245565 0.00042198916 -0.014514197 0.008012339 0.0024563551 -3.2367298e-05 0.0006842865 0.010099653 -0.0061207647 -0.009198701 -0.012908021 0.001023496
llamar 0.0063119377 -0.015973324 0.01046989 -0.006016164 -0.009945168 0.00557336 -0.00890858 -0.0075166114 -0.0034523557 0.014709831 -0.0044768834 0.0046964292 0.008747705 0.005659201 0.0062139663 0.012098761 -0.0152044175 -0.0033141482 -0.0012200555 0.007783344 -0.011452687 -0.015234936 -0.003845955 0.010815886 0.015613598 -0.0032815496 0.015672756 0.013217646 0.002759554 -0.016065022
tono 0.0014809063 0.012162466 0.0046771457 -0.0044821226 0.010250837 -0.0010003238 -0.008608122 0.016529448 0.007103427 0.01053155 0.0142437015 0.014373829 -0.0027335142 0.014606971 -0.007726561 -0.015410181 -0.0030944499 0.003592679 0.012155441 0.015688065 -0.01601306 -0.010109048 -0.007150825 0.012590395 0.011340915 0.0022087905 0.012666477 -0.012451912 0.0044865822 -0.004839503
grabacion 0.007954823 -0.009842929 0.00916775 0.011692053 0.011937108 0.0007237212 -0.011274553 -0.0026899609 0.0035909398 -0.010318249 -0.009095641 -0.0067642783 0.011578456 0.008622527 0.010852973 0.008891936 -0.010837704 -0.011418807 -0.003052233 -0.0045450674 0.005664254 -0.0055722045 0.012639644 -0.004017887 -0.014399841 0.0043095644 -0.004481383 -0.014861359 -0.012768087 -0.0044860234
