1 30
llamar 0.009165697 0.010862312 -0.0043238024 0.012756651 0.0063363467 0.012734965 0.0065013617 0.0023929633 0.0051348032 0.013922633 0.010986266 0.0013945808 0.007791605 0.002565745 -0.0063337614 0.0005661741 0.008843416 -0.008653579 -0.010969246 0.0068109734 -0.012424606 0.00831076 -0.008546018 -0.009191282 0.009961308 0.0062477794 0.004265325 -0.015173123 -0.004365617 0.003392483
