4 30
credito -0.00043831218 -0.000549372 0.01202959 -0.0039506615 0.010790821 0.002340781 -0.015310076 0.0054255035 -0.009612333 0.0133634545 0.0067229485 -0.0027972392 0.013936335 -0.0019646098 -0.010851307 0.013391536 -0.005230369 -0.00889403 0.0074452134 -0.0008821284 0.0060084797 0.005700749 0.00638305 -0.00820201 -0.003283927 0.012323798 -0.008630171 -0.0012023333 0.009527188 0.016130561
negocio 0.0073785675 -0.012006292 0.013624481 0.00426038 -0.014099319 -0.0017349769 0.009857156 -0.008609701 0.003975285 0.00467309 -0.015895603 0.009138722 -0.007391723 0.0069255373 0.015755707 -0.006524885 0.0080237305 0.010660171 0.014212308 -0.013923445 0.014435824 0.002183865 -0.007046989 0.0036634132 0.005703234 0.009221506 -0.013080448 0.0020061058 -0.0075446274 -0.0030627905
interes 0.007676871 -0.003018871 -0.014041506 -0.012623017 0.0030430323 -0.00689366 -0.0045425887 0.0078024724 0.014231581 0.0014821588 0.00850669 -0.0028442186 0.008594191 0.011405343 0.009278317 -0.0064250827 -0.010982829 0.013372676 0.0065024123 -0.006844339 0.0073104375 0.01574077 0.0063986625 0.00706406 -0.01390641 0.006529316 0.0016312432 0.005873522 -0.0065522576 0.0070728096
cuota -0.010769639 -0.010952175 -0.01195686 -0.0047845533 0.005476588 -0.013643581 0.013118525 -0.0055660214 0.011566941 -0.015406528 -0.0054158093 -0.0020140843 0.008933443 0.015047526 -0.0019472525 -0.0029093109 0.0013494571 0.001859115 0.00095914875 -0.012162641 0.0035429653 -0.006636689 0.010011742 0.006555158 0.0031214338 0.006566739 0.009864644 0.0076607727 0.0105155995 0.0011745434
