23 30
credito -0.009370161 -0.011882867 0.01725293 0.008503544 -0.014905104 -0.013539391 0.014655752 -0.001084578 0.0092945555 0.010313597 -0.0029799829 0.011542174 -0.0010969201 0.0067314664 0.0019454825 -0.0040730652 0.011684178 0.0059789806 0.009253058 -0.010111979 0.0061708065 0.011797927 0.015326372 0.009280875 -0.0048413114 -0.012674343 0.014534727 0.011537612 -0.0030083878 0.0059904438
llamar 0.002243751 -0.0010391845 -0.006842545 -0.006510659 -0.0007471538 0.015875092 0.010057142 -0.0128188245 0.011970233 -0.013438833 -0.016863216 -0.016215006 0.006542 0.014607435 0.0014380872 0.0152161205 0.0019200918 0.014107085 -0.009658088 0.0061126556 0.005931862 0.0041984557 0.013398465 -0.0004797757 -0.0068851155 0.0022466348 0.0038722306 -0.0040358757 0.0010965511 -0.01147629
negocio -0.00072438404 0.0010542196 -0.0048861913 0.011357426 0.0036944451 0.0052430127 0.014178234 -0.0012788461 -0.004540929 -0.004518613 0.0039699273 0.0015385865 0.009329284 -0.012003818 -0.01138417 -0.0070428955 0.0020843777 0.0042509055 0.010119995 0.012055717 -0.016289836 0.0142453015 -0.014271519 0.012654638 0.008374543 -0.011216198 0.009034085 0.015798181 -0.00035683805 0.0055161896
facturacion 0.00024423498 -0.016974619 0.005151153 0.0016847425 0.0041231797 -0.015327795 0.013570859 0.006598165 0.0034045398 -0.0075606257 -0.004496485 -0.00035441705 -0.0008821844 -0.013779412 -0.0038815483 0.0078402255 0.0037036478 -0.0053366045 -0.014463218 0.00049357157 -0.011171492 -0.012670495 0.00014579478 -0.010940708 0.002183952 0.0031182002 0.0076665794 -0.014694595 0.0075738784 0.00024557943
producto 0.010370374 -0.010083504 0.008914465 0.00039886747 -0.0035330416 0.010662507 0.011581964 -0.011242409 -0.010993362 -0.0152906645 -0.0036957103 0.01398268 0.010187401 0.011382515 0.00938072 0.001127067 0.015615313 -0.0022656096 0.0007079088 -0.012812713 -0.013126292 -0.0133853555 -0.0058966004 -0.0012424923 -0.013184495 0.01205076 -0.0013185666 0.017010484 -0.00010423556 -0.016540108
independiente 0.015321529 0.0025436012 -0.009441572 0.012261271 -0.016343256 0.0064320615 0.018187545 0.004063272 0.0068707066 0.015499047 0.003491733 -0.00079764193 -0.00076350116 0.009263116 -0.007927881 0.0083683245 0.0045545488 -0.009590354 -0.011508541 0.013669164 0.01542356 0.013231239 -0.008436987 0.0033771312 -0.005982963 -0.0081729805 0.010997536 0.014889276 -0.0105188405 -0.0018526744
informacion -0.006735053 -0.010626067 0.014715472 -0.0007557684 -0.012915905 -0.0007016868 0.0064790426 -0.007000056 0.00012286374 -0.009690603 -0.0010472551 0.0009338163 0.008791551 -0.01041515 0.007166751 0.0120091885 0.015436813 -0.009784717 -0.0013594386 0.01585203 0.016129805 0.014727169 -0.011450035 0.00065654155 -0.016557323 -0.006943835 0.0063786334 -0.0124635855 -0.008873038 0.0065862318
compro -0.0018632498 -0.007064383 0.007937334 -0.011446622 0.004181345 0.011520971 0.010667503 -0.013632642 0.006634423 0.004715408 0.012736081 -0.01564664 -0.00022465181 0.012959959 0.009225707 0.016515227 0.012722932 0.005442463 -0.013380216 -0.002885352 0.005629008 0.015372607 -0.007564921 0.006079008 -0.003077902 -0.005115372 -0.008704854 0.013005433 0.01644797 -0.0038578107
creditos -0.0016671639 0.002752886 0.009807684 -0.00505966 -0.0070635295 0.0009397952 0.007965439 -0.011970978 -0.009580334 0.0016236027 0.005436468 -0.008382587 -0.0156826 -0.0004533208 -0.013936436 0.007394783 -0.0056324904 0.015170683 0.010600776 0.0032298688 -0.001036509 -0.008738354 0.010843075 0.012117241 -0.014198932 3.8321607e-05 0.0005808109 -0.0031179895 0.008673561 0.008464068
vendo -0.002515914 -0.0023657212 0.011372895 -0.015852954 -0.00072054734 0.000192323 0.0036788906 -0.006766889 -0.006016957 0.015572769 -0.006132205 -0.009326052 -0.0166219 0.010974602 0.013382902 0.0008270461 -0.00025935276 -0.0032146752 -0.00028347984 -0.007451867 -0.012478616 -0.002821267 0.001440382 0.0025291536 -0.014802538 -0.012862038 -0.012801595 -0.011137374 0.013720379 -0.007916645
manejo 0.00054307166 -0.0025701555 -0.011677011 0.016828824 0.002593809 0.012956086 0.007971224 0.009972209 0.01441691 0.005405232 -0.015502087 -0.0036260926 0.0077526486 0.011582367 -0.01617825 -0.013283313 0.0013293936 0.0007052577 0.0034466765 -0.011207351 0.005745673 0.013059739 0.010783142 -0.0072255908 0.015184308 -0.0086578205 -0.003021174 0.017243396 -0.014395787 0.01237074
oficina -0.0042403815 -0.0039382493 -0.0042523853 -0.0051064566 -0.008996587 0.015571718 -0.013233502 -0.002839554 -0.0036151423 0.013880388 -0.010201639 -0.0034283001 -0.016389191 0.016233893 -0.0061551603 -0.010207838 -0.00018164093 -0.00077807705 0.0040615723 0.010314503 -0.0105512235 -0.014031416 0.015721397 -0.00857053 -0.009485501 0.00614156 -0.0068723033 0.0146124065 -0.0071796407 -0.012861315
compra -0.015625434 -0.012825396 -0.0031875256 -0.0050297054 -0.017716061 0.0042870482 -0.0035423143 -0.00089465023 -0.00065040344 0.014681209 0.007828224 0.00030522535 -0.001383541 0.012866647 0.015168765 0.010809925 -0.01018087 0.009858931 0.011365462 -0.007628667 -0.00032580906 0.008609512 0.0024504769 0.016959595 0.0127036935 0.0027457587 0.0011370109 -0.0014676934 -0.013402105 -0.015122906
hablar 0.011102891 -0.00866816 0.0068400777 0.0071527464 0.0015966686 0.009999179 -0.005464235 0.0031016788 -0.013423607 0.011972334 0.009570791 -1.3443877e-05 0.011261062 -0.002698643 -0.0086190915 -0.0059939777 0.0025006393 0.008131593 -0.011483017 -0.0056246575 -0.013946257 -0.013714061 0.015827145 0.01219703 0.011717982 0.0011829092 -0.010496285 -0.0066787195 0.006691925 0.015311552
necesito -0.0022802737 0.015392788 -0.009889706 0.014488705 0.0039755334 -0.013019955 0.015408269 -0.005406793 -0.010675236 0.002604577 -0.0067924224 -0.008516865 0.007964229 0.011099684 0.0039937017 -0.011866082 -0.010153019 0.016786797 0.0064236294 -0.0037590254 0.0047652405 0.0021079357 -0.008215731 -0.012357345 0.011435329 -0.003124659 -0.00054101157 -0.007467531 0.0056778495 -0.0057740547
tarjeta 0.012448314 -0.003398842 -0.0014840097 0.0052817357 -0.00801133 0.012114251 0.016093425 0.006435497 0.0035904823 0.015154176 0.009846607 0.013356963 -0.0038051042 0.0059601534 -0.015333545 -0.0012444786 0.0063461154 -0.012481444 0.0036089008 -0.011234788 -0.0034516267 -0.014674096 -0.013037885 0.006301972 0.0056323386 0.011837731 0.00032986407 0.01602715 -0.014640115 0.011463173
comida 0.013773926 -0.012943601 -0.012486892 -0.0010094887 -9.729045e-05 -0.012665001 -0.0039716354 0.0035757495 -0.006744015 0.011211115 -0.0014800223 -0.014613922 0.013114973 -0.006805574 0.012745599 0.010690341 -0.008847949 -0.011990115 -0.016049255 -0.007830365 0.0034190228 -0.0027625968 0.000133693 -0.000548537 -0.01099502 0.01564507 -0.0078043207 0.0033155275 -0.01594465 -0.0084603205
trabajando -0.0004953346 -0.010487468 0.014759848 0.000544242 -0.007470098 -0.01590866 -0.0062584323 0.0051497566 -0.00075315457 0.0018829107 -0.0015833006 -0.015375611 -0.006545458 0.0027953964 0.010826074 0.0007057505 -0.010706698 0.0028482375 -0.0033555096 -0.0030110586 0.00482269 -0.005416158 0.0017487413 -0.008718425 -0.016463974 -0.00015050697 -0.009165807 9.292289e-05 -0.009374653 0.0023285549
comprar 0.010841609 -0.017506763 0.014973467 0.016906422 -0.0018009339 -0.007696526 0.010112337 -0.002987831 -0.0015642456 0.0063235285 -0.011664567 0.010897322 0.0025204457 -0.0029579627 0.009999605 9.345888e-05 -0.0020645317 -0.011487807 -0.01016426 -0.005170642 0.012715314 0.013933119 -0.015919749 0.0027906967 -0.0080315275 0.0013667494 -0.015328028 0.014141693 -0.012205801 0.00048069734
documento -0.0041017975 0.0029519135 -0.012533601 -0.013653847 -0.00713243 0.008865173 -0.010892759 0.0021406102 -0.0041753454 0.0046907063 -0.0011042024 0.001477294 -0.013009721 0.01709493 -0.0046403776 -0.004984483 0.003991812 0.0057738894 0.002883397 0.009411494 -0.0048204446 0.0041871425 0.009872687 0.012796321 -0.004926836 0.009765594 -0.012584347 0.005691533 -0.00801047 0.0037678238
reporte 0.0074312314 -0.008819104 0.0035696374 0.015776938 -0.01163642 0.004515631 -0.0034562547 -0.0030104804 -0.0048629744 0.0032936877 -0.0012760042 -0.0065639927 -0.008793397 -0.003197882 -0.0035729501 -0.013492726 -0.0033229436 3.3078028e-05 0.0052199564 -0.013024502 0.015068566 0.0013357125 0.0058592097 -0.0017449332 0.003200629 0.004566277 0.012630015 0.0022763463 -0.0064043207 -0.0068588573
contrato 0.011346109 0.0003554025 0.014530794 -0.014138027 -0.008964933 0.009586543 0.008742805 -0.006125256 0.0053715906 -0.0058440687 -0.0031837525 0.009157037 6.201959e-05 0.0060218144 -0.0075832345 -0.014343387 -0.0010953259 0.0038539735 0.0041857595 -0.0012658993 -0.0056530703 0.004357741 -0.013457237 0.012013334 -0.0049534827 -0.00061495963 0.0095531205 -0.0076572574 0.009320422 -0.0016187035
perder 0.009849202 0.0013825482 -0.013805862 0.01609815 0.009905809 -0.003775694 0.007968276 0.007858432 0.012146544 0.01596837 -0.0046193916 -0.014672645 0.00788351 0.009860635 0.008742542 0.008328251 -0.0030324 -0.0054073907 -0.015220311 0.015013351 -0.0038564072 0.00390641 0.0051139332 0.004180979 0.0139661 0.004267953 -0.012810153 0.013907565 0.006226988 0.0053071002
